{"learner":{"attributes":{"best_iteration":"35","best_score":"0.9506702372118047"},"feature_names":[],"feature_types":[],"gradient_booster":{"model":{"cats":{"enc":[],"feature_segments":[],"sorted_idx":[]},"gbtree_model_param":{"num_parallel_tree":"1","num_trees":"168"},"iteration_indptr":[0,3,6,9,12,15,18,21,24,27,30,33,36,39,42,45,48,51,54,57,60,63,66,69,72,75,78,81,84,87,90,93,96,99,102,105,108,111,114,117,120,123,126,129,132,135,138,141,144,147,150,153,156,159,162,165,168],"tree_info":[0,1,2,0,1,2,0,1,2,0,1,2,0,1,2,0,1,2,0,1,2,0,1,2,0,1,2,0,1,2,0,1,2,0,1,2,0,1,2,0,1,2,0,1,2,0,1,2,0,1,2,0,1,2,0,1,2,0,1,2,0,1,2,0,1,2,0,1,2,0,1,2,0,1,2,0,1,2,0,1,2,0,1,2,0,1,2,0,1,2,0,1,2,0,1,2,0,1,2,0,1,2,0,1,2,0,1,2,0,1,2,0,1,2,0,1,2,0,1,2,0,1,2,0,1,2,0,1,2,0,1,2,0,1,2,0,1,2,0,1,2,0,1,2,0,1,2,0,1,2,0,1,2,0,1,2,0,1,2,0,1,2,0,1,2,0,1,2],"trees":[{"base_weights":[8.0702655E-2,3.670535E-1,-3.3033141E-1,4.5486707E-2,6.4091897E-1,4.4727653E-1,-4.5732433E-1,1.07433E-2,-1.4114382E-2,3.7264477E-2,-1.0299823E-2,6.2633404E-3,4.3779682E-2,-3.449017E-2,-1.4039901E-2],"categories":[],"categories_nodes":[],"categories_segments":[],"categories_sizes":[],"default_left":[0,0,0,0,0,0,0,0,0,0,0,0,0,0,0],"id":0,"left_children":[1,3,5,7,9,11,13,-1,-1,-1,-1,-1,-1,-1,-1],"loss_changes":[1.3382285E1,5.8606606E0,4.8249583E0,1.828199E0,3.3394156E0,8.659792E-1,1.4771776E0,0E0,0E0,0E0,0E0,0E0,0E0,0E0,0E0],"parents":[2147483647,0,0,1,1,2,2,3,3,4,4,5,5,6,6],"right_children":[2,4,6,8,10,12,14,-1,-1,-1,-1,-1,-1,-1,-1],"split_conditions":[1.7105263E-1,1.631579E-1,2.6666668E-1,2.0263158E-1,8E-1,1.4473684E-1,1.3157895E-1,1.07433E-2,-1.4114382E-2,3.7264477E-2,-1.0299823E-2,6.2633404E-3,4.3779682E-2,-3.449017E-2,-1.4039901E-2],"split_indices":[2,7,5,6,4,1,1,0,0,0,0,0,0,0,0],"split_type":[0,0,0,0,0,0,0,0,0,0,0,0,0,0,0],"sum_hessian":[1.1166813E2,6.5879524E1,4.5788605E1,3.0837225E1,3.50423E1,6.073999E0,3.9714607E1,2.055815E1,1.0279075E1,3.1304455E1,3.7378454E0,4.205076E0,1.8689227E0,1.5885843E1,2.3828764E1],"tree_param":{"num_deleted":"0","num_feature":"10","num_nodes":"15","size_leaf_vector":"1"}},{"base_weights":[-1.3036875E-1,-2.0480134E-2,-2.8354624E-1,3.361534E-1,-1.19665995E-1,-4.288303E-2,-5.675505E-1,2.2337316E-2,-1.975147E-2,-1.9119412E-2,-1.8472211E-4,4.143777E-3,-1.3728999E-2,-3.2732185E-2,-1.6858581E-2],"categories":[],"categories_nodes":[],"categories_segments":[],"categories_sizes":[],"default_left":[0,0,0,0,0,0,0,0,0,0,0,0,0,0,0],"id":1,"left_children":[1,3,5,7,9,11,13,-1,-1,-1,-1,-1,-1,-1,-1],"loss_changes":[1.6681107E0,2.1266286E0,2.8096235E0,1.2355613E0,1.4271166E0,7.0824575E-1,1.5923643E-1,0E0,0E0,0E0,0E0,0E0,0E0,0E0,0E0],"parents":[2147483647,0,0,1,1,2,2,3,3,4,4,5,5,6,6],"right_children":[2,4,6,8,10,12,14,-1,-1,-1,-1,-1,-1,-1,-1],"split_conditions":[1.7105263E-1,1.5263158E-1,4.6666667E-1,8.75E-1,1.368421E-1,3.3333334E-1,1.6052632E-1,2.2337316E-2,-1.975147E-2,-1.9119412E-2,-1.8472211E-4,4.143777E-3,-1.3728999E-2,-3.2732185E-2,-1.6858581E-2],"split_indices":[7,2,0,4,1,5,2,0,0,0,0,0,0,0,0],"split_type":[0,0,0,0,0,0,0,0,0,0,0,0,0,0,0],"sum_hessian":[9.8445786E1,5.79829E1,4.0462887E1,1.2097152E1,4.588575E1,2.252573E1,1.7937157E1,1.0845722E1,1.2514296E0,1.3348581E1,3.2537167E1,1.5017154E1,7.508577E0,1.1680009E1,6.2571473E0],"tree_param":{"num_deleted":"0","num_feature":"10","num_nodes":"15","size_leaf_vector":"1"}},{"base_weights":[-3.3248216E-2,-1.7910221E-1,6.470956E-1,3.237402E-1,-2.8206542E-1,1.387908E-1,1.0707682E0,4.086709E-2,-1.83306E-2,2.0867487E-2,-1.5462686E-2,-2.1311076E-2,3.391273E-2,5.9907556E-2,2.0867487E-2],"categories":[],"categories_nodes":[],"categories_segments":[],"categories_sizes":[],"default_left":[0,0,0,0,0,0,0,0,0,0,0,0,0,0,0],"id":2,"left_children":[1,3,5,7,9,11,13,-1,-1,-1,-1,-1,-1,-1,-1],"loss_changes":[1.0771165E1,4.7098684E0,3.9803858E0,5.6247044E0,1.5472445E0,3.2959383E0,3.5794258E-1,0E0,0E0,0E0,0E0,0E0,0E0,0E0,0E0],"parents":[2147483647,0,0,1,1,2,2,3,3,4,4,5,5,6,6],"right_children":[2,4,6,8,10,12,14,-1,-1,-1,-1,-1,-1,-1,-1],"split_conditions":[2.0526315E-1,1.5263158E-1,1.5E-1,1.9473684E-1,2E-1,1.7631578E-1,1.6578947E-1,4.086709E-2,-1.83306E-2,2.0867487E-2,-1.5462686E-2,-2.1311076E-2,3.391273E-2,5.9907556E-2,2.0867487E-2],"split_indices":[2,7,6,1,4,7,7,0,0,0,0,0,0,0,0],"split_type":[0,0,0,0,0,0,0,0,0,0,0,0,0,0,0],"sum_hessian":[1.0637856E2,8.820556E1,1.8173004E1,1.4627052E1,7.357851E1,8.864881E0,9.308125E0,8.421637E0,6.205416E0,2.2162201E0,7.136229E1,4.4324403E0,4.4324403E0,7.091904E0,2.2162201E0],"tree_param":{"num_deleted":"0","num_feature":"10","num_nodes":"15","size_leaf_vector":"1"}},{"base_weights":[1.9111541E-1,-3.2021862E-1,3.8517818E-1,3.9147075E-2,-3.9273232E-1,3.2433566E-2,6.4805007E-1,-3.940479E-3,-2.7877515E-2,-1.1555775E-2,1.4059397E-2,2.3027496E-2,5.658896E-2],"categories":[],"categories_nodes":[],"categories_segments":[],"categories_sizes":[],"default_left":[0,0,0,0,0,0,0,0,0,0,0,0,0],"id":3,"left_children":[1,3,5,-1,7,9,11,-1,-1,-1,-1,-1,-1],"loss_changes":[1.20254135E1,2.9907963E0,8.083241E0,0E0,1.61903E0,2.5806665E0,4.01614E0,0E0,0E0,0E0,0E0,0E0,0E0],"parents":[2147483647,0,0,1,1,2,2,4,4,5,5,6,6],"right_children":[2,4,6,-1,8,10,12,-1,-1,-1,-1,-1,-1],"split_conditions":[1.4210527E-1,6.666667E-2,1.631579E-1,3.9147075E-2,1.7631578E-1,1.9473684E-1,2.263158E-1,-3.940479E-3,-2.7877515E-2,-1.1555775E-2,1.4059397E-2,2.3027496E-2,5.658896E-2],"split_indices":[1,5,7,0,2,1,1,0,0,0,0,0,0],"split_type":[0,0,0,0,0,0,0,0,0,0,0,0,0],"sum_hessian":[1.18943245E2,3.2543808E1,8.639944E1,1.4029777E0,3.114083E1,3.7372765E1,4.902667E1,1.1229871E1,1.991096E1,1.8181175E1,1.919159E1,3.6738422E1,1.2288246E1],"tree_param":{"num_deleted":"0","num_feature":"10","num_nodes":"13","size_leaf_vector":"1"}},{"base_weights":[-1.4159165E-1,-2.8721637E-1,-1.7406186E-2,-3.315562E-2,-7.595178E-2,1.563796E-1,-1.4268371E-1,1.1210552E-2,-1.4610648E-2,1.9334016E-2,-8.513254E-3,-1.4867678E-2,4.185802E-4],"categories":[],"categories_nodes":[],"categories_segments":[],"categories_sizes":[],"default_left":[0,0,0,0,0,0,0,0,0,0,0,0,0],"id":4,"left_children":[1,3,5,-1,7,9,11,-1,-1,-1,-1,-1,-1],"loss_changes":[1.8333457E0,3.6601043E0,1.2399864E0,0E0,2.0805209E0,1.8642094E0,7.7404606E-1,0E0,0E0,0E0,0E0,0E0,0E0],"parents":[2147483647,0,0,1,1,2,2,4,4,5,5,6,6],"right_children":[2,4,6,-1,8,10,12,-1,-1,-1,-1,-1,-1],"split_conditions":[1.631579E-1,1.4473684E-1,1.4736842E-1,-3.315562E-2,1.5263158E-1,3.3333334E-1,1.4210527E-1,1.1210552E-2,-1.4610648E-2,1.9334016E-2,-8.513254E-3,-1.4867678E-2,4.185802E-4],"split_indices":[2,6,6,0,2,0,1,0,0,0,0,0,0],"split_type":[0,0,0,0,0,0,0,0,0,0,0,0,0],"sum_hessian":[1.0065321E2,4.572339E1,5.4929825E1,1.56820545E1,3.0041334E1,2.2906088E1,3.2023735E1,1.2564918E1,1.7476418E1,1.332647E1,9.579618E0,1.5344034E1,1.6679703E1],"tree_param":{"num_deleted":"0","num_feature":"10","num_nodes":"13","size_leaf_vector":"1"}},{"base_weights":[-5.679277E-2,4.8527715E-1,-2.9758918E-1,1.6462971E-1,7.379034E-1,3.0336943E-1,-3.3950746E-1,2.3862628E-2,-1.683011E-3,5.1899333E-3,5.0759297E-2,3.5764195E-2,-1.025252E-2,-1.836212E-2,1.3469067E-2],"categories":[],"categories_nodes":[],"categories_segments":[],"categories_sizes":[],"default_left":[0,0,0,0,0,0,0,0,0,0,0,0,0,0,0],"id":5,"left_children":[1,3,5,7,9,11,13,-1,-1,-1,-1,-1,-1,-1,-1],"loss_changes":[1.4264149E1,2.604505E0,2.0054579E0,1.0151517E0,3.1536627E0,1.2885404E0,1.2991009E0,0E0,0E0,0E0,0E0,0E0,0E0,0E0,0E0],"parents":[2147483647,0,0,1,1,2,2,3,3,4,4,5,5,6,6],"right_children":[2,4,6,8,10,12,14,-1,-1,-1,-1,-1,-1,-1,-1],"split_conditions":[1.4210527E-1,1.5E-1,2E-1,1.0789473E-1,1.7631578E-1,1.4736842E-1,2.5263157E-1,2.3862628E-2,-1.683011E-3,5.1899333E-3,5.0759297E-2,3.5764195E-2,-1.025252E-2,-1.836212E-2,1.3469067E-2],"split_indices":[1,6,4,1,2,1,6,0,0,0,0,0,0,0,0],"split_type":[0,0,0,0,0,0,0,0,0,0,0,0,0,0,0],"sum_hessian":[1.07173584E2,3.265249E1,7.4521095E1,1.51169195E1,1.753557E1,4.4523983E0,7.00687E1,5.3210063E0,9.795913E0,5.753195E0,1.1782376E1,2.2348657E0,2.2175324E0,6.739568E1,2.6730146E0],"tree_param":{"num_deleted":"0","num_feature":"10","num_nodes":"15","size_leaf_vector":"1"}},{"base_weights":[1.41156E-1,-1.1788263E-1,6.2265897E-1,5.676047E-1,-2.013238E-1,5.399629E-2,2.775061E-1,3.975393E-2,-8.217838E-3,-5.2813574E-4,-2.0857016E-2,1.9567462E-2,-1.5760948E-3],"categories":[],"categories_nodes":[],"categories_segments":[],"categories_sizes":[],"default_left":[0,0,0,0,0,0,0,0,0,0,0,0,0],"id":6,"left_children":[1,3,5,7,9,-1,11,-1,-1,-1,-1,-1,-1],"loss_changes":[1.4586313E1,4.4896994E0,6.149167E0,1.5564189E0,2.8335407E0,0E0,8.788539E-1,0E0,0E0,0E0,0E0,0E0,0E0],"parents":[2147483647,0,0,1,1,2,2,3,3,4,4,6,6],"right_children":[2,4,6,8,10,-1,12,-1,-1,-1,-1,-1,-1],"split_conditions":[1.9473684E-1,2E-1,1.4736842E-1,2.0526315E-1,1.7631578E-1,5.399629E-2,2.263158E-1,3.975393E-2,-8.217838E-3,-5.2813574E-4,-2.0857016E-2,1.9567462E-2,-1.5760948E-3],"split_indices":[1,5,6,2,2,0,6,0,0,0,0,0,0],"split_type":[0,0,0,0,0,0,0,0,0,0,0,0,0],"sum_hessian":[1.153566E2,7.549632E1,3.986028E1,7.562911E0,6.793341E1,1.6229807E1,2.3630474E1,5.7040243E0,1.8588864E0,3.66167E1,3.131671E1,1.707413E1,6.5563436E0],"tree_param":{"num_deleted":"0","num_feature":"10","num_nodes":"13","size_leaf_vector":"1"}},{"base_weights":[-1.6757387E-1,-2.27706E-3,-2.9332352E-1,4.1961065E-1,-1.1172971E-1,-4.347305E-1,2.6996916E-2,2.9588679E-2,-1.9690603E-2,1.44569995E-2,-1.0603845E-2,7.1836426E-4,-2.435138E-2,-2.7170539E-2,9.333966E-3],"categories":[],"categories_nodes":[],"categories_segments":[],"categories_sizes":[],"default_left":[0,0,0,0,0,0,0,0,0,0,0,0,0,0,0],"id":7,"left_children":[1,3,5,7,9,11,13,-1,-1,-1,-1,-1,-1,-1,-1],"loss_changes":[2.1046946E0,2.114221E0,2.6170163E0,1.5540053E0,1.5230374E0,9.4553566E-1,1.7916533E0,0E0,0E0,0E0,0E0,0E0,0E0,0E0,0E0],"parents":[2147483647,0,0,1,1,2,2,3,3,4,4,5,5,6,6],"right_children":[2,4,6,8,10,12,14,-1,-1,-1,-1,-1,-1,-1,-1],"split_conditions":[1.631579E-1,1.5263158E-1,1.7631578E-1,7.5E-1,1.4736842E-1,2.857143E-1,2.857143E-1,2.9588679E-2,-1.9690603E-2,1.44569995E-2,-1.0603845E-2,7.1836426E-4,-2.435138E-2,-2.7170539E-2,9.333966E-3],"split_indices":[7,2,2,4,6,4,4,0,0,0,0,0,0,0,0],"split_type":[0,0,0,0,0,0,0,0,0,0,0,0,0,0,0],"sum_hessian":[1.00287476E2,4.377013E1,5.6517345E1,8.432634E0,3.5337494E1,3.896076E1,1.755659E1,7.1845055E0,1.2481289E0,6.698149E0,2.8639345E1,4.139381E0,3.4821377E1,3.3143167E0,1.4242272E1],"tree_param":{"num_deleted":"0","num_feature":"10","num_nodes":"15","size_leaf_vector":"1"}},{"base_weights":[1.5822815E-2,3.0077836E-1,-3.9682E-1,1.6232337E-1,8.9559346E-1,-5.4249096E-1,-1.2829137E-1,-8.9595484E-4,3.1336855E-2,2.431169E-2,5.040675E-2,-3.08608E-2,-1.2031029E-2,-1.2521406E-2,3.1186745E-2],"categories":[],"categories_nodes":[],"categories_segments":[],"categories_sizes":[],"default_left":[0,0,0,0,0,0,0,0,0,0,0,0,0,0,0],"id":8,"left_children":[1,3,5,7,9,11,13,-1,-1,-1,-1,-1,-1,-1,-1],"loss_changes":[1.333144E1,5.3751507E0,1.7426438E0,4.6651306E0,8.272457E-2,5.220156E-1,1.7730627E0,0E0,0E0,0E0,0E0,0E0,0E0,0E0,0E0],"parents":[2147483647,0,0,1,1,2,2,3,3,4,4,5,5,6,6],"right_children":[2,4,6,8,10,12,14,-1,-1,-1,-1,-1,-1,-1,-1],"split_conditions":[1.5789473E-1,2.263158E-1,1.5789473E-1,1.9473684E-1,1.6578947E-1,1.6578947E-1,8E-1,-8.9595484E-4,3.1336855E-2,2.431169E-2,5.040675E-2,-3.08608E-2,-1.2031029E-2,-1.2521406E-2,3.1186745E-2],"split_indices":[1,6,6,2,2,2,4,0,0,0,0,0,0,0,0],"split_type":[0,0,0,0,0,0,0,0,0,0,0,0,0,0,0],"sum_hessian":[1.1136213E2,6.603319E1,4.5328938E1,5.459745E1,1.143574E1,2.8725657E1,1.660328E1,4.0024902E1,1.457255E1,3.613273E0,7.822468E0,2.2188478E1,6.537178E0,1.4857298E1,1.7459813E0],"tree_param":{"num_deleted":"0","num_feature":"10","num_nodes":"15","size_leaf_vector":"1"}},{"base_weights":[1.0683717E-1,-3.7188232E-1,3.2757273E-1,-1.4643757E-1,-5.351793E-1,4.4239616E-1,-4.4051442E-1,2.1350008E-2,-1.7174406E-2,-1.9051075E-2,-3.393261E-2,3.7454378E-2,1.4105449E-2,-6.7413645E-3,-2.7739901E-2],"categories":[],"categories_nodes":[],"categories_segments":[],"categories_sizes":[],"default_left":[0,0,0,0,0,0,0,0,0,0,0,0,0,0,0],"id":9,"left_children":[1,3,5,7,9,11,13,-1,-1,-1,-1,-1,-1,-1,-1],"loss_changes":[1.2236399E1,1.2708144E0,7.161949E0,2.0417688E0,2.0316267E-1,3.1915417E0,3.0161166E-1,0E0,0E0,0E0,0E0,0E0,0E0,0E0,0E0],"parents":[2147483647,0,0,1,1,2,2,3,3,4,4,5,5,6,6],"right_children":[2,4,6,8,10,12,14,-1,-1,-1,-1,-1,-1,-1,-1],"split_conditions":[1.4210527E-1,1.9473684E-1,2.263158E-1,1.3157895E-1,1.5789473E-1,1.4210527E-1,4.6666667E-1,2.1350008E-2,-1.7174406E-2,-1.9051075E-2,-3.393261E-2,3.7454378E-2,1.4105449E-2,-6.7413645E-3,-2.7739901E-2],"split_indices":[1,2,6,6,6,6,0,0,0,0,0,0,0,0,0],"split_type":[0,0,0,0,0,0,0,0,0,0,0,0,0,0,0],"sum_hessian":[1.1364494E2,3.5648228E1,7.799671E1,1.5771353E1,1.9876875E1,6.8222046E1,9.77467E0,3.7350392E0,1.2036314E1,1.1343879E1,8.532997E0,2.2155878E1,4.6066162E1,3.2530727E0,6.5215964E0],"tree_param":{"num_deleted":"0","num_feature":"10","num_nodes":"15","size_leaf_vector":"1"}},{"base_weights":[-1.3856299E-1,-2.7349797E-1,-3.0302735E-2,-4.1838042E-2,-6.013076E-1,1.9285972E-1,-1.7976113E-1,1.0115699E-2,-1.1550719E-2,3.6181875E-3,-3.2563023E-2,3.074654E-2,5.711973E-3,-2.0733567E-2,1.0825576E-3],"categories":[],"categories_nodes":[],"categories_segments":[],"categories_sizes":[],"default_left":[0,0,0,0,0,0,0,0,0,0,0,0,0,0,0],"id":10,"left_children":[1,3,5,7,9,11,13,-1,-1,-1,-1,-1,-1,-1,-1],"loss_changes":[1.5050876E0,3.4675689E0,1.9893628E0,1.3410782E0,6.854882E-1,7.2578764E-1,1.6941208E0,0E0,0E0,0E0,0E0,0E0,0E0,0E0,0E0],"parents":[2147483647,0,0,1,1,2,2,3,3,4,4,5,5,6,6],"right_children":[2,4,6,8,10,12,14,-1,-1,-1,-1,-1,-1,-1,-1],"split_conditions":[1.631579E-1,1.7105263E-1,1.4736842E-1,1.5263158E-1,3.6363637E-1,2.5E-1,1.4210527E-1,1.0115699E-2,-1.1550719E-2,3.6181875E-3,-3.2563023E-2,3.074654E-2,5.711973E-3,-2.0733567E-2,1.0825576E-3],"split_indices":[2,7,6,2,4,4,1,0,0,0,0,0,0,0,0],"split_type":[0,0,0,0,0,0,0,0,0,0,0,0,0,0,0],"sum_hessian":[1.0259839E2,4.4993023E1,5.7605362E1,2.7023443E1,1.796958E1,2.2989061E1,3.4616302E1,1.1767193E1,1.525625E1,1.2094967E0,1.6760084E1,2.5386808E0,2.045038E1,1.54905815E1,1.912572E1],"tree_param":{"num_deleted":"0","num_feature":"10","num_nodes":"15","size_leaf_vector":"1"}},{"base_weights":[-1.386913E-2,4.956559E-1,-2.5465676E-1,1.00560166E-1,8.1155866E-1,-3.328051E-1,4.3839628E-1,2.1657554E-2,-6.6620144E-3,4.4615615E-2,5.605538E-3,2.7071107E-2,-1.8804988E-2,4.974187E-2,-2.6705554E-2],"categories":[],"categories_nodes":[],"categories_segments":[],"categories_sizes":[],"default_left":[0,0,0,0,0,0,0,0,0,0,0,0,0,0,0],"id":11,"left_children":[1,3,5,7,9,11,13,-1,-1,-1,-1,-1,-1,-1,-1],"loss_changes":[1.378888E1,4.4212465E0,4.277538E0,1.3929155E0,1.0243311E0,2.819879E0,4.9479966E0,0E0,0E0,0E0,0E0,0E0,0E0,0E0,0E0],"parents":[2147483647,0,0,1,1,2,2,3,3,4,4,5,5,6,6],"right_children":[2,4,6,8,10,12,14,-1,-1,-1,-1,-1,-1,-1,-1],"split_conditions":[1.4210527E-1,1.4736842E-1,2.3947369E-1,1.0789473E-1,4.6666667E-1,2E-1,2E-1,2.1657554E-2,-6.6620144E-3,4.4615615E-2,5.605538E-3,2.7071107E-2,-1.8804988E-2,4.974187E-2,-2.6705554E-2],"split_indices":[1,6,6,1,0,4,1,0,0,0,0,0,0,0,0],"split_type":[0,0,0,0,0,0,0,0,0,0,0,0,0,0,0],"sum_hessian":[1.1036161E2,3.5077168E1,7.528444E1,1.6170832E1,1.8906336E1,6.812275E1,7.161691E0,6.323184E0,9.847648E0,1.6702265E1,2.2040703E0,2.671567E0,6.545118E1,4.540681E0,2.6210103E0],"tree_param":{"num_deleted":"0","num_feature":"10","num_nodes":"15","size_leaf_vector":"1"}},{"base_weights":[1.6095039E-1,3.8049266E-1,-3.477583E-1,9.875492E-2,5.296891E-1,2.3019263E-1,-4.7973785E-1,-7.1752346E-3,2.433269E-2,3.1212673E-2,-1.611433E-3,-3.826364E-4,3.650349E-2,-3.1044153E-2,-8.255741E-3],"categories":[],"categories_nodes":[],"categories_segments":[],"categories_sizes":[],"default_left":[0,0,0,0,0,0,0,0,0,0,0,0,0,0,0],"id":12,"left_children":[1,3,5,7,9,11,13,-1,-1,-1,-1,-1,-1,-1,-1],"loss_changes":[1.3643229E1,3.5198917E0,2.9321241E0,2.9502454E0,2.9602842E0,9.035672E-1,1.249228E0,0E0,0E0,0E0,0E0,0E0,0E0,0E0,0E0],"parents":[2147483647,0,0,1,1,2,2,3,3,4,4,5,5,6,6],"right_children":[2,4,6,8,10,12,14,-1,-1,-1,-1,-1,-1,-1,-1],"split_conditions":[1.7631578E-1,1.5E-1,2.6666668E-1,1.7631578E-1,2.263158E-1,1.4473684E-1,1.4210527E-1,-7.1752346E-3,2.433269E-2,3.1212673E-2,-1.611433E-3,-3.826364E-4,3.650349E-2,-3.1044153E-2,-8.255741E-3],"split_indices":[2,1,5,7,6,1,1,0,0,0,0,0,0,0,0],"split_type":[0,0,0,0,0,0,0,0,0,0,0,0,0,0,0],"sum_hessian":[1.1997546E2,8.39831E1,3.5992355E1,2.9651697E1,5.4331406E1,6.552813E0,2.943954E1,1.8640158E1,1.10115385E1,4.6410168E1,7.9212394E0,5.1073756E0,1.4454376E0,1.9650553E1,9.788987E0],"tree_param":{"num_deleted":"0","num_feature":"10","num_nodes":"15","size_leaf_vector":"1"}},{"base_weights":[-1.8512565E-1,-3.080935E-1,-8.158026E-2,-1.4046323E-1,-5.3955525E-1,-2.3756444E-1,6.6520594E-2,-1.7691825E-2,1.5227397E-2,-5.279227E-3,-3.1809732E-2,-2.3693206E-2,-6.7994855E-3,-1.733094E-2,7.020326E-3],"categories":[],"categories_nodes":[],"categories_segments":[],"categories_sizes":[],"default_left":[0,0,0,0,0,0,0,0,0,0,0,0,0,0,0],"id":13,"left_children":[1,3,5,7,9,11,13,-1,-1,-1,-1,-1,-1,-1,-1],"loss_changes":[1.2454212E0,1.6801023E0,1.2986563E0,2.728333E0,7.152529E-1,5.899676E-1,9.4204134E-1,0E0,0E0,0E0,0E0,0E0,0E0,0E0,0E0],"parents":[2147483647,0,0,1,1,2,2,3,3,4,4,5,5,6,6],"right_children":[2,4,6,8,10,12,14,-1,-1,-1,-1,-1,-1,-1,-1],"split_conditions":[1.631579E-1,1.7105263E-1,1.4210527E-1,2.0263158E-1,4E-1,1.6052632E-1,2.5E-1,-1.7691825E-2,1.5227397E-2,-5.279227E-3,-3.1809732E-2,-2.3693206E-2,-6.7994855E-3,-1.733094E-2,7.020326E-3],"split_indices":[2,7,1,1,0,7,4,0,0,0,0,0,0,0,0],"split_type":[0,0,0,0,0,0,0,0,0,0,0,0,0,0,0],"sum_hessian":[9.8786354E1,4.4254913E1,5.4531437E1,2.6598492E1,1.7656424E1,2.6264654E1,2.826678E1,1.8116774E1,8.481719E0,3.5968587E0,1.4059565E1,6.794051E0,1.9470604E1,3.7283158E0,2.4538465E1],"tree_param":{"num_deleted":"0","num_feature":"10","num_nodes":"15","size_leaf_vector":"1"}},{"base_weights":[2.5920125E-2,5.4486454E-1,-2.5124136E-1,2.2348264E-1,8.02309E-1,4.4790363E-1,-3.1257027E-1,6.5471185E-4,2.7714396E-2,1.0481873E-2,4.825518E-2,3.782124E-2,3.5982262E-4,-6.5406635E-3,-2.3855848E-2],"categories":[],"categories_nodes":[],"categories_segments":[],"categories_sizes":[],"default_left":[0,0,0,0,0,0,0,0,0,0,0,0,0,0,0],"id":14,"left_children":[1,3,5,7,9,11,13,-1,-1,-1,-1,-1,-1,-1,-1],"loss_changes":[1.6396606E1,3.1031218E0,3.3290172E0,1.31727E0,1.8857098E0,8.659723E-1,2.0001736E0,0E0,0E0,0E0,0E0,0E0,0E0,0E0,0E0],"parents":[2147483647,0,0,1,1,2,2,3,3,4,4,5,5,6,6],"right_children":[2,4,6,8,10,12,14,-1,-1,-1,-1,-1,-1,-1,-1],"split_conditions":[1.4210527E-1,1.5E-1,2E-1,4E-1,1.7631578E-1,1.4736842E-1,1.9473684E-1,6.5471185E-4,2.7714396E-2,1.0481873E-2,4.825518E-2,3.782124E-2,3.5982262E-4,-6.5406635E-3,-2.3855848E-2],"split_indices":[1,6,4,5,2,1,1,0,0,0,0,0,0,0,0],"split_type":[0,0,0,0,0,0,0,0,0,0,0,0,0,0,0],"sum_hessian":[1.1204703E2,3.8672516E1,7.337451E1,1.8031233E1,2.0641285E1,5.409001E0,6.796551E1,1.1657059E1,6.3741736E0,4.9409523E0,1.5700333E1,2.760264E0,2.6487372E0,3.3146797E1,3.481871E1],"tree_param":{"num_deleted":"0","num_feature":"10","num_nodes":"15","size_leaf_vector":"1"}},{"base_weights":[1.195045E-1,3.117583E-1,-3.7925667E-1,4.1542786E-1,-3.2598048E-1,-1.15612596E-1,-3.211462E-2,-2.002666E-3,2.7385432E-2,7.6978205E-4,-2.353224E-2,1.8051494E-2,-8.915873E-3],"categories":[],"categories_nodes":[],"categories_segments":[],"categories_sizes":[],"default_left":[0,0,0,0,0,0,0,0,0,0,0,0,0],"id":15,"left_children":[1,3,5,7,9,11,-1,-1,-1,-1,-1,-1,-1],"loss_changes":[1.1449545E1,5.810833E0,2.2370176E0,4.497361E0,6.276946E-1,5.983126E-1,0E0,0E0,0E0,0E0,0E0,0E0,0E0],"parents":[2147483647,0,0,1,1,2,2,3,3,4,4,5,5],"right_children":[2,4,6,8,10,12,-1,-1,-1,-1,-1,-1,-1],"split_conditions":[1.7631578E-1,2.263158E-1,1.5789473E-1,5E-1,4.6666667E-1,6.666667E-2,-3.211462E-2,-2.002666E-3,2.7385432E-2,7.6978205E-4,-2.353224E-2,1.8051494E-2,-8.915873E-3],"split_indices":[2,6,6,4,0,5,0,0,0,0,0,0,0],"split_type":[0,0,0,0,0,0,0,0,0,0,0,0,0],"sum_hessian":[1.17171425E2,8.4842674E1,3.2328747E1,7.327915E1,1.1563523E1,1.6864637E1,1.5464111E1,1.6649E1,5.663015E1,3.7077117E0,7.8558116E0,1.4075712E0,1.5457066E1],"tree_param":{"num_deleted":"0","num_feature":"10","num_nodes":"13","size_leaf_vector":"1"}},{"base_weights":[-1.8918882E-1,-7.148109E-2,-3.7693E-1,2.6480016E-1,-1.5072805E-1,-5.8916163E-1,-1.7591523E-1,2.0308737E-2,-2.1857344E-2,-2.04507E-2,2.0505213E-3,-1.0917306E-2,-3.1811003E-2,-2.8323753E-2,-2.7433836E-3],"categories":[],"categories_nodes":[],"categories_segments":[],"categories_sizes":[],"default_left":[0,0,0,0,0,0,0,0,0,0,0,0,0,0,0],"id":16,"left_children":[1,3,5,7,9,11,13,-1,-1,-1,-1,-1,-1,-1,-1],"loss_changes":[2.291424E0,1.7911971E0,1.6111073E0,1.4572937E0,2.682137E0,1.948309E-1,1.0122252E0,0E0,0E0,0E0,0E0,0E0,0E0,0E0,0E0],"parents":[2147483647,0,0,1,1,2,2,3,3,4,4,5,5,6,6],"right_children":[2,4,6,8,10,12,14,-1,-1,-1,-1,-1,-1,-1,-1],"split_conditions":[1.7105263E-1,1.5263158E-1,1.631579E-1,8.75E-1,1.6578947E-1,6.666667E-2,1.7631578E-1,2.0308737E-2,-2.1857344E-2,-2.04507E-2,2.0505213E-3,-1.0917306E-2,-3.1811003E-2,-2.8323753E-2,-2.7433836E-3],"split_indices":[7,2,2,4,2,5,7,0,0,0,0,0,0,0,0],"split_type":[0,0,0,0,0,0,0,0,0,0,0,0,0,0,0],"sum_hessian":[1.0391017E2,6.471603E1,3.9194145E1,1.1895692E1,5.282033E1,1.8125881E1,2.1068266E1,1.0252219E1,1.6434727E0,2.202195E1,3.0798384E1,2.676356E0,1.5449525E1,4.11416E0,1.6954105E1],"tree_param":{"num_deleted":"0","num_feature":"10","num_nodes":"15","size_leaf_vector":"1"}},{"base_weights":[4.723886E-2,2.4253789E-1,-4.231061E-1,1.2970038E-1,1.0690316E0,-4.730534E-2,-5.0347173E-1,1.8854162E-2,-6.2924186E-3,1.6071973E-2,5.8172375E-2,1.2061466E-2,-2.4254855E-2,-2.9583974E-2,-2.9996762E-3],"categories":[],"categories_nodes":[],"categories_segments":[],"categories_sizes":[],"default_left":[0,0,0,0,0,0,0,0,0,0,0,0,0,0,0],"id":17,"left_children":[1,3,5,7,9,11,13,-1,-1,-1,-1,-1,-1,-1,-1],"loss_changes":[1.0420051E1,7.3221726E0,9.8245764E-1,4.5693827E0,2.946024E-1,9.9792E-1,1.0341935E0,0E0,0E0,0E0,0E0,0E0,0E0,0E0,0E0],"parents":[2147483647,0,0,1,1,2,2,3,3,4,4,5,5,6,6],"right_children":[2,4,6,8,10,12,14,-1,-1,-1,-1,-1,-1,-1,-1],"split_conditions":[2E-1,2.3947369E-1,3.3333334E-1,1.4210527E-1,2.6666668E-1,1.6578947E-1,1.6578947E-1,1.8854162E-2,-6.2924186E-3,1.6071973E-2,5.8172375E-2,1.2061466E-2,-2.4254855E-2,-2.9583974E-2,-2.9996762E-3],"split_indices":[1,6,4,1,0,7,2,0,0,0,0,0,0,0,0],"split_type":[0,0,0,0,0,0,0,0,0,0,0,0,0,0,0],"sum_hessian":[1.11319466E2,7.9000725E1,3.231874E1,7.052869E1,8.472038E0,5.973667E0,2.6345074E1,3.5595264E1,3.4933422E1,1.4438704E0,7.028168E0,3.871241E0,2.1024263E0,2.1695637E1,4.649438E0],"tree_param":{"num_deleted":"0","num_feature":"10","num_nodes":"15","size_leaf_vector":"1"}},{"base_weights":[1.5075643E-1,-2.6288456E-1,3.7644568E-1,3.9082196E-1,-3.7630492E-1,6.072552E-1,-3.2770835E-2,-2.432383E-2,4.1079108E-2,-2.045694E-2,3.59889E-3,4.0863868E-2,1.4073235E-2,9.356505E-3,-1.5934756E-2],"categories":[],"categories_nodes":[],"categories_segments":[],"categories_sizes":[],"default_left":[0,0,0,0,0,0,0,0,0,0,0,0,0,0,0],"id":18,"left_children":[1,3,5,7,9,11,13,-1,-1,-1,-1,-1,-1,-1,-1],"loss_changes":[1.0818007E1,3.195979E0,7.0753403E0,2.8826742E0,5.5272245E-1,3.0414238E0,1.8130515E0,0E0,0E0,0E0,0E0,0E0,0E0,0E0,0E0],"parents":[2147483647,0,0,1,1,2,2,3,3,4,4,5,5,6,6],"right_children":[2,4,6,8,10,12,14,-1,-1,-1,-1,-1,-1,-1,-1],"split_conditions":[1.4473684E-1,1.2894736E-1,1.9473684E-1,2E-1,6E-1,1.631579E-1,2.263158E-1,-2.432383E-2,4.1079108E-2,-2.045694E-2,3.59889E-3,4.0863868E-2,1.4073235E-2,9.356505E-3,-1.5934756E-2],"split_indices":[1,6,6,0,4,2,6,0,0,0,0,0,0,0,0],"split_type":[0,0,0,0,0,0,0,0,0,0,0,0,0,0,0],"sum_hessian":[1.13821106E2,4.0121677E1,7.3699425E1,5.570414E0,3.4551266E1,4.681213E1,2.6887295E1,1.7918124E0,3.7786014E0,3.227467E1,2.2765958E0,2.7545935E1,1.9266195E1,1.5393705E1,1.1493588E1],"tree_param":{"num_deleted":"0","num_feature":"10","num_nodes":"15","size_leaf_vector":"1"}},{"base_weights":[-1.3011697E-1,-2.3429526E-1,-4.5389384E-2,-5.600865E-1,-6.1713174E-2,1.786697E-1,-1.9428425E-1,-7.996708E-3,-3.1012613E-2,-8.076229E-3,2.4183756E-2,-1.7104289E-2,1.5076931E-2,-4.0188823E-3,-2.1570541E-2],"categories":[],"categories_nodes":[],"categories_segments":[],"categories_sizes":[],"default_left":[0,0,0,0,0,0,0,0,0,0,0,0,0,0,0],"id":19,"left_children":[1,3,5,7,9,11,13,-1,-1,-1,-1,-1,-1,-1,-1],"loss_changes":[8.382385E-1,2.3771684E0,1.845444E0,2.5542927E-1,1.6656892E0,1.5229589E0,8.5900486E-1,0E0,0E0,0E0,0E0,0E0,0E0,0E0,0E0],"parents":[2147483647,0,0,1,1,2,2,3,3,4,4,5,5,6,6],"right_children":[2,4,6,8,10,12,14,-1,-1,-1,-1,-1,-1,-1,-1],"split_conditions":[1.631579E-1,1.4473684E-1,1.4736842E-1,6.666667E-2,2.5263157E-1,2E-1,2.0526315E-1,-7.996708E-3,-3.1012613E-2,-8.076229E-3,2.4183756E-2,-1.7104289E-2,1.5076931E-2,-4.0188823E-3,-2.1570541E-2],"split_indices":[2,6,6,5,1,5,2,0,0,0,0,0,0,0,0],"split_type":[0,0,0,0,0,0,0,0,0,0,0,0,0,0,0],"sum_hessian":[9.517024E1,4.1893757E1,5.3276485E1,1.3729882E1,2.8163874E1,2.1189802E1,3.2086685E1,2.272708E0,1.1457174E1,2.4401918E1,3.761955E0,3.7045689E0,1.7485233E1,2.2579374E1,9.507309E0],"tree_param":{"num_deleted":"0","num_feature":"10","num_nodes":"15","size_leaf_vector":"1"}},{"base_weights":[5.443903E-2,3.09484E-1,-3.317219E-1,1.6744745E-1,9.011708E-1,-4.758945E-1,-1.3352074E-1,2.1191165E-3,2.4395032E-2,2.280755E-2,4.9156938E-2,-2.8125301E-2,-7.1310387E-3,2.3953998E-2,-1.5420677E-2],"categories":[],"categories_nodes":[],"categories_segments":[],"categories_sizes":[],"default_left":[0,0,0,0,0,0,0,0,0,0,0,0,0,0,0],"id":20,"left_children":[1,3,5,7,9,11,13,-1,-1,-1,-1,-1,-1,-1,-1],"loss_changes":[1.0798667E1,5.389244E0,1.184618E0,2.1590834E0,8.71563E-3,6.3841915E-1,2.2673423E0,0E0,0E0,0E0,0E0,0E0,0E0,0E0,0E0],"parents":[2147483647,0,0,1,1,2,2,3,3,4,4,5,5,6,6],"right_children":[2,4,6,8,10,12,14,-1,-1,-1,-1,-1,-1,-1,-1],"split_conditions":[1.5789473E-1,2.263158E-1,1.5789473E-1,1.9473684E-1,1.631579E-1,1.6578947E-1,4E-1,2.1191165E-3,2.4395032E-2,2.280755E-2,4.9156938E-2,-2.8125301E-2,-7.1310387E-3,2.3953998E-2,-1.5420677E-2],"split_indices":[1,6,6,2,2,2,5,0,0,0,0,0,0,0,0],"split_type":[0,0,0,0,0,0,0,0,0,0,0,0,0,0,0],"sum_hessian":[1.0760166E2,6.492179E1,4.267987E1,5.3388653E1,1.1533138E1,2.389642E1,1.8783451E1,3.9215893E1,1.4172758E1,2.814993E0,8.718145E0,1.8421263E1,5.4751563E0,3.7853048E0,1.4998146E1],"tree_param":{"num_deleted":"0","num_feature":"10","num_nodes":"15","size_leaf_vector":"1"}},{"base_weights":[1.1665468E-1,-8.934621E-2,4.9282146E-1,-3.774E-1,2.336834E-1,5.835377E-1,-6.39592E-2,-1.1485211E-2,-3.0992795E-2,-7.774826E-3,2.5911009E-2,-4.8726723E-3,3.0800192E-2,1.7321825E-2,-1.849707E-2],"categories":[],"categories_nodes":[],"categories_segments":[],"categories_sizes":[],"default_left":[0,0,0,0,0,0,0,0,0,0,0,0,0,0,0],"id":21,"left_children":[1,3,5,7,9,11,13,-1,-1,-1,-1,-1,-1,-1,-1],"loss_changes":[8.8907795E0,7.031043E0,2.085515E0,1.2837324E0,4.04376E0,8.3315754E-1,9.547556E-1,0E0,0E0,0E0,0E0,0E0,0E0,0E0,0E0],"parents":[2147483647,0,0,1,1,2,2,3,3,4,4,5,5,6,6],"right_children":[2,4,6,8,10,12,14,-1,-1,-1,-1,-1,-1,-1,-1],"split_conditions":[1.9473684E-1,1.6578947E-1,2.263158E-1,1.9473684E-1,1.4210527E-1,2E-1,5E-1,-1.1485211E-2,-3.0992795E-2,-7.774826E-3,2.5911009E-2,-4.8726723E-3,3.0800192E-2,1.7321825E-2,-1.849707E-2],"split_indices":[1,7,6,2,1,4,4,0,0,0,0,0,0,0,0],"split_type":[0,0,0,0,0,0,0,0,0,0,0,0,0,0,0],"sum_hessian":[1.1316529E2,7.3614265E1,3.955103E1,3.882484E1,3.478942E1,3.396849E1,5.58254E0,2.5337507E1,1.3487335E1,1.4884462E1,1.990496E1,1.4546607E0,3.251383E1,2.327966E0,3.254574E0],"tree_param":{"num_deleted":"0","num_feature":"10","num_nodes":"15","size_leaf_vector":"1"}},{"base_weights":[-1.5113525E-1,4.6779674E-2,-2.0048228E-1,3.3838563E-2,-4.9210664E-2,-4.9263632E-1,-1.6101393E-1,-1.2058365E-2,1.681883E-2,-2.9043645E-2,-9.134388E-3,-9.6076075E-3,1.5354672E-2],"categories":[],"categories_nodes":[],"categories_segments":[],"categories_sizes":[],"default_left":[0,0,0,0,0,0,0,0,0,0,0,0,0],"id":22,"left_children":[1,3,5,-1,7,9,11,-1,-1,-1,-1,-1,-1],"loss_changes":[9.331522E-1,1.2238786E0,7.958474E-1,0E0,1.4146516E0,1.2764692E-1,1.0552882E0,0E0,0E0,0E0,0E0,0E0,0E0],"parents":[2147483647,0,0,1,1,2,2,4,4,5,5,6,6],"right_children":[2,4,6,-1,8,10,12,-1,-1,-1,-1,-1,-1],"split_conditions":[3.3333334E-1,1.0789473E-1,1.0789473E-1,3.3838563E-2,2.5E-1,2E-1,2.5263157E-1,-1.2058365E-2,1.681883E-2,-2.9043645E-2,-9.134388E-3,-9.6076075E-3,1.5354672E-2],"split_indices":[4,6,6,0,4,1,1,0,0,0,0,0,0],"split_type":[0,0,0,0,0,0,0,0,0,0,0,0,0],"sum_hessian":[9.358579E1,1.8687668E1,7.4898125E1,1.6709158E0,1.7016752E1,7.547553E0,6.735058E1,1.1611001E1,5.405751E0,5.194641E0,2.3529115E0,6.370263E1,3.6479461E0],"tree_param":{"num_deleted":"0","num_feature":"10","num_nodes":"13","size_leaf_vector":"1"}},{"base_weights":[1.1643057E-3,4.1252193E-1,-1.8776834E-1,-2.2438154E-1,5.5470324E-1,2.3950304E-1,-2.9772627E-1,3.4889728E-3,-1.9252915E-2,3.059787E-2,-8.214123E-3,4.2468656E-2,-2.4824543E-2,-1.0170761E-2,-3.2363508E-2],"categories":[],"categories_nodes":[],"categories_segments":[],"categories_sizes":[],"default_left":[0,0,0,0,0,0,0,0,0,0,0,0,0,0,0],"id":23,"left_children":[1,3,5,7,9,11,13,-1,-1,-1,-1,-1,-1,-1,-1],"loss_changes":[8.382982E0,3.198597E0,3.544153E0,3.533424E-1,1.2548008E0,7.4614573E0,1.8210764E0,0E0,0E0,0E0,0E0,0E0,0E0,0E0,0E0],"parents":[2147483647,0,0,1,1,2,2,3,3,4,4,5,5,6,6],"right_children":[2,4,6,8,10,12,14,-1,-1,-1,-1,-1,-1,-1,-1],"split_conditions":[1.4210527E-1,1.368421E-1,1.5263158E-1,2.6666668E-1,6E-1,1.9473684E-1,2.0526315E-1,3.4889728E-3,-1.9252915E-2,3.059787E-2,-8.214123E-3,4.2468656E-2,-2.4824543E-2,-1.0170761E-2,-3.2363508E-2],"split_indices":[1,6,7,5,4,1,7,0,0,0,0,0,0,0,0],"split_type":[0,0,0,0,0,0,0,0,0,0,0,0,0,0,0],"sum_hessian":[1.05866234E2,3.294739E1,7.2918846E1,5.907319E0,2.7040071E1,1.4683601E1,5.823524E1,2.2866752E0,3.620644E0,2.5183523E1,1.8565494E0,7.945574E0,6.7380276E0,4.710713E1,1.1128116E1],"tree_param":{"num_deleted":"0","num_feature":"10","num_nodes":"15","size_leaf_vector":"1"}},{"base_weights":[1.1251054E-1,-2.974585E-1,2.9088882E-1,3.4792684E-2,-4.5899725E-1,3.8626003E-1,-2.999132E-1,4.0638383E-2,-8.650142E-3,-2.6110325E-2,1.1533725E-2,3.5235345E-2,1.54891005E-2,-2.2601837E-3,-3.0689213E-2],"categories":[],"categories_nodes":[],"categories_segments":[],"categories_sizes":[],"default_left":[0,0,0,0,0,0,0,0,0,0,0,0,0,0,0],"id":24,"left_children":[1,3,5,7,9,11,13,-1,-1,-1,-1,-1,-1,-1,-1],"loss_changes":[8.900927E0,2.0038373E0,4.8766756E0,2.249637E0,1.2099366E0,1.5641012E0,9.561238E-1,0E0,0E0,0E0,0E0,0E0,0E0,0E0,0E0],"parents":[2147483647,0,0,1,1,2,2,3,3,4,4,5,5,6,6],"right_children":[2,4,6,8,10,12,14,-1,-1,-1,-1,-1,-1,-1,-1],"split_conditions":[1.4210527E-1,1.7631578E-1,2.263158E-1,1.2894736E-1,6E-1,2.6666668E-1,1.631579E-1,4.0638383E-2,-8.650142E-3,-2.6110325E-2,1.1533725E-2,3.5235345E-2,1.54891005E-2,-2.2601837E-3,-3.0689213E-2],"split_indices":[1,2,6,6,4,5,2,0,0,0,0,0,0,0,0],"split_type":[0,0,0,0,0,0,0,0,0,0,0,0,0,0,0],"sum_hessian":[1.1953126E2,3.6037724E1,8.349353E1,1.20460825E1,2.3991642E1,7.218686E1,1.1306677E1,1.9255495E0,1.0120533E1,2.219982E1,1.7918223E0,1.2388382E1,5.9798473E1,6.8731036E0,4.4335732E0],"tree_param":{"num_deleted":"0","num_feature":"10","num_nodes":"15","size_leaf_vector":"1"}},{"base_weights":[-1.5260245E-1,-2.6458142E-2,-2.4559562E-1,3.4306616E-1,-1.3604596E-1,-4.2896152E-1,-6.6486105E-2,2.7094418E-2,-2.1392453E-2,8.560776E-4,-1.9721812E-2,1.820599E-2,-2.454304E-2,-2.7835298E-2,1.639041E-3],"categories":[],"categories_nodes":[],"categories_segments":[],"categories_sizes":[],"default_left":[0,0,0,0,0,0,0,0,0,0,0,0,0,0,0],"id":25,"left_children":[1,3,5,7,9,11,13,-1,-1,-1,-1,-1,-1,-1,-1],"loss_changes":[1.1370034E0,1.7672226E0,1.8104331E0,1.7649319E0,1.3320048E0,1.5279684E0,1.4542174E0,0E0,0E0,0E0,0E0,0E0,0E0,0E0,0E0],"parents":[2147483647,0,0,1,1,2,2,3,3,4,4,5,5,6,6],"right_children":[2,4,6,8,10,12,14,-1,-1,-1,-1,-1,-1,-1,-1],"split_conditions":[1.631579E-1,1.5263158E-1,1.631579E-1,7.5E-1,8.666667E-1,2.5E-1,3.6363637E-1,2.7094418E-2,-2.1392453E-2,8.560776E-4,-1.9721812E-2,1.820599E-2,-2.454304E-2,-2.7835298E-2,1.639041E-3],"split_indices":[7,2,2,4,5,4,4,0,0,0,0,0,0,0,0],"split_type":[0,0,0,0,0,0,0,0,0,0,0,0,0,0,0],"sum_hessian":[9.648054E1,4.148758E1,5.4992958E1,9.002182E0,3.2485394E1,2.6484306E1,2.8508652E1,7.3926673E0,1.6095152E0,2.0981693E1,1.1503702E1,1.5639405E0,2.4920366E1,4.0247335E0,2.448392E1],"tree_param":{"num_deleted":"0","num_feature":"10","num_nodes":"15","size_leaf_vector":"1"}},{"base_weights":[3.3607032E-2,4.4436398E-1,-1.7429723E-1,1.6043988E-1,6.494698E-1,-8.2068235E-2,-3.1858347E-2,1.8493203E-2,-2.3750698E-3,-2.7529697E-3,4.1387804E-2,7.529858E-3,-1.800478E-2],"categories":[],"categories_nodes":[],"categories_segments":[],"categories_sizes":[],"default_left":[0,0,0,0,0,0,0,0,0,0,0,0,0],"id":26,"left_children":[1,3,5,7,9,11,-1,-1,-1,-1,-1,-1,-1],"loss_changes":[9.309631E0,2.0278697E0,3.0425513E0,7.4410415E-1,2.6743288E0,4.0388722E0,0E0,0E0,0E0,0E0,0E0,0E0,0E0],"parents":[2147483647,0,0,1,1,2,2,3,3,4,4,5,5],"right_children":[2,4,6,8,10,12,-1,-1,-1,-1,-1,-1,-1],"split_conditions":[1.4210527E-1,1.5E-1,2.0526315E-1,2.6666668E-1,1.7631578E-1,2E-1,-3.1858347E-2,1.8493203E-2,-2.3750698E-3,-2.7529697E-3,4.1387804E-2,7.529858E-3,-1.800478E-2],"split_indices":[1,6,7,0,2,1,0,0,0,0,0,0,0],"split_type":[0,0,0,0,0,0,0,0,0,0,0,0,0],"sum_hessian":[1.0710754E2,3.5611824E1,7.149571E1,1.5683575E1,1.9928247E1,6.0598484E1,1.0897232E1,7.425962E0,8.257613E0,4.164132E0,1.5764115E1,3.3240078E1,2.7358404E1],"tree_param":{"num_deleted":"0","num_feature":"10","num_nodes":"13","size_leaf_vector":"1"}},{"base_weights":[1.04422785E-1,3.2592335E-1,-2.5114074E-1,2.389274E-2,5.635187E-1,3.234246E-2,-3.2541785E-1,-1.0258342E-2,1.275626E-2,2.0016901E-2,4.3678124E-2,-2.548537E-2,-9.54879E-3],"categories":[],"categories_nodes":[],"categories_segments":[],"categories_sizes":[],"default_left":[0,0,0,0,0,0,0,0,0,0,0,0,0],"id":27,"left_children":[1,3,5,7,9,-1,11,-1,-1,-1,-1,-1,-1],"loss_changes":[9.516395E0,5.3145328E0,3.3151135E0,1.8391342E0,1.7504864E0,0E0,9.842739E-1,0E0,0E0,0E0,0E0,0E0,0E0],"parents":[2147483647,0,0,1,1,2,2,3,3,4,4,6,6],"right_children":[2,4,6,8,10,-1,12,-1,-1,-1,-1,-1,-1],"split_conditions":[1.7105263E-1,1.631579E-1,6.666667E-2,1.6052632E-1,2.263158E-1,3.234246E-2,1.3157895E-1,-1.0258342E-2,1.275626E-2,2.0016901E-2,4.3678124E-2,-2.548537E-2,-9.54879E-3],"split_indices":[2,7,5,2,1,0,1,0,0,0,0,0,0],"split_type":[0,0,0,0,0,0,0,0,0,0,0,0,0],"sum_hessian":[1.1879227E2,7.3246346E1,4.5545918E1,3.2734676E1,4.0511673E1,2.8906121E0,4.2655304E1,1.650123E1,1.6233446E1,2.8043295E1,1.2468377E1,1.681478E1,2.5840525E1],"tree_param":{"num_deleted":"0","num_feature":"10","num_nodes":"13","size_leaf_vector":"1"}},{"base_weights":[-1.4689626E-1,-3.198746E-1,-5.7255467E-3,-1.3680089E-1,-5.695752E-1,4.653299E-2,-4.237492E-1,-1.1346725E-2,2.2954404E-2,4.4044503E-3,-3.0890366E-2,-5.3585703E-3,7.5479196E-3,-2.7138228E-2,1.6562995E-3],"categories":[],"categories_nodes":[],"categories_segments":[],"categories_sizes":[],"default_left":[0,0,0,0,0,0,0,0,0,0,0,0,0,0,0],"id":28,"left_children":[1,3,5,7,9,11,13,-1,-1,-1,-1,-1,-1,-1,-1],"loss_changes":[2.4936018E0,2.0204983E0,1.271165E0,1.5973835E0,6.603532E-1,8.47955E-1,3.6950123E-1,0E0,0E0,0E0,0E0,0E0,0E0,0E0,0E0],"parents":[2147483647,0,0,1,1,2,2,3,3,4,4,5,5,6,6],"right_children":[2,4,6,8,10,12,14,-1,-1,-1,-1,-1,-1,-1,-1],"split_conditions":[1.631579E-1,1.7105263E-1,2.3947369E-1,2.5263157E-1,2.5E-1,1.368421E-1,1.5E-1,-1.1346725E-2,2.2954404E-2,4.4044503E-3,-3.0890366E-2,-5.3585703E-3,7.5479196E-3,-2.7138228E-2,1.6562995E-3],"split_indices":[2,7,6,1,4,1,1,0,0,0,0,0,0,0,0],"split_type":[0,0,0,0,0,0,0,0,0,0,0,0,0,0,0],"sum_hessian":[1.0119029E2,4.4903534E1,5.628676E1,2.680136E1,1.8102173E1,5.0822014E1,5.464747E0,2.381786E1,2.9835005E0,1.1804135E0,1.6921759E1,2.054921E1,3.0272804E1,4.186243E0,1.2785038E0],"tree_param":{"num_deleted":"0","num_feature":"10","num_nodes":"15","size_leaf_vector":"1"}},{"base_weights":[-1.1066903E-2,3.2049453E-1,-3.0153555E-1,-1.8664727E-2,4.988488E-1,-3.6287385E-1,2.0670655E-1,8.173489E-3,-2.125001E-2,1.1443823E-2,3.2728147E-2,-1.3596754E-2,-2.6399234E-2,4.6308126E-2,-2.717115E-2],"categories":[],"categories_nodes":[],"categories_segments":[],"categories_sizes":[],"default_left":[0,0,0,0,0,0,0,0,0,0,0,0,0,0,0],"id":29,"left_children":[1,3,5,7,9,11,13,-1,-1,-1,-1,-1,-1,-1,-1],"loss_changes":[1.0459531E1,3.0780687E0,1.8790913E0,1.4347533E0,1.2493715E0,6.372161E-1,4.2104707E0,0E0,0E0,0E0,0E0,0E0,0E0,0E0,0E0],"parents":[2147483647,0,0,1,1,2,2,3,3,4,4,5,5,6,6],"right_children":[2,4,6,8,10,12,14,-1,-1,-1,-1,-1,-1,-1,-1],"split_conditions":[1.4736842E-1,1.4736842E-1,2.3947369E-1,1.4210527E-1,1.7631578E-1,2.263158E-1,2E-1,8.173489E-3,-2.125001E-2,1.1443823E-2,3.2728147E-2,-1.3596754E-2,-2.6399234E-2,4.6308126E-2,-2.717115E-2],"split_indices":[1,6,6,1,2,1,1,0,0,0,0,0,0,0,0],"split_type":[0,0,0,0,0,0,0,0,0,0,0,0,0,0,0],"sum_hessian":[1.0660133E2,4.9731228E1,5.6870106E1,1.744779E1,3.228344E1,5.1000965E1,5.86914E0,1.2460315E1,4.9874744E0,1.271259E1,1.9570848E1,3.4594307E1,1.640666E1,2.8760371E0,2.993103E0],"tree_param":{"num_deleted":"0","num_feature":"10","num_nodes":"15","size_leaf_vector":"1"}},{"base_weights":[7.925026E-2,-3.3644712E-1,2.563174E-1,-2.3116373E-2,-4.498814E-1,-3.0514337E-2,4.6688893E-1,-1.4295652E-2,2.5554392E-2,1.7547974E-2,-2.5614778E-2,-1.6495427E-2,1.20463595E-2,2.6657803E-2,-6.985988E-3],"categories":[],"categories_nodes":[],"categories_segments":[],"categories_sizes":[],"default_left":[0,0,0,0,0,0,0,0,0,0,0,0,0,0,0],"id":30,"left_children":[1,3,5,7,9,11,13,-1,-1,-1,-1,-1,-1,-1,-1],"loss_changes":[8.457803E0,1.2124898E0,4.8659344E0,1.5779922E0,1.4397388E0,2.9193757E0,1.9390087E0,0E0,0E0,0E0,0E0,0E0,0E0,0E0,0E0],"parents":[2147483647,0,0,1,1,2,2,3,3,4,4,5,5,6,6],"right_children":[2,4,6,8,10,12,14,-1,-1,-1,-1,-1,-1,-1,-1],"split_conditions":[1.4210527E-1,1.7631578E-1,1.631579E-1,6.666667E-1,6.666667E-2,1.9473684E-1,8.666667E-1,-1.4295652E-2,2.5554392E-2,1.7547974E-2,-2.5614778E-2,-1.6495427E-2,1.20463595E-2,2.6657803E-2,-6.985988E-3],"split_indices":[1,2,7,5,5,1,5,0,0,0,0,0,0,0,0],"split_type":[0,0,0,0,0,0,0,0,0,0,0,0,0,0,0],"sum_hessian":[1.12734276E2,3.340645E1,7.932783E1,9.199411E0,2.4207037E1,3.3944767E1,4.5383064E1,6.4776034E0,2.721808E0,1.4159393E0,2.2791098E1,1.6038857E1,1.790591E1,4.1022743E1,4.360318E0],"tree_param":{"num_deleted":"0","num_feature":"10","num_nodes":"15","size_leaf_vector":"1"}},{"base_weights":[-9.932389E-2,-1.9218665E-2,-2.290613E-1,1.1398732E-1,-1.5504237E-1,-2.6106702E-2,-4.9484193E-1,1.0280381E-2,-1.8594688E-2,-1.08046755E-2,2.2347465E-2,-1.2498403E-2,3.1554063E-3,-2.9858043E-2,-7.4193627E-3],"categories":[],"categories_nodes":[],"categories_segments":[],"categories_sizes":[],"default_left":[0,0,0,0,0,0,0,0,0,0,0,0,0,0,0],"id":31,"left_children":[1,3,5,7,9,11,13,-1,-1,-1,-1,-1,-1,-1,-1],"loss_changes":[1.0066708E0,1.1256691E0,1.9854407E0,1.4784918E0,1.2265697E0,4.5638928E-1,4.780383E-1,0E0,0E0,0E0,0E0,0E0,0E0,0E0,0E0],"parents":[2147483647,0,0,1,1,2,2,3,3,4,4,5,5,6,6],"right_children":[2,4,6,8,10,12,14,-1,-1,-1,-1,-1,-1,-1,-1],"split_conditions":[1.7105263E-1,6.666667E-1,4.6666667E-1,8.75E-1,2.5263157E-1,1.631579E-1,1.6578947E-1,1.0280381E-2,-1.8594688E-2,-1.08046755E-2,2.2347465E-2,-1.2498403E-2,3.1554063E-3,-2.9858043E-2,-7.4193627E-3],"split_indices":[7,5,0,4,1,2,2,0,0,0,0,0,0,0,0],"split_type":[0,0,0,0,0,0,0,0,0,0,0,0,0,0,0],"sum_hessian":[9.628739E1,6.024054E1,3.6046856E1,3.0494513E1,2.9746027E1,2.1061876E1,1.498498E1,2.6141895E1,4.352618E0,2.7589106E1,2.1569214E0,5.4883714E0,1.5573504E1,1.1009806E1,3.9751737E0],"tree_param":{"num_deleted":"0","num_feature":"10","num_nodes":"15","size_leaf_vector":"1"}},{"base_weights":[-4.804058E-2,3.2813138E-1,-2.3923406E-1,3.3654507E-2,5.9250957E-1,-3.115249E-1,1.3715246E-1,-6.7528035E-3,1.4044496E-2,7.747052E-3,3.659245E-2,1.4287809E-2,-1.7116373E-2,3.2001052E-2,-2.2507815E-2],"categories":[],"categories_nodes":[],"categories_segments":[],"categories_sizes":[],"default_left":[0,0,0,0,0,0,0,0,0,0,0,0,0,0,0],"id":32,"left_children":[1,3,5,7,9,11,13,-1,-1,-1,-1,-1,-1,-1,-1],"loss_changes":[8.123394E0,2.9474807E0,2.0763717E0,8.342695E-1,1.1074781E0,1.2569633E0,4.049711E0,0E0,0E0,0E0,0E0,0E0,0E0,0E0,0E0],"parents":[2147483647,0,0,1,1,2,2,3,3,4,4,5,5,6,6],"right_children":[2,4,6,8,10,12,14,-1,-1,-1,-1,-1,-1,-1,-1],"split_conditions":[1.4210527E-1,1.5E-1,2.263158E-1,4E-1,1.7631578E-1,2E-1,1.9473684E-1,-6.7528035E-3,1.4044496E-2,7.747052E-3,3.659245E-2,1.4287809E-2,-1.7116373E-2,3.2001052E-2,-2.2507815E-2],"split_indices":[1,6,6,5,2,4,1,0,0,0,0,0,0,0,0],"split_type":[0,0,0,0,0,0,0,0,0,0,0,0,0,0,0],"sum_hessian":[1.108564E2,3.7115555E1,7.3740845E1,1.809159E1,1.9023964E1,6.200429E1,1.1736552E1,1.1023213E1,7.0683775E0,5.104919E0,1.3919045E1,2.634903E0,5.936939E1,6.2744536E0,5.462098E0],"tree_param":{"num_deleted":"0","num_feature":"10","num_nodes":"15","size_leaf_vector":"1"}},{"base_weights":[1.3167582E-1,-2.725262E-1,3.380501E-1,-3.658005E-1,2.2244258E-1,4.1935736E-1,-1.5968394E-1,-2.0506678E-2,1.272954E-2,2.6519446E-2,-1.2379099E-2,1.5758231E-2,2.9761791E-2,4.745785E-3,-2.1800151E-2],"categories":[],"categories_nodes":[],"categories_segments":[],"categories_sizes":[],"default_left":[0,0,0,0,0,0,0,0,0,0,0,0,0,0,0],"id":33,"left_children":[1,3,5,7,9,11,13,-1,-1,-1,-1,-1,-1,-1,-1],"loss_changes":[9.236468E0,1.8175521E0,3.0218897E0,9.8511887E-1,1.0844133E0,9.676151E-1,8.136207E-1,0E0,0E0,0E0,0E0,0E0,0E0,0E0,0E0],"parents":[2147483647,0,0,1,1,2,2,3,3,4,4,5,5,6,6],"right_children":[2,4,6,8,10,12,14,-1,-1,-1,-1,-1,-1,-1,-1],"split_conditions":[1.4473684E-1,2.0526315E-1,2.263158E-1,6E-1,1.2894736E-1,2.236842E-1,1.631579E-1,-2.0506678E-2,1.272954E-2,2.6519446E-2,-1.2379099E-2,1.5758231E-2,2.9761791E-2,4.745785E-3,-2.1800151E-2],"split_indices":[1,7,6,4,6,1,2,0,0,0,0,0,0,0,0],"split_type":[0,0,0,0,0,0,0,0,0,0,0,0,0,0,0],"sum_hessian":[1.0862216E2,3.6605858E1,7.2016304E1,3.1021063E1,5.5847955E0,6.203935E1,9.976957E0,2.9268454E1,1.7526082E0,3.2965586E0,2.2882369E0,4.0712612E1,2.1326738E1,5.534231E0,4.442726E0],"tree_param":{"num_deleted":"0","num_feature":"10","num_nodes":"15","size_leaf_vector":"1"}},{"base_weights":[-1.4617898E-1,-3.3018064E-1,-1.2756115E-2,-3.9920586E-1,2.0846082E-1,1.9465165E-1,-1.6860135E-1,4.576795E-3,-2.0946486E-2,-1.9934798E-2,2.83386E-2,-6.5115015E-3,1.4988172E-2,-2.9279158E-2,-3.2398675E-3],"categories":[],"categories_nodes":[],"categories_segments":[],"categories_sizes":[],"default_left":[0,0,0,0,0,0,0,0,0,0,0,0,0,0,0],"id":34,"left_children":[1,3,5,7,9,11,13,-1,-1,-1,-1,-1,-1,-1,-1],"loss_changes":[2.2825785E0,1.5374236E0,1.8117572E0,3.7724876E-1,1.3354335E0,8.6120075E-1,1.345408E0,0E0,0E0,0E0,0E0,0E0,0E0,0E0,0E0],"parents":[2147483647,0,0,1,1,2,2,3,3,4,4,5,5,6,6],"right_children":[2,4,6,8,10,12,14,-1,-1,-1,-1,-1,-1,-1,-1],"split_conditions":[1.631579E-1,2.5263157E-1,1.4736842E-1,1.25E-1,4E-1,2E-1,1.6578947E-1,4.576795E-3,-2.0946486E-2,-1.9934798E-2,2.83386E-2,-6.5115015E-3,1.4988172E-2,-2.9279158E-2,-3.2398675E-3],"split_indices":[2,1,6,4,5,5,2,0,0,0,0,0,0,0,0],"split_type":[0,0,0,0,0,0,0,0,0,0,0,0,0,0,0],"sum_hessian":[9.214817E1,3.811273E1,5.4035442E1,3.401294E1,4.099786E0,2.3075817E1,3.0959625E1,1.1735433E0,3.2839397E1,1.4797118E0,2.6200738E0,5.5824623E0,1.7493355E1,5.24583E0,2.5713795E1],"tree_param":{"num_deleted":"0","num_feature":"10","num_nodes":"15","size_leaf_vector":"1"}},{"base_weights":[-3.450599E-4,1.24641605E-1,-5.429746E-1,-2.1574478E-1,2.4116555E-1,4.083447E-3,-2.9324448E-2,2.2848515E-2,-1.6641816E-2,2.2628022E-2,3.580207E-3],"categories":[],"categories_nodes":[],"categories_segments":[],"categories_sizes":[],"default_left":[0,0,0,0,0,0,0,0,0,0,0],"id":35,"left_children":[1,3,5,7,9,-1,-1,-1,-1,-1,-1],"loss_changes":[7.3086934E0,3.526173E0,5.9626627E-1,1.9532208E0,2.3234813E0,0E0,0E0,0E0,0E0,0E0,0E0],"parents":[2147483647,0,0,1,1,2,2,3,3,4,4],"right_children":[2,4,6,8,10,-1,-1,-1,-1,-1,-1],"split_conditions":[2.236842E-1,1.4210527E-1,3.3333334E-1,1.0789473E-1,1.4210527E-1,4.083447E-3,-2.9324448E-2,2.2848515E-2,-1.6641816E-2,2.2628022E-2,3.580207E-3],"split_indices":[1,6,4,1,1,0,0,0,0,0,0],"split_type":[0,0,0,0,0,0,0,0,0,0,0],"sum_hessian":[1.0576586E2,8.659117E1,1.9174692E1,2.1865831E1,6.472534E1,1.1916652E0,1.7983027E1,2.8113534E0,1.9054478E1,2.8066006E1,3.6659336E1],"tree_param":{"num_deleted":"0","num_feature":"10","num_nodes":"11","size_leaf_vector":"1"}},{"base_weights":[9.286652E-2,-1.7992176E-1,2.9735136E-1,3.52287E-2,-2.2187734E-1,4.6429345E-1,-2.8969442E-2,-2.1488901E-2,-1.2972077E-3,3.5388358E-2,1.82336E-2,-1.0576723E-2,1.6018512E-2],"categories":[],"categories_nodes":[],"categories_segments":[],"categories_sizes":[],"default_left":[0,0,0,0,0,0,0,0,0,0,0,0,0],"id":36,"left_children":[1,3,5,-1,7,9,11,-1,-1,-1,-1,-1,-1],"loss_changes":[6.3579082E0,1.9764028E0,3.553049E0,0E0,1.9272244E0,7.8591347E-1,1.5302794E0,0E0,0E0,0E0,0E0,0E0,0E0],"parents":[2147483647,0,0,1,1,2,2,4,4,5,5,6,6],"right_children":[2,4,6,-1,8,10,12,-1,-1,-1,-1,-1,-1],"split_conditions":[1.4736842E-1,6.666667E-2,1.9473684E-1,3.52287E-2,1.3157895E-1,2.6666668E-1,6.363636E-1,-2.1488901E-2,-1.2972077E-3,3.5388358E-2,1.82336E-2,-1.0576723E-2,1.6018512E-2],"split_indices":[1,5,6,0,1,5,4,0,0,0,0,0,0],"split_type":[0,0,0,0,0,0,0,0,0,0,0,0,0],"sum_hessian":[1.1202057E2,4.8046013E1,6.3974556E1,1.4606049E0,4.658541E1,4.2043007E1,2.193155E1,2.202337E1,2.4562038E1,1.0435123E1,3.1607885E1,1.4663089E1,7.2684608E0],"tree_param":{"num_deleted":"0","num_feature":"10","num_nodes":"13","size_leaf_vector":"1"}},{"base_weights":[-1.3316286E-1,-3.5159297E-2,-2.029245E-1,2.0833626E-1,-2.2324008E-1,-4.1600367E-1,-9.021244E-2,1.53089855E-2,-1.1539894E-2,-4.5658633E-4,-1.9761775E-2,-2.747477E-2,1.1392996E-2,-8.080068E-3,3.5713963E-2],"categories":[],"categories_nodes":[],"categories_segments":[],"categories_sizes":[],"default_left":[0,0,0,0,0,0,0,0,0,0,0,0,0,0,0],"id":37,"left_children":[1,3,5,7,9,11,13,-1,-1,-1,-1,-1,-1,-1,-1],"loss_changes":[6.411401E-1,1.9076253E0,1.2877445E0,8.5383666E-1,8.585168E-1,1.7422748E0,2.2615192E0,0E0,0E0,0E0,0E0,0E0,0E0,0E0,0E0],"parents":[2147483647,0,0,1,1,2,2,3,3,4,4,5,5,6,6],"right_children":[2,4,6,8,10,12,14,-1,-1,-1,-1,-1,-1,-1,-1],"split_conditions":[4E-1,1.4736842E-1,1.4473684E-1,3.3333334E-1,3.3333334E-1,1.7631578E-1,2.5263157E-1,1.53089855E-2,-1.1539894E-2,-4.5658633E-4,-1.9761775E-2,-2.747477E-2,1.1392996E-2,-8.080068E-3,3.5713963E-2],"split_indices":[0,6,6,0,4,2,1,0,0,0,0,0,0,0,0],"split_type":[0,0,0,0,0,0,0,0,0,0,0,0,0,0,0],"sum_hessian":[9.3820114E1,3.963854E1,5.4181576E1,1.7227524E1,2.2411015E1,1.7813942E1,3.6367638E1,1.433607E1,2.8914537E0,1.045242E1,1.1958594E1,1.4876229E1,2.937712E0,3.4137474E1,2.2301626E0],"tree_param":{"num_deleted":"0","num_feature":"10","num_nodes":"15","size_leaf_vector":"1"}},{"base_weights":[3.1367518E-2,1.8550348E-1,-3.7319726E-1,7.802919E-2,7.337234E-1,-4.9788946E-1,-4.878462E-2,1.5471103E-2,-5.661683E-3,2.4761206E-3,4.3011907E-2,-1.0081325E-2,-2.8355509E-2,-1.6699836E-2,1.2540328E-2],"categories":[],"categories_nodes":[],"categories_segments":[],"categories_sizes":[],"default_left":[0,0,0,0,0,0,0,0,0,0,0,0,0,0,0],"id":38,"left_children":[1,3,5,7,9,11,13,-1,-1,-1,-1,-1,-1,-1,-1],"loss_changes":[6.455517E0,4.351534E0,1.1320679E0,2.8533733E0,1.0087624E0,3.0689383E-1,8.5667527E-1,0E0,0E0,0E0,0E0,0E0,0E0,0E0,0E0],"parents":[2147483647,0,0,1,1,2,2,3,3,4,4,5,5,6,6],"right_children":[2,4,6,8,10,12,14,-1,-1,-1,-1,-1,-1,-1,-1],"split_conditions":[2E-1,1E0,6.666667E-1,1.4210527E-1,1.0789473E-1,3.3333334E-1,1.4736842E-1,1.5471103E-2,-5.661683E-3,2.4761206E-3,4.3011907E-2,-1.0081325E-2,-2.8355509E-2,-1.6699836E-2,1.2540328E-2],"split_indices":[1,5,4,1,1,4,6,0,0,0,0,0,0,0,0],"split_type":[0,0,0,0,0,0,0,0,0,0,0,0,0,0,0],"sum_hessian":[1.01413315E2,7.382721E1,2.7586105E1,6.2681347E1,1.1145863E1,1.9540659E1,8.045447E0,2.80854E1,3.4595947E1,1.9564847E0,9.189378E0,4.4419665E0,1.5098692E1,4.0628014E0,3.9826458E0],"tree_param":{"num_deleted":"0","num_feature":"10","num_nodes":"15","size_leaf_vector":"1"}},{"base_weights":[9.625606E-2,-1.0370631E-1,4.3010077E-1,3.3712156E-2,-3.8209447E-1,6.399935E-1,2.4313845E-1,-5.467456E-3,1.9096445E-2,5.8533833E-3,-2.3366256E-2,4.0301412E-2,8.871696E-4,2.167013E-2,7.9212105E-4],"categories":[],"categories_nodes":[],"categories_segments":[],"categories_sizes":[],"default_left":[0,0,0,0,0,0,0,0,0,0,0,0,0,0,0],"id":39,"left_children":[1,3,5,7,9,11,13,-1,-1,-1,-1,-1,-1,-1,-1],"loss_changes":[7.375E0,2.6708899E0,1.4661903E0,2.4048908E0,1.0350616E0,1.9339523E0,1.0081527E0,0E0,0E0,0E0,0E0,0E0,0E0,0E0,0E0],"parents":[2147483647,0,0,1,1,2,2,3,3,4,4,5,5,6,6],"right_children":[2,4,6,8,10,12,14,-1,-1,-1,-1,-1,-1,-1,-1],"split_conditions":[1.9473684E-1,1.9473684E-1,1.4736842E-1,1.7631578E-1,2.6666668E-1,1.631579E-1,6E-1,-5.467456E-3,1.9096445E-2,5.8533833E-3,-2.3366256E-2,4.0301412E-2,8.871696E-4,2.167013E-2,7.9212105E-4],"split_indices":[1,2,6,7,5,2,4,0,0,0,0,0,0,0,0],"split_type":[0,0,0,0,0,0,0,0,0,0,0,0,0,0,0],"sum_hessian":[1.08808174E2,6.848012E1,4.0328056E1,4.6436802E1,2.2043316E1,1.7857391E1,2.2470665E1,3.3400517E1,1.3036285E1,3.1604245E0,1.888289E1,1.386299E1,3.9944015E0,1.1738156E1,1.0732509E1],"tree_param":{"num_deleted":"0","num_feature":"10","num_nodes":"15","size_leaf_vector":"1"}},{"base_weights":[-1.0395411E-1,-2.2450438E-1,-1.1565477E-2,-5.2618766E-1,-5.9422664E-2,2.8634667E-1,-1.2825535E-1,-1.2137366E-3,-2.9494146E-2,-2.0182066E-2,6.341687E-3,-1.2990597E-2,2.8109489E-2,-1.9885566E-2,-1.7028598E-5],"categories":[],"categories_nodes":[],"categories_segments":[],"categories_sizes":[],"default_left":[0,0,0,0,0,0,0,0,0,0,0,0,0,0,0],"id":40,"left_children":[1,3,5,7,9,11,13,-1,-1,-1,-1,-1,-1,-1,-1],"loss_changes":[1.0601442E0,2.0278645E0,1.9512887E0,4.490981E-1,1.8367667E0,2.5279047E0,1.3876675E0,0E0,0E0,0E0,0E0,0E0,0E0,0E0,0E0],"parents":[2147483647,0,0,1,1,2,2,3,3,4,4,5,5,6,6],"right_children":[2,4,6,8,10,12,14,-1,-1,-1,-1,-1,-1,-1,-1],"split_conditions":[1.631579E-1,1.4473684E-1,3.3333334E-1,6.666667E-2,4E-1,2.6666668E-1,1.3157895E-1,-1.2137366E-3,-2.9494146E-2,-2.0182066E-2,6.341687E-3,-1.2990597E-2,2.8109489E-2,-1.9885566E-2,-1.7028598E-5],"split_indices":[2,6,5,5,5,0,1,0,0,0,0,0,0,0,0],"split_type":[0,0,0,0,0,0,0,0,0,0,0,0,0,0,0],"sum_hessian":[9.442026E1,4.0346043E1,5.4074215E1,1.3495631E1,2.6850412E1,1.4810001E1,3.9264214E1,1.6753249E0,1.1820307E1,9.017722E0,1.7832691E1,4.9893665E0,9.820635E0,1.1960308E1,2.7303904E1],"tree_param":{"num_deleted":"0","num_feature":"10","num_nodes":"15","size_leaf_vector":"1"}},{"base_weights":[-1.7975852E-2,2.5718427E-1,-1.5723933E-1,-9.074773E-2,3.525174E-1,-2.4645597E-1,4.7118115E-1,-1.2010607E-2,1.9174017E-2,2.1113051E-2,-1.3927633E-2,2.3864953E-2,-1.5002175E-2,4.0827688E-2,-2.3513278E-2],"categories":[],"categories_nodes":[],"categories_segments":[],"categories_sizes":[],"default_left":[0,0,0,0,0,0,0,0,0,0,0,0,0,0,0],"id":41,"left_children":[1,3,5,7,9,11,13,-1,-1,-1,-1,-1,-1,-1,-1],"loss_changes":[3.9997754E0,1.1962521E0,3.9971619E0,6.835647E-1,1.3392544E0,2.5196738E0,3.293845E0,0E0,0E0,0E0,0E0,0E0,0E0,0E0,0E0],"parents":[2147483647,0,0,1,1,2,2,3,3,4,4,5,5,6,6],"right_children":[2,4,6,8,10,12,14,-1,-1,-1,-1,-1,-1,-1,-1],"split_conditions":[1.4210527E-1,1.368421E-1,2.3947369E-1,1.368421E-1,6E-1,2E-1,2E-1,-1.2010607E-2,1.9174017E-2,2.1113051E-2,-1.3927633E-2,2.3864953E-2,-1.5002175E-2,4.0827688E-2,-2.3513278E-2],"split_indices":[1,6,6,1,4,4,1,0,0,0,0,0,0,0,0],"split_type":[0,0,0,0,0,0,0,0,0,0,0,0,0,0,0],"sum_hessian":[1.0232362E2,3.4100433E1,6.822319E1,7.3443327E0,2.67561E1,6.027394E1,7.949252E0,5.959515E0,1.3848177E0,2.4391336E1,2.3647623E0,3.6100166E0,5.6663925E1,5.912789E0,2.0364635E0],"tree_param":{"num_deleted":"0","num_feature":"10","num_nodes":"15","size_leaf_vector":"1"}},{"base_weights":[1.1467929E-1,-2.3698258E-1,2.618961E-1,3.0116233E-1,-3.4167078E-1,-3.786529E-2,4.905781E-1,-2.0726932E-2,2.8910587E-2,-1.9446414E-2,1.2555025E-2,-8.531483E-3,7.4065104E-3,2.7222944E-2,-3.7329241E-3],"categories":[],"categories_nodes":[],"categories_segments":[],"categories_sizes":[],"default_left":[0,0,0,0,0,0,0,0,0,0,0,0,0,0,0],"id":42,"left_children":[1,3,5,7,9,11,13,-1,-1,-1,-1,-1,-1,-1,-1],"loss_changes":[5.9696836E0,2.0295691E0,5.565151E0,1.4494107E0,9.127753E-1,9.1283834E-1,1.4406757E0,0E0,0E0,0E0,0E0,0E0,0E0,0E0,0E0],"parents":[2147483647,0,0,1,1,2,2,3,3,4,4,5,5,6,6],"right_children":[2,4,6,8,10,12,14,-1,-1,-1,-1,-1,-1,-1,-1],"split_conditions":[1.4210527E-1,1.2894736E-1,1.631579E-1,2E-1,6E-1,6.666667E-1,8.666667E-1,-2.0726932E-2,2.8910587E-2,-1.9446414E-2,1.2555025E-2,-8.531483E-3,7.4065104E-3,2.7222944E-2,-3.7329241E-3],"split_indices":[1,6,7,0,4,0,5,0,0,0,0,0,0,0,0],"split_type":[0,0,0,0,0,0,0,0,0,0,0,0,0,0,0],"sum_hessian":[1.1311159E2,3.3198776E1,7.991281E1,5.100928E0,2.8097849E1,3.4943077E1,4.4969738E1,1.285036E0,3.815892E0,2.634169E1,1.7561573E0,2.0437395E1,1.4505683E1,4.1089653E1,3.880084E0],"tree_param":{"num_deleted":"0","num_feature":"10","num_nodes":"15","size_leaf_vector":"1"}},{"base_weights":[-1.824282E-1,-3.0074713E-1,-8.681519E-2,-9.506625E-2,-4.81357E-1,-1.483588E-3,-2.7923617E-1,-1.569982E-2,1.0972315E-2,-6.938419E-3,-2.5719834E-2,4.811885E-3,-9.564599E-3,8.549183E-3,-1.7793596E-2],"categories":[],"categories_nodes":[],"categories_segments":[],"categories_sizes":[],"default_left":[0,0,0,0,0,0,0,0,0,0,0,0,0,0,0],"id":43,"left_children":[1,3,5,7,9,11,13,-1,-1,-1,-1,-1,-1,-1,-1],"loss_changes":[1.0441029E0,1.5098011E0,8.8176095E-1,1.5028087E0,1.7820406E-1,7.274419E-1,6.301725E-1,0E0,0E0,0E0,0E0,0E0,0E0,0E0,0E0],"parents":[2147483647,0,0,1,1,2,2,3,3,4,4,5,5,6,6],"right_children":[2,4,6,8,10,12,14,-1,-1,-1,-1,-1,-1,-1,-1],"split_conditions":[1.631579E-1,1.631579E-1,2.0526315E-1,2.0263158E-1,6.666667E-2,6.666667E-1,2.6666668E-1,-1.569982E-2,1.0972315E-2,-6.938419E-3,-2.5719834E-2,4.811885E-3,-9.564599E-3,8.549183E-3,-1.7793596E-2],"split_indices":[2,7,2,1,5,5,5,0,0,0,0,0,0,0,0],"split_type":[0,0,0,0,0,0,0,0,0,0,0,0,0,0,0],"sum_hessian":[9.36017E1,4.0874714E1,5.272699E1,1.9824585E1,2.1050129E1,3.722624E1,1.5500753E1,1.1689347E1,8.135238E0,2.3089252E0,1.8741203E1,2.489977E1,1.2326467E1,2.0756426E0,1.3425111E1],"tree_param":{"num_deleted":"0","num_feature":"10","num_nodes":"15","size_leaf_vector":"1"}},{"base_weights":[4.718982E-2,1.8680333E-1,-3.324426E-1,1.0126432E-1,8.305605E-1,5.0750438E-2,-4.213853E-1,-7.761579E-4,2.1026842E-2,1.631521E-2,4.6420112E-2,2.1136677E-2,-2.3788944E-2,-7.1673566E-3,-2.379327E-2],"categories":[],"categories_nodes":[],"categories_segments":[],"categories_sizes":[],"default_left":[0,0,0,0,0,0,0,0,0,0,0,0,0,0,0],"id":44,"left_children":[1,3,5,7,9,11,13,-1,-1,-1,-1,-1,-1,-1,-1],"loss_changes":[5.608822E0,4.164447E0,9.926667E-1,2.5883896E0,1.3667631E-1,1.4274273E0,2.837715E-1,0E0,0E0,0E0,0E0,0E0,0E0,0E0,0E0],"parents":[2147483647,0,0,1,1,2,2,3,3,4,4,5,5,6,6],"right_children":[2,4,6,8,10,12,14,-1,-1,-1,-1,-1,-1,-1,-1],"split_conditions":[2E-1,2.3947369E-1,3.3333334E-1,2.0526315E-1,2.6666668E-1,1E0,1.3157895E-1,-7.761579E-4,2.1026842E-2,1.631521E-2,4.6420112E-2,2.1136677E-2,-2.3788944E-2,-7.1673566E-3,-2.379327E-2],"split_indices":[1,6,4,2,0,5,6,0,0,0,0,0,0,0,0],"split_type":[0,0,0,0,0,0,0,0,0,0,0,0,0,0,0],"sum_hessian":[1.0365151E2,7.615333E1,2.7498188E1,6.824288E1,7.910447E0,5.2611027E0,2.2237085E1,5.0662354E1,1.7580526E1,1.9899043E0,5.9205427E0,3.1985319E0,2.062571E0,4.238283E0,1.7998802E1],"tree_param":{"num_deleted":"0","num_feature":"10","num_nodes":"15","size_leaf_vector":"1"}},{"base_weights":[1.14960164E-1,-1.6622415E-1,3.582141E-1,-3.6445606E-1,-2.9349897E-2,2.3676439E-1,6.14931E-1,-1.6423647E-3,-2.188669E-2,2.230721E-2,-5.4948935E-3,1.5926762E-2,-8.812047E-3,-2.5763243E-2,3.685693E-2],"categories":[],"categories_nodes":[],"categories_segments":[],"categories_sizes":[],"default_left":[0,0,0,0,0,0,0,0,0,0,0,0,0,0,0],"id":45,"left_children":[1,3,5,7,9,11,13,-1,-1,-1,-1,-1,-1,-1,-1],"loss_changes":[7.8690314E0,1.4447554E0,1.7729068E0,5.158963E-1,1.3060129E0,1.5217602E0,3.0228062E0,0E0,0E0,0E0,0E0,0E0,0E0,0E0,0E0],"parents":[2147483647,0,0,1,1,2,2,3,3,4,4,5,5,6,6],"right_children":[2,4,6,8,10,12,14,-1,-1,-1,-1,-1,-1,-1,-1],"split_conditions":[1.5E-1,1.3157895E-1,2.263158E-1,1.368421E-1,2E-1,2.263158E-1,4E-1,-1.6423647E-3,-2.188669E-2,2.230721E-2,-5.4948935E-3,1.5926762E-2,-8.812047E-3,-2.5763243E-2,3.685693E-2],"split_indices":[1,1,1,6,5,6,4,0,0,0,0,0,0,0,0],"split_type":[0,0,0,0,0,0,0,0,0,0,0,0,0,0,0],"sum_hessian":[1.1317513E2,5.2641712E1,6.053342E1,2.0822397E1,3.1819315E1,4.2397797E1,1.8135622E1,4.0306196E0,1.6791777E1,3.9518325E0,2.7867481E1,3.558172E1,6.8160787E0,1.4558035E0,1.6679817E1],"tree_param":{"num_deleted":"0","num_feature":"10","num_nodes":"15","size_leaf_vector":"1"}},{"base_weights":[-8.857219E-2,5.7342656E-2,-1.4363912E-1,4.3917242E-2,-2.0960707E-2,-4.271525E-1,-1.0979461E-1,-9.131602E-3,7.863522E-3,-3.3887677E-4,-2.7185723E-2,-6.819421E-3,1.1124225E-2],"categories":[],"categories_nodes":[],"categories_segments":[],"categories_sizes":[],"default_left":[0,0,0,0,0,0,0,0,0,0,0,0,0],"id":46,"left_children":[1,3,5,-1,7,9,11,-1,-1,-1,-1,-1,-1],"loss_changes":[7.5808823E-1,1.7081368E0,6.0595274E-1,0E0,7.4829113E-1,3.3490026E-1,5.7934505E-1,0E0,0E0,0E0,0E0,0E0,0E0],"parents":[2147483647,0,0,1,1,2,2,4,4,5,5,6,6],"right_children":[2,4,6,-1,8,10,12,-1,-1,-1,-1,-1,-1],"split_conditions":[4E-1,1.0789473E-1,1.0789473E-1,4.3917242E-2,2.5E-1,1.4736842E-1,2.5263157E-1,-9.131602E-3,7.863522E-3,-3.3887677E-4,-2.7185723E-2,-6.819421E-3,1.1124225E-2],"split_indices":[4,6,6,0,4,1,1,0,0,0,0,0,0],"split_type":[0,0,0,0,0,0,0,0,0,0,0,0,0],"sum_hessian":[9.232222E1,2.5284006E1,6.703821E1,1.3118804E0,2.3972126E1,5.9099417E0,6.112827E1,1.2557068E1,1.1415058E1,1.51268E0,4.3972616E0,5.7144287E1,3.9839818E0],"tree_param":{"num_deleted":"0","num_feature":"10","num_nodes":"13","size_leaf_vector":"1"}},{"base_weights":[2.0570766E-2,3.1492555E-1,-1.3058503E-1,-4.4147506E-2,5.5124825E-1,-1.9998963E-1,3.0805194E-1,-2.4427557E-2,1.8031715E-3,3.2365475E-2,-3.882621E-3,-6.629725E-3,-2.5354354E-2,3.846262E-2,-2.6435897E-2],"categories":[],"categories_nodes":[],"categories_segments":[],"categories_sizes":[],"default_left":[0,0,0,0,0,0,0,0,0,0,0,0,0,0,0],"id":47,"left_children":[1,3,5,7,9,11,13,-1,-1,-1,-1,-1,-1,-1,-1],"loss_changes":[4.8096933E0,3.134862E0,2.2388787E0,5.6925035E-1,1.3902726E0,1.2233093E0,4.3291764E0,0E0,0E0,0E0,0E0,0E0,0E0,0E0,0E0],"parents":[2147483647,0,0,1,1,2,2,3,3,4,4,5,5,6,6],"right_children":[2,4,6,8,10,12,14,-1,-1,-1,-1,-1,-1,-1,-1],"split_conditions":[1.4210527E-1,1.4736842E-1,2.3947369E-1,3.6363637E-1,4.6666667E-1,2.0526315E-1,2E-1,-2.4427557E-2,1.8031715E-3,3.2365475E-2,-3.882621E-3,-6.629725E-3,-2.5354354E-2,3.846262E-2,-2.6435897E-2],"split_indices":[1,6,6,4,0,7,1,0,0,0,0,0,0,0,0],"split_type":[0,0,0,0,0,0,0,0,0,0,0,0,0,0,0],"sum_hessian":[1.0617465E2,3.5656044E1,7.051861E1,1.4475257E1,2.1180786E1,6.135466E1,9.163952E0,1.4348319E0,1.3040425E1,1.8348827E1,2.8319573E0,5.1487137E1,9.867522E0,5.9597945E0,3.2041574E0],"tree_param":{"num_deleted":"0","num_feature":"10","num_nodes":"15","size_leaf_vector":"1"}},{"base_weights":[8.218809E-2,2.4090351E-1,-3.2731742E-1,1.5878611E-3,4.103008E-1,-7.8560434E-2,-4.7015655E-1,-1.4219129E-2,1.0871997E-2,2.7514923E-2,5.391093E-3,1.0443053E-2,-1.3237125E-2,-3.0561367E-2,-1.2912291E-2],"categories":[],"categories_nodes":[],"categories_segments":[],"categories_sizes":[],"default_left":[0,0,0,0,0,0,0,0,0,0,0,0,0,0,0],"id":48,"left_children":[1,3,5,7,9,11,13,-1,-1,-1,-1,-1,-1,-1,-1],"loss_changes":[7.4879413E0,3.3531742E0,1.109513E0,2.2403526E0,1.9918118E0,7.493362E-1,4.488716E-1,0E0,0E0,0E0,0E0,0E0,0E0,0E0,0E0],"parents":[2147483647,0,0,1,1,2,2,3,3,4,4,5,5,6,6],"right_children":[2,4,6,8,10,12,14,-1,-1,-1,-1,-1,-1,-1,-1],"split_conditions":[1.7631578E-1,1.631579E-1,4E-1,1.6052632E-1,1.631579E-1,1.368421E-1,1.3157895E-1,-1.4219129E-2,1.0871997E-2,2.7514923E-2,5.391093E-3,1.0443053E-2,-1.3237125E-2,-3.0561367E-2,-1.2912291E-2],"split_indices":[2,7,5,2,2,6,1,0,0,0,0,0,0,0,0],"split_type":[0,0,0,0,0,0,0,0,0,0,0,0,0,0,0],"sum_hessian":[1.1299503E2,8.172999E1,3.1265045E1,3.4292583E1,4.7437405E1,1.1969659E1,1.9295387E1,1.4613921E1,1.9678663E1,3.1868343E1,1.5569063E1,4.6576014E0,7.312057E0,1.0452623E1,8.842764E0],"tree_param":{"num_deleted":"0","num_feature":"10","num_nodes":"15","size_leaf_vector":"1"}},{"base_weights":[-9.457522E-2,1.8267019E-1,-1.5615027E-1,-2.3655637E-1,3.6375016E-1,-2.3040271E-1,-5.6177285E-3,-1.9789455E-3,-2.1847904E-2,4.699549E-2,4.6436074E-3,-6.9393204E-3,-2.4218217E-2,2.5507051E-2,-6.2994617E-3],"categories":[],"categories_nodes":[],"categories_segments":[],"categories_sizes":[],"default_left":[0,0,0,0,0,0,0,0,0,0,0,0,0,0,0],"id":49,"left_children":[1,3,5,7,9,11,13,-1,-1,-1,-1,-1,-1,-1,-1],"loss_changes":[1.6708792E0,1.4482818E0,8.846326E-1,2.2029713E-1,1.930011E0,1.1671782E0,1.7533451E0,0E0,0E0,0E0,0E0,0E0,0E0,0E0,0E0],"parents":[2147483647,0,0,1,1,2,2,3,3,4,4,5,5,6,6],"right_children":[2,4,6,8,10,12,14,-1,-1,-1,-1,-1,-1,-1,-1],"split_conditions":[3.3333334E-1,5.3333336E-1,1.9473684E-1,1.5E-1,1.5789473E-1,4.6666667E-1,1.5263158E-1,-1.9789455E-3,-2.1847904E-2,4.699549E-2,4.6436074E-3,-6.9393204E-3,-2.4218217E-2,2.5507051E-2,-6.2994617E-3],"split_indices":[4,5,6,6,6,5,2,0,0,0,0,0,0,0,0],"split_type":[0,0,0,0,0,0,0,0,0,0,0,0,0,0,0],"sum_hessian":[9.520507E1,1.6944553E1,7.826051E1,5.018841E0,1.1925713E1,5.2053673E1,2.6206844E1,3.1349528E0,1.8838881E0,3.023929E0,8.901784E0,3.93902E1,1.2663473E1,4.34626E0,2.1860584E1],"tree_param":{"num_deleted":"0","num_feature":"10","num_nodes":"15","size_leaf_vector":"1"}},{"base_weights":[3.261748E-2,1.2861061E-1,-4.41909E-1,-7.582005E-2,2.9196808E-1,4.884464E-3,-4.867188E-1,2.3457512E-2,-9.255897E-3,2.5992606E-2,6.543004E-3,-2.9333835E-2,-9.40723E-3],"categories":[],"categories_nodes":[],"categories_segments":[],"categories_sizes":[],"default_left":[0,0,0,0,0,0,0,0,0,0,0,0,0],"id":50,"left_children":[1,3,5,7,9,-1,11,-1,-1,-1,-1,-1,-1],"loss_changes":[4.689547E0,2.8729477E0,4.6675754E-1,2.3925765E0,1.6815991E0,0E0,3.7237144E-1,0E0,0E0,0E0,0E0,0E0,0E0],"parents":[2147483647,0,0,1,1,2,2,3,3,4,4,6,6],"right_children":[2,4,6,8,10,-1,12,-1,-1,-1,-1,-1,-1],"split_conditions":[2.236842E-1,1.5E-1,3.3333334E-1,1.0789473E-1,3.3333334E-1,4.884464E-3,2E-1,2.3457512E-2,-9.255897E-3,2.5992606E-2,6.543004E-3,-2.9333835E-2,-9.40723E-3],"split_indices":[1,6,4,1,0,0,6,0,0,0,0,0,0],"split_type":[0,0,0,0,0,0,0,0,0,0,0,0,0],"sum_hessian":[1.0070325E2,8.436568E1,1.633757E1,3.771003E1,4.6655647E1,1.1622086E0,1.5175361E1,5.749591E0,3.196044E1,1.840103E1,2.8254618E1,1.064624E1,4.5291204E0],"tree_param":{"num_deleted":"0","num_feature":"10","num_nodes":"13","size_leaf_vector":"1"}},{"base_weights":[9.295652E-2,-3.2210505E-1,1.9083369E-1,1.5754241E-1,-4.37231E-1,7.538753E-1,1.1595213E-1,2.2662116E-2,-8.661228E-3,-2.8018415E-2,-1.0529067E-2,4.0255126E-2,1.2809775E-2,1.6419729E-3,1.9290192E-2],"categories":[],"categories_nodes":[],"categories_segments":[],"categories_sizes":[],"default_left":[0,0,0,0,0,0,0,0,0,0,0,0,0,0,0],"id":51,"left_children":[1,3,5,7,9,11,13,-1,-1,-1,-1,-1,-1,-1,-1],"loss_changes":[4.7021275E0,1.2930677E0,3.8362212E0,5.701208E-1,3.8835073E-1,6.7605495E-2,1.8560389E0,0E0,0E0,0E0,0E0,0E0,0E0,0E0,0E0],"parents":[2147483647,0,0,1,1,2,2,3,3,4,4,5,5,6,6],"right_children":[2,4,6,8,10,12,14,-1,-1,-1,-1,-1,-1,-1,-1],"split_conditions":[1.3157895E-1,1.3157895E-1,2E-1,3.3333334E-1,2E-1,1.9473684E-1,2.263158E-1,2.2662116E-2,-8.661228E-3,-2.8018415E-2,-1.0529067E-2,4.0255126E-2,1.2809775E-2,1.6419729E-3,1.9290192E-2],"split_indices":[1,6,5,5,6,2,1,0,0,0,0,0,0,0,0],"split_type":[0,0,0,0,0,0,0,0,0,0,0,0,0,0,0],"sum_hessian":[1.1323146E2,2.1169285E1,9.206218E1,4.0262685E0,1.7143017E1,9.742185E0,8.231999E1,1.9303197E0,2.095949E0,1.015401E1,6.989007E0,8.272924E0,1.4692607E0,6.3793636E1,1.8526356E1],"tree_param":{"num_deleted":"0","num_feature":"10","num_nodes":"15","size_leaf_vector":"1"}},{"base_weights":[-9.8760046E-2,-1.2128194E-1,2.4552806E-1,-8.1670344E-2,-3.3294263E-1,-2.3033941E-2,4.7100298E-2,-1.8951352E-3,-2.239046E-2,2.442503E-3,-2.1341046E-2],"categories":[],"categories_nodes":[],"categories_segments":[],"categories_sizes":[],"default_left":[0,0,0,0,0,0,0,0,0,0,0],"id":52,"left_children":[1,3,5,7,9,-1,-1,-1,-1,-1,-1],"loss_changes":[7.4005216E-1,6.992663E-1,3.3629067E0,1.1738743E0,4.987744E-1,0E0,0E0,0E0,0E0,0E0,0E0],"parents":[2147483647,0,0,1,1,2,2,3,3,4,4],"right_children":[2,4,6,8,10,-1,-1,-1,-1,-1,-1],"split_conditions":[2.5263157E-1,2.236842E-1,1.5E-1,2.3947369E-1,4E-1,-2.3033941E-2,4.7100298E-2,-1.8951352E-3,-2.239046E-2,2.442503E-3,-2.1341046E-2],"split_indices":[1,1,6,6,4,0,0,0,0,0,0],"split_type":[0,0,0,0,0,0,0,0,0,0,0],"sum_hessian":[9.060073E1,8.564587E1,4.9548655E0,7.331168E1,1.2334182E1,2.6283545E0,2.3265107E0,6.646954E1,6.84214E0,2.5289323E0,9.805249E0],"tree_param":{"num_deleted":"0","num_feature":"10","num_nodes":"11","size_leaf_vector":"1"}},{"base_weights":[7.1852678E-3,2.6807526E-1,-1.2737736E-1,-3.3247167E-1,3.3484712E-1,-4.750341E-2,-4.0696782E-1,-2.62651E-3,-2.2912076E-2,3.1612974E-2,1.0809664E-2,1.3193783E-2,-7.269596E-3,5.6437408E-3,-2.2801725E-2],"categories":[],"categories_nodes":[],"categories_segments":[],"categories_sizes":[],"default_left":[0,0,0,0,0,0,0,0,0,0,0,0,0,0,0],"id":53,"left_children":[1,3,5,7,9,11,13,-1,-1,-1,-1,-1,-1,-1,-1],"loss_changes":[3.7231152E0,1.5580597E0,1.5439581E0,1.2069696E-1,1.026674E0,1.7324598E0,4.4485688E-1,0E0,0E0,0E0,0E0,0E0,0E0,0E0,0E0],"parents":[2147483647,0,0,1,1,2,2,3,3,4,4,5,5,6,6],"right_children":[2,4,6,8,10,12,14,-1,-1,-1,-1,-1,-1,-1,-1],"split_conditions":[1.4210527E-1,1.0789473E-1,2.263158E-1,2E-1,1.6052632E-1,1.5263158E-1,4E-1,-2.62651E-3,-2.2912076E-2,3.1612974E-2,1.0809664E-2,1.3193783E-2,-7.269596E-3,5.6437408E-3,-2.2801725E-2],"split_indices":[1,6,1,0,7,7,4,0,0,0,0,0,0,0,0],"split_type":[0,0,0,0,0,0,0,0,0,0,0,0,0,0,0],"sum_hessian":[1.0408072E2,3.507844E1,6.900227E1,3.1117861E0,3.1966658E1,5.4579735E1,1.4422542E1,1.4041237E0,1.7076625E0,7.881826E0,2.4084831E1,1.2648796E1,4.193094E1,1.131741E0,1.32908E1],"tree_param":{"num_deleted":"0","num_feature":"10","num_nodes":"15","size_leaf_vector":"1"}},{"base_weights":[6.378295E-2,1.869251E-1,-2.5288707E-1,-2.6310578E-2,3.3835042E-1,3.2586988E-2,-3.1617737E-1,-1.3235916E-2,8.721177E-3,2.7083078E-2,8.525266E-3,-8.063211E-3,-2.4493815E-2],"categories":[],"categories_nodes":[],"categories_segments":[],"categories_sizes":[],"default_left":[0,0,0,0,0,0,0,0,0,0,0,0,0],"id":54,"left_children":[1,3,5,7,9,-1,11,-1,-1,-1,-1,-1,-1],"loss_changes":[4.576071E0,2.7274919E0,2.092123E0,1.7637311E0,1.5901694E0,0E0,7.6756716E-1,0E0,0E0,0E0,0E0,0E0,0E0],"parents":[2147483647,0,0,1,1,2,2,3,3,4,4,6,6],"right_children":[2,4,6,8,10,-1,12,-1,-1,-1,-1,-1,-1],"split_conditions":[1.7631578E-1,1.631579E-1,6.666667E-2,1.5789473E-1,1.6052632E-1,3.2586988E-2,1.5789473E-1,-1.3235916E-2,8.721177E-3,2.7083078E-2,8.525266E-3,-8.063211E-3,-2.4493815E-2],"split_indices":[2,7,5,1,2,0,6,0,0,0,0,0,0],"split_type":[0,0,0,0,0,0,0,0,0,0,0,0,0],"sum_hessian":[1.15136696E2,8.31948E1,3.1941896E1,3.48897E1,4.8305096E1,1.4806662E0,3.046123E1,1.5802568E1,1.9087133E1,2.0837473E1,2.7467623E1,1.7120632E1,1.3340598E1],"tree_param":{"num_deleted":"0","num_feature":"10","num_nodes":"13","size_leaf_vector":"1"}},{"base_weights":[-9.220688E-2,-2.604982E-1,2.6238112E-2,-2.8727615E-2,-1.07591204E-1,-9.565641E-2,1.2319482E-1,-9.528688E-3,2.0427765E-2,7.674336E-3,-1.2507719E-2,3.0813908E-2,2.1405313E-3],"categories":[],"categories_nodes":[],"categories_segments":[],"categories_sizes":[],"default_left":[0,0,0,0,0,0,0,0,0,0,0,0,0],"id":55,"left_children":[1,3,5,-1,7,9,11,-1,-1,-1,-1,-1,-1],"loss_changes":[1.8548388E0,1.7816138E0,6.6560215E-1,0E0,1.2363646E0,1.0034618E0,1.212237E0,0E0,0E0,0E0,0E0,0E0,0E0],"parents":[2147483647,0,0,1,1,2,2,4,4,5,5,6,6],"right_children":[2,4,6,-1,8,10,12,-1,-1,-1,-1,-1,-1],"split_conditions":[1.631579E-1,1.4473684E-1,1.4210527E-1,-2.8727615E-2,2.5263157E-1,4E-1,1.2894736E-1,-9.528688E-3,2.0427765E-2,7.674336E-3,-1.2507719E-2,3.0813908E-2,2.1405313E-3],"split_indices":[2,6,1,0,1,5,6,0,0,0,0,0,0],"split_type":[0,0,0,0,0,0,0,0,0,0,0,0,0],"sum_hessian":[9.170955E1,3.738795E1,5.4321598E1,1.1339776E1,2.6048176E1,2.4071802E1,3.0249796E1,2.2983774E1,3.0644007E0,9.216247E0,1.4855555E1,3.3056993E0,2.6944096E1],"tree_param":{"num_deleted":"0","num_feature":"10","num_nodes":"13","size_leaf_vector":"1"}},{"base_weights":[7.890954E-3,1.6493773E-1,-2.5403163E-1,4.0788606E-1,4.9798664E-2,-1.3615707E-1,-4.159579E-1,-6.850082E-5,2.9799674E-2,-5.0281337E-3,2.0507917E-2,-4.3819654E-3,-2.2023775E-2,5.73351E-3,-2.3158772E-2],"categories":[],"categories_nodes":[],"categories_segments":[],"categories_sizes":[],"default_left":[0,0,0,0,0,0,0,0,0,0,0,0,0,0,0],"id":56,"left_children":[1,3,5,7,9,11,13,-1,-1,-1,-1,-1,-1,-1,-1],"loss_changes":[4.3549633E0,1.8302765E0,7.010629E-1,1.627711E0,2.5350049E0,3.2254714E-1,4.599297E-1,0E0,0E0,0E0,0E0,0E0,0E0,0E0,0E0],"parents":[2147483647,0,0,1,1,2,2,3,3,4,4,5,5,6,6],"right_children":[2,4,6,8,10,12,14,-1,-1,-1,-1,-1,-1,-1,-1],"split_conditions":[1.5789473E-1,1.6052632E-1,2.263158E-1,3.3333334E-1,1.9473684E-1,2.0526315E-1,4E-1,-6.850082E-5,2.9799674E-2,-5.0281337E-3,2.0507917E-2,-4.3819654E-3,-2.2023775E-2,5.73351E-3,-2.3158772E-2],"split_indices":[1,7,1,4,2,7,4,0,0,0,0,0,0,0,0],"split_type":[0,0,0,0,0,0,0,0,0,0,0,0,0,0,0],"sum_hessian":[1.03853745E2,6.515662E1,3.8697124E1,2.0132864E1,4.502375E1,2.346013E1,1.5236995E1,6.652362E0,1.3480502E1,3.2277E1,1.2746753E1,2.1345055E1,2.1150753E0,1.12833E0,1.4108665E1],"tree_param":{"num_deleted":"0","num_feature":"10","num_nodes":"15","size_leaf_vector":"1"}},{"base_weights":[6.757107E-2,-5.643941E-2,4.114565E-1,-4.380451E-1,3.7368514E-2,5.124392E-1,-1.3704257E-1,-2.9237596E-2,1.4073658E-2,5.433458E-3,-1.2652881E-2,3.237602E-2,1.6093217E-2,1.1745243E-2,-2.6584689E-2],"categories":[],"categories_nodes":[],"categories_segments":[],"categories_sizes":[],"default_left":[0,0,0,0,0,0,0,0,0,0,0,0,0,0,0],"id":57,"left_children":[1,3,5,7,9,11,13,-1,-1,-1,-1,-1,-1,-1,-1],"loss_changes":[4.696702E0,2.9311304E0,1.6856999E0,1.8688216E0,1.3999634E0,4.311018E-1,9.063735E-1,0E0,0E0,0E0,0E0,0E0,0E0,0E0,0E0],"parents":[2147483647,0,0,1,1,2,2,3,3,4,4,5,5,6,6],"right_children":[2,4,6,8,10,12,14,-1,-1,-1,-1,-1,-1,-1,-1],"split_conditions":[2.0263158E-1,1.5263158E-1,1E0,1.9473684E-1,2.0526315E-1,6.666667E-1,5E-1,-2.9237596E-2,1.4073658E-2,5.433458E-3,-1.2652881E-2,3.237602E-2,1.6093217E-2,1.1745243E-2,-2.6584689E-2],"split_indices":[1,7,5,1,2,4,4,0,0,0,0,0,0,0,0],"split_type":[0,0,0,0,0,0,0,0,0,0,0,0,0,0,0],"sum_hessian":[1.0858931E2,8.042329E1,2.8166021E1,1.5144927E1,6.527836E1,2.3842236E1,4.3237877E0,1.273551E1,2.4094174E0,5.2913692E1,1.2364669E1,1.2549388E1,1.1292847E1,2.4343042E0,1.8894832E0],"tree_param":{"num_deleted":"0","num_feature":"10","num_nodes":"15","size_leaf_vector":"1"}},{"base_weights":[-1.0399256E-1,1.14463255E-1,-1.58042E-1,-2.5344592E-1,2.8377798E-1,-4.4911468E-1,-9.905334E-2,-1.76824E-3,-2.2719093E-2,4.392953E-2,2.7451545E-3,-2.9897643E-2,-7.3752427E-3,-1.3907124E-2,5.1915664E-3],"categories":[],"categories_nodes":[],"categories_segments":[],"categories_sizes":[],"default_left":[0,0,0,0,0,0,0,0,0,0,0,0,0,0,0],"id":58,"left_children":[1,3,5,7,9,11,13,-1,-1,-1,-1,-1,-1,-1,-1],"loss_changes":[1.0769293E0,1.2160168E0,1.1970637E0,2.60732E-1,1.7283291E0,4.4608545E-1,2.260086E0,0E0,0E0,0E0,0E0,0E0,0E0,0E0,0E0],"parents":[2147483647,0,0,1,1,2,2,3,3,4,4,5,5,6,6],"right_children":[2,4,6,8,10,12,14,-1,-1,-1,-1,-1,-1,-1,-1],"split_conditions":[3.3333334E-1,5.3333336E-1,2.6666668E-1,1.5E-1,1.5789473E-1,1.5789473E-1,1.631579E-1,-1.76824E-3,-2.2719093E-2,4.392953E-2,2.7451545E-3,-2.9897643E-2,-7.3752427E-3,-1.3907124E-2,5.1915664E-3],"split_indices":[4,5,0,6,6,6,2,0,0,0,0,0,0,0,0],"split_type":[0,0,0,0,0,0,0,0,0,0,0,0,0,0,0],"sum_hessian":[8.867582E1,1.7366507E1,7.130932E1,5.316729E0,1.2049778E1,1.0901845E1,6.040747E1,3.113531E0,2.2031982E0,2.5594363E0,9.490341E0,6.6417446E0,4.2601004E0,3.188829E1,2.8519178E1],"tree_param":{"num_deleted":"0","num_feature":"10","num_nodes":"15","size_leaf_vector":"1"}},{"base_weights":[-4.4239582E-3,3.8247022E-1,-1.1993673E-1,1.0835812E-2,6.105926E-1,4.3415955E-1,-1.638967E-1,1.827031E-2,-2.3002325E-2,1.0430508E-2,3.1979483E-2,3.3124525E-2,-4.724878E-3,-1.6264677E-2,-4.786616E-3],"categories":[],"categories_nodes":[],"categories_segments":[],"categories_sizes":[],"default_left":[0,0,0,0,0,0,0,0,0,0,0,0,0,0,0],"id":59,"left_children":[1,3,5,7,9,11,13,-1,-1,-1,-1,-1,-1,-1,-1],"loss_changes":[4.6208353E0,2.0089917E0,2.0098925E0,1.847918E0,3.8086414E-2,8.018875E-1,7.881267E-1,0E0,0E0,0E0,0E0,0E0,0E0,0E0,0E0],"parents":[2147483647,0,0,1,1,2,2,3,3,4,4,5,5,6,6],"right_children":[2,4,6,8,10,12,14,-1,-1,-1,-1,-1,-1,-1,-1],"split_conditions":[1.3157895E-1,4E-1,2E-1,1.0789473E-1,2.5E-1,1.4736842E-1,1.4210527E-1,1.827031E-2,-2.3002325E-2,1.0430508E-2,3.1979483E-2,3.3124525E-2,-4.724878E-3,-1.6264677E-2,-4.786616E-3],"split_indices":[1,5,4,1,4,1,6,0,0,0,0,0,0,0,0],"split_type":[0,0,0,0,0,0,0,0,0,0,0,0,0,0,0],"sum_hessian":[1.0136828E2,2.2775108E1,7.859317E1,9.061123E0,1.3713986E1,5.124524E0,7.346864E1,5.296728E0,3.7643948E0,1.4740219E0,1.22399645E1,3.4020123E0,1.7225118E0,2.06952E1,5.2773445E1],"tree_param":{"num_deleted":"0","num_feature":"10","num_nodes":"15","size_leaf_vector":"1"}},{"base_weights":[1.0177707E-1,1.6694398E-1,-3.4787703E-1,1.0164186E-1,4.8218852E-1,-1.4929369E-1,-2.7268726E-2,9.20771E-3,-6.342919E-3,7.5430097E-3,3.0276502E-2,8.451058E-3,-2.6723964E-2],"categories":[],"categories_nodes":[],"categories_segments":[],"categories_sizes":[],"default_left":[0,0,0,0,0,0,0,0,0,0,0,0,0],"id":60,"left_children":[1,3,5,7,9,11,-1,-1,-1,-1,-1,-1,-1],"loss_changes":[3.401063E0,2.016186E0,4.9767232E-1,1.6141162E0,6.0124993E-1,1.1618748E0,0E0,0E0,0E0,0E0,0E0,0E0,0E0],"parents":[2147483647,0,0,1,1,2,2,3,3,4,4,5,5],"right_children":[2,4,6,8,10,12,-1,-1,-1,-1,-1,-1,-1],"split_conditions":[2.0526315E-1,2.0526315E-1,1.5789473E-1,1.7105263E-1,4E-1,1.7631578E-1,-2.7268726E-2,9.20771E-3,-6.342919E-3,7.5430097E-3,3.0276502E-2,8.451058E-3,-2.6723964E-2],"split_indices":[2,7,6,2,0,7,0,0,0,0,0,0,0],"split_type":[0,0,0,0,0,0,0,0,0,0,0,0,0],"sum_hessian":[1.13085106E2,9.931975E1,1.3765361E1,8.337189E1,1.5947857E1,7.7393684E0,6.0259924E0,6.139573E1,2.1976162E1,4.929367E0,1.101849E1,4.544784E0,3.1945844E0],"tree_param":{"num_deleted":"0","num_feature":"10","num_nodes":"13","size_leaf_vector":"1"}},{"base_weights":[-1.5956137E-1,-7.480604E-2,-2.9185924E-1,-1.6332896E-1,1.5236889E-1,-2.7819067E-2,-1.7232883E-1,2.1346826E-3,-1.8541008E-2,-2.9003406E-3,3.8805645E-2,-1.3706545E-2,2.4281181E-3],"categories":[],"categories_nodes":[],"categories_segments":[],"categories_sizes":[],"default_left":[0,0,0,0,0,0,0,0,0,0,0,0,0],"id":61,"left_children":[1,3,5,7,9,-1,11,-1,-1,-1,-1,-1,-1],"loss_changes":[1.0496666E0,1.2232456E0,1.0730352E0,1.8695133E0,2.3054953E0,0E0,6.1848724E-1,0E0,0E0,0E0,0E0,0E0,0E0],"parents":[2147483647,0,0,1,1,2,2,3,3,4,4,6,6],"right_children":[2,4,6,8,10,-1,12,-1,-1,-1,-1,-1,-1],"split_conditions":[1.7105263E-1,6E-1,1.6052632E-1,4E-1,2.263158E-1,-2.7819067E-2,1.5E-1,2.1346826E-3,-1.8541008E-2,-2.9003406E-3,3.8805645E-2,-1.3706545E-2,2.4281181E-3],"split_indices":[7,4,2,4,6,0,1,0,0,0,0,0,0],"split_type":[0,0,0,0,0,0,0,0,0,0,0,0,0],"sum_hessian":[9.4559105E1,5.858966E1,3.5969444E1,4.2363125E1,1.6226532E1,1.0057456E1,2.591199E1,2.165532E1,2.0707808E1,1.2812237E1,3.4142954E0,1.7572386E1,8.339604E0],"tree_param":{"num_deleted":"0","num_feature":"10","num_nodes":"13","size_leaf_vector":"1"}},{"base_weights":[2.0365864E-3,6.773573E-2,-4.224901E-1,1.7415912E-1,-2.2536446E-1,1.0311322E-2,-2.652271E-2,4.509804E-3,3.5973344E-2,3.2727297E-3,-1.5282461E-2],"categories":[],"categories_nodes":[],"categories_segments":[],"categories_sizes":[],"default_left":[0,0,0,0,0,0,0,0,0,0,0],"id":62,"left_children":[1,3,5,7,9,-1,-1,-1,-1,-1,-1],"loss_changes":[2.939908E0,2.8857017E0,1.0683246E0,3.026102E0,5.977304E-1,0E0,0E0,0E0,0E0,0E0,0E0],"parents":[2147483647,0,0,1,1,2,2,3,3,4,4],"right_children":[2,4,6,8,10,-1,-1,-1,-1,-1,-1],"split_conditions":[2.0526315E-1,2E-1,2.6666668E-1,2.3947369E-1,3.3333334E-1,1.0311322E-2,-2.652271E-2,4.509804E-3,3.5973344E-2,3.2727297E-3,-1.5282461E-2],"split_indices":[7,1,0,6,4,0,0,0,0,0,0],"split_type":[0,0,0,0,0,0,0,0,0,0,0],"sum_hessian":[1.03380844E2,9.0253746E1,1.3127098E1,6.651005E1,2.3743702E1,1.7904553E0,1.1336643E1,5.8645573E1,7.8644733E0,5.1766853E0,1.8567017E1],"tree_param":{"num_deleted":"0","num_feature":"10","num_nodes":"11","size_leaf_vector":"1"}},{"base_weights":[9.341688E-2,-6.4606085E-2,3.406679E-1,-4.6912092E-1,8.700245E-2,4.8662037E-1,1.1497006E-1,-1.3810326E-2,-3.0151485E-2,9.222009E-3,-1.3499446E-2,2.940832E-2,5.950451E-3,2.6772553E-4,2.0722786E-2],"categories":[],"categories_nodes":[],"categories_segments":[],"categories_sizes":[],"default_left":[0,0,0,0,0,0,0,0,0,0,0,0,0,0,0],"id":63,"left_children":[1,3,5,7,9,11,13,-1,-1,-1,-1,-1,-1,-1,-1],"loss_changes":[4.4288673E0,4.312423E0,1.3980136E0,3.280034E-1,1.841446E0,9.190507E-1,6.0979915E-1,0E0,0E0,0E0,0E0,0E0,0E0,0E0,0E0],"parents":[2147483647,0,0,1,1,2,2,3,3,4,4,5,5,6,6],"right_children":[2,4,6,8,10,12,14,-1,-1,-1,-1,-1,-1,-1,-1],"split_conditions":[1.9473684E-1,1.6052632E-1,1.5789473E-1,1.5789473E-1,2.0526315E-1,1.631579E-1,7.5E-1,-1.3810326E-2,-3.0151485E-2,9.222009E-3,-1.3499446E-2,2.940832E-2,5.950451E-3,2.6772553E-4,2.0722786E-2],"split_indices":[1,7,6,6,2,2,4,0,0,0,0,0,0,0,0],"split_type":[0,0,0,0,0,0,0,0,0,0,0,0,0,0,0],"sum_hessian":[1.1179005E2,6.865195E1,4.31381E1,1.8144732E1,5.0507217E1,2.5495079E1,1.764302E1,8.689266E0,9.455464E0,4.0057278E1,1.0449943E1,1.9506725E1,5.988353E0,1.3660854E1,3.9821668E0],"tree_param":{"num_deleted":"0","num_feature":"10","num_nodes":"15","size_leaf_vector":"1"}},{"base_weights":[-1.03815794E-1,-2.7282E-1,1.1738504E-2,-4.079536E-1,-2.7955906E-2,1.7771062E-1,-1.11467004E-1,-1.204925E-3,-2.182577E-2,3.545983E-2,-8.747766E-3,2.652528E-2,3.6455062E-3,-2.9078176E-2,4.9854134E-4],"categories":[],"categories_nodes":[],"categories_segments":[],"categories_sizes":[],"default_left":[0,0,0,0,0,0,0,0,0,0,0,0,0,0,0],"id":64,"left_children":[1,3,5,7,9,11,13,-1,-1,-1,-1,-1,-1,-1,-1],"loss_changes":[1.8302504E0,1.2470582E0,1.175621E0,2.5736284E-1,1.7059835E0,8.659478E-1,1.8928492E0,0E0,0E0,0E0,0E0,0E0,0E0,0E0,0E0],"parents":[2147483647,0,0,1,1,2,2,3,3,4,4,5,5,6,6],"right_children":[2,4,6,8,10,12,14,-1,-1,-1,-1,-1,-1,-1,-1],"split_conditions":[1.631579E-1,1.9473684E-1,1.4736842E-1,6.666667E-2,2E-1,1.6578947E-1,1.6578947E-1,-1.204925E-3,-2.182577E-2,3.545983E-2,-8.747766E-3,2.652528E-2,3.6455062E-3,-2.9078176E-2,4.9854134E-4],"split_indices":[2,6,6,5,6,2,2,0,0,0,0,0,0,0,0],"split_type":[0,0,0,0,0,0,0,0,0,0,0,0,0,0,0],"sum_hessian":[9.255484E1,3.7032257E1,5.5522583E1,2.3433777E1,1.3598481E1,2.3467178E1,3.2055405E1,1.750586E0,2.1683191E1,1.6250277E0,1.19734535E1,4.444246E0,1.9022934E1,5.802897E0,2.6252508E1],"tree_param":{"num_deleted":"0","num_feature":"10","num_nodes":"15","size_leaf_vector":"1"}},{"base_weights":[-6.067614E-3,1.03989504E-1,-3.20643E-1,2.5599934E-2,7.287559E-1,-4.5030025E-1,-2.8327577E-2,1.064683E-2,-7.1728523E-3,1.741949E-2,4.120098E-2,-1.4145054E-2,-2.8360099E-2,3.051572E-2,-1.3763264E-2],"categories":[],"categories_nodes":[],"categories_segments":[],"categories_sizes":[],"default_left":[0,0,0,0,0,0,0,0,0,0,0,0,0,0,0],"id":65,"left_children":[1,3,5,7,9,11,13,-1,-1,-1,-1,-1,-1,-1,-1],"loss_changes":[3.5286531E0,3.681269E0,9.882617E-1,2.1892512E0,1.677847E-2,1.9626713E-1,1.6161149E0,0E0,0E0,0E0,0E0,0E0,0E0,0E0,0E0],"parents":[2147483647,0,0,1,1,2,2,3,3,4,4,5,5,6,6],"right_children":[2,4,6,8,10,12,14,-1,-1,-1,-1,-1,-1,-1,-1],"split_conditions":[2E-1,2.3947369E-1,6.666667E-1,1.4210527E-1,1.368421E-1,1.631579E-1,2.236842E-1,1.064683E-2,-7.1728523E-3,1.741949E-2,4.120098E-2,-1.4145054E-2,-2.8360099E-2,3.051572E-2,-1.3763264E-2],"split_indices":[1,6,4,1,1,7,1,0,0,0,0,0,0,0,0],"split_type":[0,0,0,0,0,0,0,0,0,0,0,0,0,0,0],"sum_hessian":[9.9958466E1,7.454695E1,2.5411512E1,6.71612E1,7.385755E0,1.7229061E1,8.182452E0,3.1735106E1,3.5426094E1,2.4120615E0,4.9736934E0,8.490686E0,8.738375E0,1.8712931E0,6.311159E0],"tree_param":{"num_deleted":"0","num_feature":"10","num_nodes":"15","size_leaf_vector":"1"}},{"base_weights":[9.9659696E-2,-1.2087326E-1,2.9086995E-1,-4.833606E-1,-4.7494408E-2,3.5942033E-1,-1.5532091E-1,-8.534357E-3,-2.8716085E-2,3.255266E-3,-1.6137853E-2,-1.3742729E-2,1.9459749E-2,2.1689354E-2,-1.926273E-2],"categories":[],"categories_nodes":[],"categories_segments":[],"categories_sizes":[],"default_left":[0,0,0,0,0,0,0,0,0,0,0,0,0,0,0],"id":66,"left_children":[1,3,5,7,9,11,13,-1,-1,-1,-1,-1,-1,-1,-1],"loss_changes":[4.839211E0,1.4030844E0,1.9311876E0,1.5557551E-1,1.4373362E0,1.1163845E0,1.3677465E0,0E0,0E0,0E0,0E0,0E0,0E0,0E0,0E0],"parents":[2147483647,0,0,1,1,2,2,3,3,4,4,5,5,6,6],"right_children":[2,4,6,8,10,12,14,-1,-1,-1,-1,-1,-1,-1,-1],"split_conditions":[1.5E-1,1.5263158E-1,2.263158E-1,8.947369E-2,1.9473684E-1,2E-1,4E-1,-8.534357E-3,-2.8716085E-2,3.255266E-3,-1.6137853E-2,-1.3742729E-2,1.9459749E-2,2.1689354E-2,-1.926273E-2],"split_indices":[1,7,6,7,2,4,4,0,0,0,0,0,0,0,0],"split_type":[0,0,0,0,0,0,0,0,0,0,0,0,0,0,0],"sum_hessian":[1.1292606E2,5.2612785E1,6.0313274E1,7.9168425E0,4.4695942E1,5.2449657E1,7.863617E0,2.432331E0,5.4845114E0,3.226217E1,1.2433774E1,1.9826682E0,5.046699E1,1.9587001E0,5.904917E0],"tree_param":{"num_deleted":"0","num_feature":"10","num_nodes":"15","size_leaf_vector":"1"}},{"base_weights":[-6.0320802E-2,-2.1209705E-1,3.9357934E-2,-2.7943084E-2,-5.9022866E-2,2.2568935E-1,-9.538488E-2,-7.174027E-3,2.4049815E-2,-6.0884603E-3,1.6690513E-2,-2.213323E-2,-1.5439499E-4],"categories":[],"categories_nodes":[],"categories_segments":[],"categories_sizes":[],"default_left":[0,0,0,0,0,0,0,0,0,0,0,0,0],"id":67,"left_children":[1,3,5,-1,7,9,11,-1,-1,-1,-1,-1,-1],"loss_changes":[1.4242256E0,1.9445615E0,1.4609605E0,0E0,1.2988164E0,9.556923E-1,1.0876305E0,0E0,0E0,0E0,0E0,0E0,0E0],"parents":[2147483647,0,0,1,1,2,2,4,4,5,5,6,6],"right_children":[2,4,6,-1,8,10,12,-1,-1,-1,-1,-1,-1],"split_conditions":[1.631579E-1,1.4473684E-1,1.4736842E-1,-2.7943084E-2,2.5263157E-1,2E-1,1.6578947E-1,-7.174027E-3,2.4049815E-2,-6.0884603E-3,1.6690513E-2,-2.213323E-2,-1.5439499E-4],"split_indices":[2,6,6,0,1,5,2,0,0,0,0,0,0],"split_type":[0,0,0,0,0,0,0,0,0,0,0,0,0],"sum_hessian":[9.258784E1,3.6255478E1,5.6332363E1,1.0291298E1,2.596418E1,2.3357323E1,3.297504E1,2.3087635E1,2.8765452E0,5.5133452E0,1.7843977E1,6.126642E0,2.6848396E1],"tree_param":{"num_deleted":"0","num_feature":"10","num_nodes":"13","size_leaf_vector":"1"}},{"base_weights":[-3.5915256E-2,-9.202739E-2,4.5360243E-1,1.0535429E-1,-1.9615507E-1,6.981871E-1,-2.2167979E-2,-3.1435657E-3,1.2181494E-2,-1.3752274E-2,1.6518614E-3,5.4089124E-3,4.0005725E-2],"categories":[],"categories_nodes":[],"categories_segments":[],"categories_sizes":[],"default_left":[0,0,0,0,0,0,0,0,0,0,0,0,0],"id":68,"left_children":[1,3,5,7,9,11,-1,-1,-1,-1,-1,-1,-1],"loss_changes":[2.8510094E0,1.9236189E0,2.653986E0,7.742542E-1,1.1113412E0,4.4177055E-1,0E0,0E0,0E0,0E0,0E0,0E0,0E0],"parents":[2147483647,0,0,1,1,2,2,3,3,4,4,5,5],"right_children":[2,4,6,8,10,12,-1,-1,-1,-1,-1,-1,-1],"split_conditions":[2.3947369E-1,1.4210527E-1,2E-1,1.4736842E-1,6.666667E-1,2.6666668E-1,-2.2167979E-2,-3.1435657E-3,1.2181494E-2,-1.3752274E-2,1.6518614E-3,5.4089124E-3,4.0005725E-2],"split_indices":[6,1,1,6,4,0,0,0,0,0,0,0,0],"split_type":[0,0,0,0,0,0,0,0,0,0,0,0,0],"sum_hessian":[1.01274574E2,9.158807E1,9.686497E0,3.1626308E1,5.9961765E1,7.785222E0,1.9012749E0,1.4513976E1,1.7112331E1,4.4458584E1,1.55031805E1,1.4504696E0,6.3347526E0],"tree_param":{"num_deleted":"0","num_feature":"10","num_nodes":"13","size_leaf_vector":"1"}},{"base_weights":[5.8912486E-2,1.8547948E-1,-2.7333233E-1,2.487897E-1,-3.0500972E-1,2.116953E-1,-3.805255E-1,4.2022574E-3,1.6828535E-2,1.1303012E-3,-2.4421718E-2,2.2843832E-2,3.2363392E-3,-7.906724E-3,-2.2869397E-2],"categories":[],"categories_nodes":[],"categories_segments":[],"categories_sizes":[],"default_left":[0,0,0,0,0,0,0,0,0,0,0,0,0,0,0],"id":69,"left_children":[1,3,5,7,9,11,13,-1,-1,-1,-1,-1,-1,-1,-1],"loss_changes":[4.9449363E0,2.7115617E0,1.7708406E0,1.0667977E0,6.2112397E-1,2.0562294E-1,3.8891673E-1,0E0,0E0,0E0,0E0,0E0,0E0,0E0,0E0],"parents":[2147483647,0,0,1,1,2,2,3,3,4,4,5,5,6,6],"right_children":[2,4,6,8,10,12,14,-1,-1,-1,-1,-1,-1,-1,-1],"split_conditions":[1.7631578E-1,2.263158E-1,2.6666668E-1,1.631579E-1,4.6666667E-1,1.2894736E-1,3.6363637E-1,4.2022574E-3,1.6828535E-2,1.1303012E-3,-2.4421718E-2,2.2843832E-2,3.2363392E-3,-7.906724E-3,-2.2869397E-2],"split_indices":[2,6,5,7,0,1,4,0,0,0,0,0,0,0,0],"split_type":[0,0,0,0,0,0,0,0,0,0,0,0,0,0,0],"sum_hessian":[1.15387535E2,8.387682E1,3.1510714E1,7.472449E1,9.152341E0,5.5270443E0,2.598367E1,2.665558E1,4.8068905E1,3.5996826E0,5.552658E0,1.281126E0,4.2459183E0,7.4591107E0,1.8524559E1],"tree_param":{"num_deleted":"0","num_feature":"10","num_nodes":"15","size_leaf_vector":"1"}},{"base_weights":[-7.7128716E-2,-1.4695176E-1,7.126435E-2,1.5299664E-1,-2.1595438E-1,1.7206144E-1,-3.5711324E-1,1.4428367E-2,-2.1391822E-2,-1.805959E-2,-8.966754E-5,-2.9921455E-3,1.4834769E-2,-2.3680296E-2,-1.4107749E-3],"categories":[],"categories_nodes":[],"categories_segments":[],"categories_sizes":[],"default_left":[0,0,0,0,0,0,0,0,0,0,0,0,0,0,0],"id":70,"left_children":[1,3,5,7,9,11,13,-1,-1,-1,-1,-1,-1,-1,-1],"loss_changes":[9.057475E-1,1.255938E0,1.2843212E0,1.0396956E0,1.5063338E0,6.999048E-1,2.0578307E-1,0E0,0E0,0E0,0E0,0E0,0E0,0E0,0E0],"parents":[2147483647,0,0,1,1,2,2,3,3,4,4,5,5,6,6],"right_children":[2,4,6,8,10,12,14,-1,-1,-1,-1,-1,-1,-1,-1],"split_conditions":[1.7631578E-1,3.3333334E-1,8.666667E-1,5.3333336E-1,6E-1,1.2894736E-1,1.4210527E-1,1.4428367E-2,-2.1391822E-2,-1.805959E-2,-8.966754E-5,-2.9921455E-3,1.4834769E-2,-2.3680296E-2,-1.4107749E-3],"split_indices":[2,4,5,0,4,1,1,0,0,0,0,0,0,0,0],"split_type":[0,0,0,0,0,0,0,0,0,0,0,0,0,0,0],"sum_hessian":[8.540604E1,5.80851E1,2.7320936E1,1.0635639E1,4.744946E1,2.260122E1,4.7197165E0,9.030936E0,1.604703E0,2.7865435E1,1.9584026E1,8.082358E0,1.4518861E1,3.1603644E0,1.5593522E0],"tree_param":{"num_deleted":"0","num_feature":"10","num_nodes":"15","size_leaf_vector":"1"}},{"base_weights":[-7.678217E-3,6.4402856E-2,-4.9938032E-1,-7.950407E-2,2.4880724E-1,6.787732E-3,-2.8394727E-2,7.6266597E-3,-1.0040386E-2,2.6850328E-2,7.2048693E-3],"categories":[],"categories_nodes":[],"categories_segments":[],"categories_sizes":[],"default_left":[0,0,0,0,0,0,0,0,0,0,0],"id":71,"left_children":[1,3,5,7,9,-1,-1,-1,-1,-1,-1],"loss_changes":[3.6466253E0,2.4035664E0,6.4944816E-1,1.4721004E0,1.1181295E0,0E0,0E0,0E0,0E0,0E0,0E0],"parents":[2147483647,0,0,1,1,2,2,3,3,4,4],"right_children":[2,4,6,8,10,-1,-1,-1,-1,-1,-1],"split_conditions":[2.263158E-1,1.5789473E-1,4E-1,1.368421E-1,1.3157895E-1,6.787732E-3,-2.8394727E-2,7.6266597E-3,-1.0040386E-2,2.6850328E-2,7.2048693E-3],"split_indices":[1,6,4,1,1,0,0,0,0,0,0],"split_type":[0,0,0,0,0,0,0,0,0,0,0],"sum_hessian":[1.0098129E2,8.88285E1,1.2152795E1,5.0212296E1,3.8616203E1,1.0877559E0,1.1065039E1,1.7149738E1,3.3062557E1,9.190928E0,2.9425276E1],"tree_param":{"num_deleted":"0","num_feature":"10","num_nodes":"11","size_leaf_vector":"1"}},{"base_weights":[6.0634132E-2,1.3820167E-1,-4.2096928E-1,-3.028463E-1,2.2717765E-1,-2.3666604E-1,-2.9054046E-2,-2.2504412E-2,3.499562E-3,3.1761438E-2,8.546042E-3,-2.5464067E-2,-3.8411971E-3],"categories":[],"categories_nodes":[],"categories_segments":[],"categories_sizes":[],"default_left":[0,0,0,0,0,0,0,0,0,0,0,0,0],"id":72,"left_children":[1,3,5,7,9,11,-1,-1,-1,-1,-1,-1,-1],"loss_changes":[4.174814E0,3.8229156E0,3.208623E-1,9.366442E-1,1.7319236E0,3.4906414E-1,0E0,0E0,0E0,0E0,0E0,0E0,0E0],"parents":[2147483647,0,0,1,1,2,2,3,3,4,4,5,5],"right_children":[2,4,6,8,10,12,-1,-1,-1,-1,-1,-1,-1],"split_conditions":[2.263158E-1,1.3157895E-1,1.6578947E-1,4.6666667E-1,2E-1,3.3333334E-1,-2.9054046E-2,-2.2504412E-2,3.499562E-3,3.1761438E-2,8.546042E-3,-2.5464067E-2,-3.8411971E-3],"split_indices":[6,1,2,0,5,4,0,0,0,0,0,0,0],"split_type":[0,0,0,0,0,0,0,0,0,0,0,0,0],"sum_hessian":[1.0919778E2,9.4664116E1,1.4533661E1,1.5487907E1,7.917621E1,7.908445E0,6.625216E0,1.0954523E1,4.5333843E0,8.346248E0,7.0829956E1,2.1150365E0,5.7934084E0],"tree_param":{"num_deleted":"0","num_feature":"10","num_nodes":"13","size_leaf_vector":"1"}},{"base_weights":[-6.1382513E-2,1.6454628E-2,-1.8553777E-1,1.4240827E-1,-1.1779223E-1,1.1800724E-2,-5.024383E-1,1.0878901E-2,-1.5287736E-2,-1.046337E-2,1.1499515E-2,-1.1631132E-2,4.589328E-3,-2.846246E-2,1.0815915E-5],"categories":[],"categories_nodes":[],"categories_segments":[],"categories_sizes":[],"default_left":[0,0,0,0,0,0,0,0,0,0,0,0,0,0,0],"id":73,"left_children":[1,3,5,7,9,11,13,-1,-1,-1,-1,-1,-1,-1,-1],"loss_changes":[8.7473404E-1,9.697613E-1,2.1846867E0,1.061372E0,9.334728E-1,4.6020067E-1,4.498849E-1,0E0,0E0,0E0,0E0,0E0,0E0,0E0,0E0],"parents":[2147483647,0,0,1,1,2,2,3,3,4,4,5,5,6,6],"right_children":[2,4,6,8,10,12,14,-1,-1,-1,-1,-1,-1,-1,-1],"split_conditions":[1.7105263E-1,6.666667E-1,4.6666667E-1,8.75E-1,1.6578947E-1,1.2894736E-1,8E-1,1.0878901E-2,-1.5287736E-2,-1.046337E-2,1.1499515E-2,-1.1631132E-2,4.589328E-3,-2.846246E-2,1.0815915E-5],"split_indices":[7,5,0,4,7,1,4,0,0,0,0,0,0,0,0],"split_type":[0,0,0,0,0,0,0,0,0,0,0,0,0,0,0],"sum_hessian":[8.919981E1,5.5360134E1,3.3839676E1,2.8530931E1,2.6829205E1,2.1447052E1,1.2392624E1,2.4873453E1,3.657477E0,2.1557377E1,5.2718277E0,4.8174458E0,1.6629606E1,1.08217535E1,1.5708702E0],"tree_param":{"num_deleted":"0","num_feature":"10","num_nodes":"15","size_leaf_vector":"1"}},{"base_weights":[3.569085E-3,1.2987451E-1,-4.021317E-1,4.6213716E-2,3.4528162E-2,-5.3744966E-1,-1.2803146E-1,1.197165E-2,-2.5203251E-3,-1.1180486E-2,-2.9063603E-2,-2.4680365E-2,1.2832358E-2],"categories":[],"categories_nodes":[],"categories_segments":[],"categories_sizes":[],"default_left":[0,0,0,0,0,0,0,0,0,0,0,0,0],"id":74,"left_children":[1,3,5,7,-1,9,11,-1,-1,-1,-1,-1,-1],"loss_changes":[5.0434446E0,3.4878113E0,7.9797053E-1,1.2510206E0,0E0,8.089638E-2,1.3974854E0,0E0,0E0,0E0,0E0,0E0,0E0],"parents":[2147483647,0,0,1,1,2,2,3,3,5,5,6,6],"right_children":[2,4,6,8,-1,10,12,-1,-1,-1,-1,-1,-1],"split_conditions":[2E-1,2.3947369E-1,6.666667E-1,1.3157895E-1,3.4528162E-2,2E-1,1.4736842E-1,1.197165E-2,-2.5203251E-3,-1.1180486E-2,-2.9063603E-2,-2.4680365E-2,1.2832358E-2],"split_indices":[1,6,4,1,0,4,6,0,0,0,0,0,0],"split_type":[0,0,0,0,0,0,0,0,0,0,0,0,0],"sum_hessian":[9.640442E1,7.403518E1,2.2369242E1,6.536451E1,8.670667E0,1.4332693E1,8.036549E0,2.129703E1,4.4067482E1,2.50383E0,1.1828863E1,3.9753978E0,4.061151E0],"tree_param":{"num_deleted":"0","num_feature":"10","num_nodes":"13","size_leaf_vector":"1"}},{"base_weights":[3.821218E-2,-3.1037349E-1,1.12717375E-1,6.6686824E-2,-4.3125826E-1,2.2156203E-1,-1.0174628E-1,1.9331235E-2,-6.196819E-3,-2.9152144E-2,-1.6233945E-2,7.1965917E-3,2.2020884E-2,3.3790413E-3,-2.115167E-2],"categories":[],"categories_nodes":[],"categories_segments":[],"categories_sizes":[],"default_left":[0,0,0,0,0,0,0,0,0,0,0,0,0,0,0],"id":75,"left_children":[1,3,5,7,9,11,13,-1,-1,-1,-1,-1,-1,-1,-1],"loss_changes":[2.9200945E0,9.3256736E-1,2.176168E0,3.9431608E-1,5.5763245E-2,9.817202E-1,1.7556087E0,0E0,0E0,0E0,0E0,0E0,0E0,0E0,0E0],"parents":[2147483647,0,0,1,1,2,2,3,3,4,4,5,5,6,6],"right_children":[2,4,6,8,10,12,14,-1,-1,-1,-1,-1,-1,-1,-1],"split_conditions":[1.3157895E-1,1.368421E-1,1.9473684E-1,2.6666668E-1,3.3333334E-1,2.263158E-1,1.6578947E-1,1.9331235E-2,-6.196819E-3,-2.9152144E-2,-1.6233945E-2,7.1965917E-3,2.2020884E-2,3.3790413E-3,-2.115167E-2],"split_indices":[1,6,6,5,5,1,2,0,0,0,0,0,0,0,0],"split_type":[0,0,0,0,0,0,0,0,0,0,0,0,0,0,0],"sum_hessian":[1.1008779E2,1.8828684E1,9.125911E1,4.679832E0,1.4148852E1,6.0513954E1,3.0745157E1,1.3633687E0,3.316463E0,3.9924774E0,1.0156374E1,4.5892944E1,1.4621011E1,2.0651112E1,1.0094046E1],"tree_param":{"num_deleted":"0","num_feature":"10","num_nodes":"15","size_leaf_vector":"1"}},{"base_weights":[-7.039015E-2,-1.4806467E-1,1.4975954E-2,-6.504806E-2,-4.0130565E-1,-9.1836266E-2,2.2845846E-1,8.580409E-3,-9.97555E-3,1.2758823E-2,-2.785477E-2,-2.2804013E-2,1.7956538E-3,1.995314E-2,-1.4787577E-2],"categories":[],"categories_nodes":[],"categories_segments":[],"categories_sizes":[],"default_left":[0,0,0,0,0,0,0,0,0,0,0,0,0,0,0],"id":76,"left_children":[1,3,5,7,9,11,13,-1,-1,-1,-1,-1,-1,-1,-1],"loss_changes":[6.328561E-1,1.022727E0,1.0748845E0,1.2678235E0,1.3820561E0,1.4830151E0,1.5220942E0,0E0,0E0,0E0,0E0,0E0,0E0,0E0,0E0],"parents":[2147483647,0,0,1,1,2,2,3,3,4,4,5,5,6,6],"right_children":[2,4,6,8,10,12,14,-1,-1,-1,-1,-1,-1,-1,-1],"split_conditions":[1.6578947E-1,1.7631578E-1,1.4473684E-1,1.5263158E-1,6.666667E-2,1.6052632E-1,7.5E-1,8.580409E-3,-9.97555E-3,1.2758823E-2,-2.785477E-2,-2.2804013E-2,1.7956538E-3,1.995314E-2,-1.4787577E-2],"split_indices":[2,7,1,2,5,7,4,0,0,0,0,0,0,0,0],"split_type":[0,0,0,0,0,0,0,0,0,0,0,0,0,0,0],"sum_hessian":[9.4107895E1,4.8889202E1,4.5218697E1,3.7765804E1,1.1123398E1,3.0518913E1,1.4699783E1,1.35831175E1,2.4182686E1,2.0110564E0,9.112341E0,7.2570906E0,2.3261824E1,1.1270522E1,3.4292605E0],"tree_param":{"num_deleted":"0","num_feature":"10","num_nodes":"15","size_leaf_vector":"1"}},{"base_weights":[6.7244302E-3,1.3187973E-1,-2.2163412E-1,6.653137E-2,6.062982E-1,-3.29174E-1,-6.9934994E-2,6.589492E-3,-1.3585718E-2,9.479934E-3,3.5089813E-2,-5.9102713E-3,-2.2382725E-2,1.7727487E-2,-1.0665457E-2],"categories":[],"categories_nodes":[],"categories_segments":[],"categories_sizes":[],"default_left":[0,0,0,0,0,0,0,0,0,0,0,0,0,0,0],"id":77,"left_children":[1,3,5,7,9,11,13,-1,-1,-1,-1,-1,-1,-1,-1],"loss_changes":[3.007736E0,2.0661798E0,5.849694E-1,1.3788399E0,1.8938708E-1,4.8546052E-1,1.0938128E0,0E0,0E0,0E0,0E0,0E0,0E0,0E0,0E0],"parents":[2147483647,0,0,1,1,2,2,3,3,4,4,5,5,6,6],"right_children":[2,4,6,8,10,12,14,-1,-1,-1,-1,-1,-1,-1,-1],"split_conditions":[1.5789473E-1,2.3947369E-1,1.5789473E-1,6E-1,2.6666668E-1,1.368421E-1,4E-1,6.589492E-3,-1.3585718E-2,9.479934E-3,3.5089813E-2,-5.9102713E-3,-2.2382725E-2,1.7727487E-2,-1.0665457E-2],"split_indices":[1,6,6,4,0,6,5,0,0,0,0,0,0,0,0],"split_type":[0,0,0,0,0,0,0,0,0,0,0,0,0,0,0],"sum_hessian":[1.0321544E2,6.6946754E1,3.6268677E1,5.9843857E1,7.1029024E0,2.0538773E1,1.5729904E1,5.0677006E1,9.166849E0,1.8809341E0,5.221968E0,8.104832E0,1.2433942E1,3.599637E0,1.2130267E1],"tree_param":{"num_deleted":"0","num_feature":"10","num_nodes":"15","size_leaf_vector":"1"}},{"base_weights":[7.109532E-2,-1.09407995E-2,3.9423752E-1,-3.4623116E-1,5.688779E-2,3.1038905E-2,1.2619121E-1,1.9217542E-3,-2.945059E-2,5.789299E-3,-1.3270604E-2,1.9357808E-2,-8.850635E-3],"categories":[],"categories_nodes":[],"categories_segments":[],"categories_sizes":[],"default_left":[0,0,0,0,0,0,0,0,0,0,0,0,0],"id":78,"left_children":[1,3,5,7,9,-1,11,-1,-1,-1,-1,-1,-1],"loss_changes":[2.8724535E0,2.004204E0,1.2535012E0,1.4070044E0,1.4247799E0,0E0,9.627518E-1,0E0,0E0,0E0,0E0,0E0,0E0],"parents":[2147483647,0,0,1,1,2,2,3,3,4,4,6,6],"right_children":[2,4,6,8,10,-1,12,-1,-1,-1,-1,-1,-1],"split_conditions":[2.236842E-1,1.5263158E-1,1.5E-1,1.631579E-1,2.0526315E-1,3.1038905E-2,8.666667E-1,1.9217542E-3,-2.945059E-2,5.789299E-3,-1.3270604E-2,1.9357808E-2,-8.850635E-3],"split_indices":[1,7,6,2,2,0,0,0,0,0,0,0,0],"split_type":[0,0,0,0,0,0,0,0,0,0,0,0,0],"sum_hessian":[1.071936E2,8.6260735E1,2.093287E1,1.38235655E1,7.243717E1,1.0631595E1,1.0301277E1,5.6744866E0,8.149078E0,6.178679E1,1.065038E1,5.3874564E0,4.9138203E0],"tree_param":{"num_deleted":"0","num_feature":"10","num_nodes":"13","size_leaf_vector":"1"}},{"base_weights":[-5.8259927E-2,-3.6729418E-2,-3.647083E-1,-5.3946573E-2,2.4380414E-1,2.237328E-3,-2.5165725E-2,1.5766745E-3,-6.8679615E-3,-2.0420015E-2,3.181054E-2],"categories":[],"categories_nodes":[],"categories_segments":[],"categories_sizes":[],"default_left":[0,0,0,0,0,0,0,0,0,0,0],"id":79,"left_children":[1,3,5,7,9,-1,-1,-1,-1,-1,-1],"loss_changes":[5.80747E-1,4.2490742E-1,3.5165328E-1,5.828621E-1,1.5677971E0,0E0,0E0,0E0,0E0,0E0,0E0],"parents":[2147483647,0,0,1,1,2,2,3,3,4,4],"right_children":[2,4,6,8,10,-1,-1,-1,-1,-1,-1],"split_conditions":[8.75E-1,8E-1,1.5789473E-1,1.631579E-1,4.6666667E-1,2.237328E-3,-2.5165725E-2,1.5766745E-3,-6.8679615E-3,-2.0420015E-2,3.181054E-2],"split_indices":[4,4,1,7,0,0,0,0,0,0,0],"split_type":[0,0,0,0,0,0,0,0,0,0,0],"sum_hessian":[8.904903E1,8.424966E1,4.7993727E0,8.013899E1,4.1106615E0,1.3850327E0,3.41434E0,3.988618E1,4.0252815E1,1.5288537E0,2.581808E0],"tree_param":{"num_deleted":"0","num_feature":"10","num_nodes":"11","size_leaf_vector":"1"}},{"base_weights":[4.4769816E-2,-1.4482862E-1,2.0414603E-1,-3.511104E-1,4.430935E-2,5.713822E-1,7.3182054E-2,1.20073175E-2,-2.3429202E-2,-2.0820871E-2,9.009416E-3,3.392818E-2,5.57252E-3,9.2905E-4,3.4379676E-2],"categories":[],"categories_nodes":[],"categories_segments":[],"categories_sizes":[],"default_left":[0,0,0,0,0,0,0,0,0,0,0,0,0,0,0],"id":80,"left_children":[1,3,5,7,9,11,13,-1,-1,-1,-1,-1,-1,-1,-1],"loss_changes":[3.0839527E0,1.8394692E0,2.6193612E0,1.673418E0,1.6573522E0,6.341615E-1,1.3939896E0,0E0,0E0,0E0,0E0,0E0,0E0,0E0,0E0],"parents":[2147483647,0,0,1,1,2,2,3,3,4,4,5,5,6,6],"right_children":[2,4,6,8,10,12,14,-1,-1,-1,-1,-1,-1,-1,-1],"split_conditions":[1.5E-1,3.3333334E-1,1.3157895E-1,2E-1,3.6363637E-1,4.6666667E-1,8E-1,1.20073175E-2,-2.3429202E-2,-2.0820871E-2,9.009416E-3,3.392818E-2,5.57252E-3,9.2905E-4,3.4379676E-2],"split_indices":[6,5,1,0,4,0,4,0,0,0,0,0,0,0,0],"split_type":[0,0,0,0,0,0,0,0,0,0,0,0,0,0,0],"sum_hessian":[1.0008012E2,4.5748127E1,5.4331985E1,2.1472715E1,2.4275412E1,1.33984585E1,4.093353E1,3.3860626E0,1.8086653E1,5.058583E0,1.921683E1,1.0480706E1,2.9177525E0,3.853892E1,2.3946056E0],"tree_param":{"num_deleted":"0","num_feature":"10","num_nodes":"15","size_leaf_vector":"1"}},{"base_weights":[3.6451645E-2,-2.608349E-1,1.5808442E-1,1.4122552E-2,-2.9718545E-1,5.912682E-1,1.0329398E-1,-8.734234E-3,-2.0033903E-2,3.520651E-2,1.4466886E-2,9.655877E-3,-1.0081193E-2],"categories":[],"categories_nodes":[],"categories_segments":[],"categories_sizes":[],"default_left":[0,0,0,0,0,0,0,0,0,0,0,0,0],"id":81,"left_children":[1,3,5,-1,7,9,11,-1,-1,-1,-1,-1,-1],"loss_changes":[3.8483365E0,6.9510245E-1,1.7270374E0,0E0,3.0392313E-1,7.731271E-2,1.9038736E0,0E0,0E0,0E0,0E0,0E0,0E0],"parents":[2147483647,0,0,1,1,2,2,4,4,5,5,6,6],"right_children":[2,4,6,-1,8,10,12,-1,-1,-1,-1,-1,-1],"split_conditions":[1.4210527E-1,6.666667E-2,2E-1,1.4122552E-2,1.9473684E-1,2E-1,1.7105263E-1,-8.734234E-3,-2.0033903E-2,3.520651E-2,1.4466886E-2,9.655877E-3,-1.0081193E-2],"split_indices":[1,5,5,0,2,1,2,0,0,0,0,0,0],"split_type":[0,0,0,0,0,0,0,0,0,0,0,0,0],"sum_hessian":[1.0428553E2,2.9946901E1,7.433863E1,1.4534715E0,2.8493431E1,7.24745E0,6.709118E1,1.4279343E1,1.42140875E1,4.3058305E0,2.9416196E0,5.2107777E1,1.4983402E1],"tree_param":{"num_deleted":"0","num_feature":"10","num_nodes":"13","size_leaf_vector":"1"}},{"base_weights":[-2.9311547E-2,6.3746297E-3,-4.1467988E-1,1.7468785E-1,-5.2154556E-2,-2.5869926E-2,2.1959709E-3,3.360676E-2,1.0518496E-3,-1.0757214E-2,3.2016027E-3],"categories":[],"categories_nodes":[],"categories_segments":[],"categories_sizes":[],"default_left":[0,0,0,0,0,0,0,0,0,0,0],"id":82,"left_children":[1,3,5,7,9,-1,-1,-1,-1,-1,-1],"loss_changes":[1.1638215E0,7.801046E-1,3.605435E-1,1.5468762E0,1.1280499E0,0E0,0E0,0E0,0E0,0E0,0E0],"parents":[2147483647,0,0,1,1,2,2,3,3,4,4],"right_children":[2,4,6,8,10,-1,-1,-1,-1,-1,-1],"split_conditions":[2.3947369E-1,5E-1,1.9473684E-1,1.5263158E-1,1.631579E-1,-2.5869926E-2,2.1959709E-3,3.360676E-2,1.0518496E-3,-1.0757214E-2,3.2016027E-3],"split_indices":[6,4,1,7,2,0,0,0,0,0,0],"split_type":[0,0,0,0,0,0,0,0,0,0,0],"sum_hessian":[8.343504E1,7.726367E1,6.171372E0,1.942327E1,5.78404E1,4.937287E0,1.2340854E0,3.7873209E0,1.5635949E1,2.371735E1,3.4123055E1],"tree_param":{"num_deleted":"0","num_feature":"10","num_nodes":"11","size_leaf_vector":"1"}},