{"learner":{"attributes":{"best_iteration":"73","best_score":"0.8030428214428517"},"feature_names":[],"feature_types":[],"gradient_booster":{"model":{"cats":{"enc":[],"feature_segments":[],"sorted_idx":[]},"gbtree_model_param":{"num_parallel_tree":"1","num_trees":"282"},"iteration_indptr":[0,3,6,9,12,15,18,21,24,27,30,33,36,39,42,45,48,51,54,57,60,63,66,69,72,75,78,81,84,87,90,93,96,99,102,105,108,111,114,117,120,123,126,129,132,135,138,141,144,147,150,153,156,159,162,165,168,171,174,177,180,183,186,189,192,195,198,201,204,207,210,213,216,219,222,225,228,231,234,237,240,243,246,249,252,255,258,261,264,267,270,273,276,279,282],"tree_info":[0,1,2,0,1,2,0,1,2,0,1,2,0,1,2,0,1,2,0,1,2,0,1,2,0,1,2,0,1,2,0,1,2,0,1,2,0,1,2,0,1,2,0,1,2,0,1,2,0,1,2,0,1,2,0,1,2,0,1,2,0,1,2,0,1,2,0,1,2,0,1,2,0,1,2,0,1,2,0,1,2,0,1,2,0,1,2,0,1,2,0,1,2,0,1,2,0,1,2,0,1,2,0,1,2,0,1,2,0,1,2,0,1,2,0,1,2,0,1,2,0,1,2,0,1,2,0,1,2,0,1,2,0,1,2,0,1,2,0,1,2,0,1,2,0,1,2,0,1,2,0,1,2,0,1,2,0,1,2,0,1,2,0,1,2,0,1,2,0,1,2,0,1,2,0,1,2,0,1,2,0,1,2,0,1,2,0,1,2,0,1,2,0,1,2,0,1,2,0,1,2,0,1,2,0,1,2,0,1,2,0,1,2,0,1,2,0,1,2,0,1,2,0,1,2,0,1,2,0,1,2,0,1,2,0,1,2,0,1,2,0,1,2,0,1,2,0,1,2,0,1,2,0,1,2,0,1,2,0,1,2,0,1,2,0,1,2,0,1,2,0,1,2,0,1,2,0,1,2,0,1,2],"trees":[{"base_weights":[-5.4660603E-2,-3.1119537E-1,5.9702563E-1,-5.469144E-1,6.0343105E-2,9.801718E-1,-1.2949224E-1,-4.1702814E-2,-1.85963E-2,2.3225753E-2,-1.3082298E-2,2.034406E-2,5.1728893E-2,2.5409112E-2,-2.2662725E-2],"categories":[],"categories_nodes":[],"categories_segments":[],"categories_sizes":[],"default_left":[0,0,0,0,0,0,0,0,0,0,0,0,0,0,0],"id":0,"left_children":[1,3,5,7,9,11,13,-1,-1,-1,-1,-1,-1,-1,-1],"loss_changes":[1.3743072E1,5.186618E0,6.5983763E0,1.5038338E0,3.2113876E0,5.744171E-2,2.0699527E0,0E0,0E0,0E0,0E0,0E0,0E0,0E0,0E0],"parents":[2147483647,0,0,1,1,2,2,3,3,4,4,5,5,6,6],"right_children":[2,4,6,8,10,12,14,-1,-1,-1,-1,-1,-1,-1,-1],"split_conditions":[1.7142858E-1,4.6666667E-1,1.4285715E-1,1E-1,1.3333334E-1,1.2E-1,2E-1,-4.1702814E-2,-1.85963E-2,2.3225753E-2,-1.3082298E-2,2.034406E-2,5.1728893E-2,2.5409112E-2,-2.2662725E-2],"split_indices":[7,0,2,1,6,1,5,0,0,0,0,0,0,0,0],"split_type":[0,0,0,0,0,0,0,0,0,0,0,0,0,0,0],"sum_hessian":[8.009383E1,5.7845543E1,2.2248285E1,3.510285E1,2.2742691E1,1.4337784E1,7.9105015E0,1.1865752E1,2.3237099E1,9.888126E0,1.2854565E1,1.9776254E0,1.2360159E1,2.4720316E0,5.43847E0],"tree_param":{"num_deleted":"0","num_feature":"10","num_nodes":"15","size_leaf_vector":"1"}},{"base_weights":[-2.8438915E-2,6.9424015E-1,-1.3714568E-1,-1.852104E-2,9.172742E-1,-2.1376894E-1,2.948627E-1,6.140061E-2,1.4854193E-2,-1.5834894E-2,1.266366E-2,3.2499965E-2,-2.40317E-2],"categories":[],"categories_nodes":[],"categories_segments":[],"categories_sizes":[],"default_left":[0,0,0,0,0,0,0,0,0,0,0,0,0],"id":1,"left_children":[1,3,5,-1,7,9,11,-1,-1,-1,-1,-1,-1],"loss_changes":[5.088895E0,2.3525305E0,1.9196773E0,0E0,1.0412111E0,2.3981993E0,2.7552266E0,0E0,0E0,0E0,0E0,0E0,0E0],"parents":[2147483647,0,0,1,1,2,2,4,4,5,5,6,6],"right_children":[2,4,6,-1,8,10,12,-1,-1,-1,-1,-1,-1],"split_conditions":[5E-1,8.3333336E-2,8E-1,-1.852104E-2,1.5E-1,1.8333334E-1,5.3333336E-1,6.140061E-2,1.4854193E-2,-1.5834894E-2,1.266366E-2,3.2499965E-2,-2.40317E-2],"split_indices":[4,1,4,0,1,6,0,0,0,0,0,0,0],"split_type":[0,0,0,0,0,0,0,0,0,0,0,0,0],"sum_hessian":[6.2565117E1,7.4763346E0,5.5088783E1,1.1804739E0,6.295861E0,4.7218956E1,7.869826E0,3.5414217E0,2.754439E0,3.895564E1,8.263317E0,5.508878E0,2.3609478E0],"tree_param":{"num_deleted":"0","num_feature":"10","num_nodes":"13","size_leaf_vector":"1"}},{"base_weights":[-2.6492273E-2,-4.1327643E-1,4.360329E-1,-4.862466E-1,4.8419937E-2,1.0050913E0,1.0046138E-1,2.5888955E-2,-2.6791012E-2,9.59335E-3,5.7914175E-2,1.237176E-2,-2.6689872E-2],"categories":[],"categories_nodes":[],"categories_segments":[],"categories_sizes":[],"default_left":[0,0,0,0,0,0,0,0,0,0,0,0,0],"id":2,"left_children":[1,3,5,7,-1,9,11,-1,-1,-1,-1,-1,-1],"loss_changes":[1.2354915E1,4.259231E0,5.9102817E0,2.0869846E0,0E0,1.2186651E0,2.081583E0,0E0,0E0,0E0,0E0,0E0,0E0],"parents":[2147483647,0,0,1,1,2,2,3,3,5,5,6,6],"right_children":[2,4,6,8,-1,10,12,-1,-1,-1,-1,-1,-1],"split_conditions":[4.6666667E-1,2.125E-1,3.3333334E-1,2E-2,4.8419937E-2,8E-2,7.3333335E-1,2.5888955E-2,-2.6791012E-2,9.59335E-3,5.7914175E-2,1.237176E-2,-2.6689872E-2],"split_indices":[5,6,0,1,0,7,0,0,0,0,0,0,0],"split_type":[0,0,0,0,0,0,0,0,0,0,0,0,0],"sum_hessian":[6.705416E1,3.6574997E1,3.0479164E1,3.535583E1,1.2191665E0,1.056611E1,1.9913054E1,1.2191665E0,3.413666E1,2.0319443E0,8.534165E0,1.6661943E1,3.2511108E0],"tree_param":{"num_deleted":"0","num_feature":"10","num_nodes":"13","size_leaf_vector":"1"}},{"base_weights":[1.3768223E-2,-2.9881775E-1,5.8056766E-1,-5.248671E-1,7.4186526E-2,9.234875E-1,1.873309E-2,-4.1090656E-2,-1.4943242E-2,-3.360763E-2,1.116981E-2,5.0911795E-2,3.0507913E-3,2.0867964E-2,-2.2294087E-2],"categories":[],"categories_nodes":[],"categories_segments":[],"categories_sizes":[],"default_left":[0,0,0,0,0,0,0,0,0,0,0,0,0,0,0],"id":3,"left_children":[1,3,5,7,9,11,13,-1,-1,-1,-1,-1,-1,-1,-1],"loss_changes":[1.5584258E1,4.8216825E0,6.005021E0,2.1329737E0,2.6313126E0,1.5223808E0,2.569373E0,0E0,0E0,0E0,0E0,0E0,0E0,0E0,0E0],"parents":[2147483647,0,0,1,1,2,2,3,3,4,4,5,5,6,6],"right_children":[2,4,6,8,10,12,14,-1,-1,-1,-1,-1,-1,-1,-1],"split_conditions":[1.6666667E-1,4.6666667E-1,1.4285715E-1,8.75E-2,5E-1,5.3333336E-1,1.4285715E-1,-4.1090656E-2,-1.4943242E-2,-3.360763E-2,1.116981E-2,5.0911795E-2,3.0507913E-3,2.0867964E-2,-2.2294087E-2],"split_indices":[7,0,2,1,4,5,6,0,0,0,0,0,0,0,0],"split_type":[0,0,0,0,0,0,0,0,0,0,0,0,0,0,0],"sum_hessian":[8.598123E1,5.5723118E1,3.0258118E1,3.444282E1,2.1280296E1,1.8389965E1,1.1868152E1,1.3745806E1,2.0697016E1,2.961629E0,1.8318668E1,1.6406946E1,1.9830184E0,6.4424357E0,5.4257154E0],"tree_param":{"num_deleted":"0","num_feature":"10","num_nodes":"15","size_leaf_vector":"1"}},{"base_weights":[1.2225189E-2,6.9234645E-1,-1.0776572E-1,-1.0530481E-1,1.1159761E0,1.6560432E-1,-3.9094186E-1,-2.0874582E-2,9.738662E-3,6.949316E-2,2.036967E-2,1.4718236E-4,3.8713563E-2,-2.5046801E-2,-6.8439315E-3],"categories":[],"categories_nodes":[],"categories_segments":[],"categories_sizes":[],"default_left":[0,0,0,0,0,0,0,0,0,0,0,0,0,0,0],"id":4,"left_children":[1,3,5,7,9,11,13,-1,-1,-1,-1,-1,-1,-1,-1],"loss_changes":[5.7770405E0,3.703999E0,4.7297196E0,5.1181555E-1,7.958412E-1,3.102973E0,7.669344E-1,0E0,0E0,0E0,0E0,0E0,0E0,0E0,0E0],"parents":[2147483647,0,0,1,1,2,2,3,3,4,4,5,5,6,6],"right_children":[2,4,6,8,10,12,14,-1,-1,-1,-1,-1,-1,-1,-1],"split_conditions":[5E-1,2.6666668E-1,1.4E-1,8.3333336E-2,1.5E-1,8E-1,1.4285715E-1,-2.0874582E-2,9.738662E-3,6.949316E-2,2.036967E-2,1.4718236E-4,3.8713563E-2,-2.5046801E-2,-6.8439315E-3],"split_indices":[4,0,1,1,1,4,2,0,0,0,0,0,0,0,0],"split_type":[0,0,0,0,0,0,0,0,0,0,0,0,0,0,0],"sum_hessian":[6.887554E1,9.613756E0,5.9261787E1,3.5954032E0,6.018353E0,3.036423E1,2.8897558E1,1.5703793E0,2.0250242E0,3.6471567E0,2.3711963E0,2.475383E1,5.610399E0,1.9488503E1,9.409056E0],"tree_param":{"num_deleted":"0","num_feature":"10","num_nodes":"15","size_leaf_vector":"1"}},{"base_weights":[-3.6458995E-2,-2.6092282E-1,6.2169623E-1,2.2633056E-1,-4.808664E-1,8.279014E-1,-2.4586746E-2,-2.9101744E-2,3.184714E-2,-1.4256093E-2,-3.0514305E-2,4.8189018E-2,-1.9791177E-2],"categories":[],"categories_nodes":[],"categories_segments":[],"categories_sizes":[],"default_left":[0,0,0,0,0,0,0,0,0,0,0,0,0],"id":5,"left_children":[1,3,5,7,9,11,-1,-1,-1,-1,-1,-1,-1],"loss_changes":[1.0375191E1,5.7088957E0,4.5115623E0,5.990744E0,7.461786E-1,2.9515057E0,0E0,0E0,0E0,0E0,0E0,0E0,0E0],"parents":[2147483647,0,0,1,1,2,2,3,3,4,4,5,5],"right_children":[2,4,6,8,10,12,-1,-1,-1,-1,-1,-1,-1],"split_conditions":[6E-1,3.3333334E-1,6.666667E-1,2.6666668E-1,5.3333336E-1,8E-1,-2.4586746E-2,-2.9101744E-2,3.184714E-2,-1.4256093E-2,-3.0514305E-2,4.8189018E-2,-1.9791177E-2],"split_indices":[5,0,0,5,0,4,0,0,0,0,0,0,0],"split_type":[0,0,0,0,0,0,0,0,0,0,0,0,0],"sum_hessian":[6.813177E1,5.1254852E1,1.6876911E1,1.5931614E1,3.532324E1,1.4456111E1,2.4208007E0,5.225931E0,1.0705683E1,1.5333988E1,1.998925E1,1.3202557E1,1.2535536E0],"tree_param":{"num_deleted":"0","num_feature":"10","num_nodes":"13","size_leaf_vector":"1"}},{"base_weights":[-6.992087E-3,-4.0140545E-1,4.671337E-1,1.832144E-1,-5.813378E-1,-3.1915113E-2,5.58572E-1,-3.3861186E-2,3.0660918E-2,-3.6076013E-2,-1.248305E-2,4.1308858E-2,1.5083774E-2],"categories":[],"categories_nodes":[],"categories_segments":[],"categories_sizes":[],"default_left":[0,0,0,0,0,0,0,0,0,0,0,0,0],"id":6,"left_children":[1,3,5,7,9,-1,11,-1,-1,-1,-1,-1,-1],"loss_changes":[1.615978E1,5.06774E0,4.3237877E0,4.803389E0,1.5078087E0,0E0,2.2795277E0,0E0,0E0,0E0,0E0,0E0,0E0],"parents":[2147483647,0,0,1,1,2,2,3,3,4,4,6,6],"right_children":[2,4,6,8,10,-1,12,-1,-1,-1,-1,-1,-1],"split_conditions":[1.5E-1,2.6666668E-1,5E-1,2E-1,1.2E-1,-3.1915113E-2,1.25E-1,-3.3861186E-2,3.0660918E-2,-3.6076013E-2,-1.248305E-2,4.1308858E-2,1.5083774E-2],"split_indices":[1,5,4,0,1,0,6,0,0,0,0,0,0],"split_type":[0,0,0,0,0,0,0,0,0,0,0,0,0],"sum_hessian":[8.44125E1,4.6163567E1,3.8248936E1,1.0860001E1,3.5303566E1,2.4652162E0,3.5783722E1,3.4272158E0,7.432785E0,2.398921E1,1.1314355E1,1.6441193E1,1.9342527E1],"tree_param":{"num_deleted":"0","num_feature":"10","num_nodes":"13","size_leaf_vector":"1"}},{"base_weights":[-4.6856765E-2,6.701185E-1,-1.804264E-1,9.3412316E-1,-2.1526342E-2,1.5149775E-3,-5.2885234E-1,4.838347E-3,6.281051E-2,1.6566083E-2,-1.0476087E-2,-1.0582503E-2,-3.1149372E-2],"categories":[],"categories_nodes":[],"categories_segments":[],"categories_sizes":[],"default_left":[0,0,0,0,0,0,0,0,0,0,0,0,0],"id":7,"left_children":[1,3,5,7,-1,9,11,-1,-1,-1,-1,-1,-1],"loss_changes":[6.0834618E0,3.3049269E0,3.3778732E0,2.136539E0,0E0,2.5746658E0,4.1391373E-1,0E0,0E0,0E0,0E0,0E0,0E0],"parents":[2147483647,0,0,1,1,2,2,3,3,5,5,6,6],"right_children":[2,4,6,8,-1,10,12,-1,-1,-1,-1,-1,-1],"split_conditions":[5E-1,1.8E-1,1.7142858E-1,2.6666668E-1,-2.1526342E-2,4.6666667E-1,4.6666667E-1,4.838347E-3,6.281051E-2,1.6566083E-2,-1.0476087E-2,-1.0582503E-2,-3.1149372E-2],"split_indices":[4,2,7,0,0,5,0,0,0,0,0,0,0],"split_type":[0,0,0,0,0,0,0,0,0,0,0,0,0],"sum_hessian":[6.1261616E1,8.989699E0,5.2271915E1,7.3725815E0,1.6171182E0,3.4994244E1,1.7277674E1,2.4093175E0,4.963264E0,1.3432327E1,2.1561916E1,4.6974106E0,1.2580263E1],"tree_param":{"num_deleted":"0","num_feature":"10","num_nodes":"13","size_leaf_vector":"1"}},{"base_weights":[2.6568985E-2,-3.8173145E-1,4.3546826E-1,6.086173E-1,-5.0592333E-1,1.1639951E-1,9.6632767E-1,5.6035947E-2,-1.9175475E-2,8.0382975E-4,-2.7876262E-2,1.4287153E-2,-2.7450562E-2,5.572433E-2,2.4088072E-2],"categories":[],"categories_nodes":[],"categories_segments":[],"categories_sizes":[],"default_left":[0,0,0,0,0,0,0,0,0,0,0,0,0,0,0],"id":8,"left_children":[1,3,5,7,9,11,13,-1,-1,-1,-1,-1,-1,-1,-1],"loss_changes":[1.1593968E1,4.585893E0,5.7593207E0,2.629581E0,8.5617447E-1,2.724842E0,3.875599E-1,0E0,0E0,0E0,0E0,0E0,0E0,0E0,0E0],"parents":[2147483647,0,0,1,1,2,2,3,3,4,4,5,5,6,6],"right_children":[2,4,6,8,10,12,14,-1,-1,-1,-1,-1,-1,-1,-1],"split_conditions":[4.6666667E-1,6E-2,1.75E-1,8E-1,5E-1,7.3333335E-1,1.25E-1,5.6035947E-2,-1.9175475E-2,8.0382975E-4,-2.7876262E-2,1.4287153E-2,-2.7450562E-2,5.572433E-2,2.4088072E-2],"split_indices":[5,7,2,4,4,0,1,0,0,0,0,0,0,0,0],"split_type":[0,0,0,0,0,0,0,0,0,0,0,0,0,0,0],"sum_hessian":[6.7448524E1,3.378222E1,3.3666306E1,3.3296697E0,3.0452549E1,2.1789293E1,1.1877011E1,2.1106253E0,1.2190444E0,2.8014796E0,2.765107E1,1.7823805E1,3.9654887E0,8.100324E0,3.7766874E0],"tree_param":{"num_deleted":"0","num_feature":"10","num_nodes":"15","size_leaf_vector":"1"}},{"base_weights":[-2.8062891E-2,-3.477409E-1,3.9177105E-1,2.2558536E-1,-4.9723306E-1,-3.0895693E-2,4.841887E-1,-9.307584E-3,4.039299E-2,-2.8402427E-2,-9.096756E-3,2.7061418E-2,-1.3910516E-2],"categories":[],"categories_nodes":[],"categories_segments":[],"categories_sizes":[],"default_left":[0,0,0,0,0,0,0,0,0,0,0,0,0],"id":9,"left_children":[1,3,5,7,9,-1,11,-1,-1,-1,-1,-1,-1],"loss_changes":[1.110854E1,4.1355314E0,3.6408024E0,2.6428933E0,7.349844E-1,0E0,1.6016774E0,0E0,0E0,0E0,0E0,0E0,0E0],"parents":[2147483647,0,0,1,1,2,2,3,3,4,4,6,6],"right_children":[2,4,6,8,10,-1,12,-1,-1,-1,-1,-1,-1],"split_conditions":[1.5E-1,2.6666668E-1,5E-1,1.6E-1,4.6666667E-1,-3.0895693E-2,7.3333335E-1,-9.307584E-3,4.039299E-2,-2.8402427E-2,-9.096756E-3,2.7061418E-2,-1.3910516E-2],"split_indices":[1,5,4,7,0,0,5,0,0,0,0,0,0],"split_type":[0,0,0,0,0,0,0,0,0,0,0,0,0],"sum_hessian":[8.075373E1,4.5942802E1,3.481093E1,9.396545E0,3.6546257E1,2.4422855E0,3.2368645E1,5.90284E0,3.4937048E0,2.9188852E1,7.3574033E0,3.0385426E1,1.9832183E0],"tree_param":{"num_deleted":"0","num_feature":"10","num_nodes":"13","size_leaf_vector":"1"}},{"base_weights":[6.9328956E-3,6.836777E-1,-1.1052611E-1,9.303651E-1,-2.1343496E-2,1.0590901E-1,-3.2589838E-1,1.3219948E-2,5.9845638E-2,-2.3885092E-3,3.8419366E-2,-3.0210271E-2,-8.7413015E-3],"categories":[],"categories_nodes":[],"categories_segments":[],"categories_sizes":[],"default_left":[0,0,0,0,0,0,0,0,0,0,0,0,0],"id":10,"left_children":[1,3,5,7,-1,9,11,-1,-1,-1,-1,-1,-1],"loss_changes":[5.672693E0,3.2882094E0,2.8714628E0,1.2721591E0,0E0,3.2039833E0,1.1872497E0,0E0,0E0,0E0,0E0,0E0,0E0],"parents":[2147483647,0,0,1,1,2,2,3,3,5,5,6,6],"right_children":[2,4,6,8,-1,10,12,-1,-1,-1,-1,-1,-1],"split_conditions":[5E-1,1.8E-1,1.4E-1,2.6666668E-1,-2.1343496E-2,8E-1,1.2E-1,1.3219948E-2,5.9845638E-2,-2.3885092E-3,3.8419366E-2,-3.0210271E-2,-8.7413015E-3],"split_indices":[4,2,1,0,0,4,6,0,0,0,0,0,0],"split_type":[0,0,0,0,0,0,0,0,0,0,0,0,0],"sum_hessian":[6.941319E1,9.552946E0,5.986025E1,7.949385E0,1.6035608E0,3.0109955E1,2.9750294E1,2.8416064E0,5.107779E0,2.5193544E1,4.916411E0,9.411988E0,2.0338306E1],"tree_param":{"num_deleted":"0","num_feature":"10","num_nodes":"13","size_leaf_vector":"1"}},{"base_weights":[5.3304777E-2,-4.0704197E-1,3.5094708E-1,3.73214E-1,-5.2825457E-1,5.7351243E-1,-2.3595186E-1,-1.9366046E-2,3.992664E-2,-1.0141891E-2,-3.189927E-2,3.51145E-2,-2.615954E-2,2.5296802E-2,-1.8084588E-2],"categories":[],"categories_nodes":[],"categories_segments":[],"categories_sizes":[],"default_left":[0,0,0,0,0,0,0,0,0,0,0,0,0,0,0],"id":11,"left_children":[1,3,5,7,9,11,13,-1,-1,-1,-1,-1,-1,-1,-1],"loss_changes":[9.724198E0,2.8378901E0,5.7528725E0,1.7132666E0,7.483454E-1,4.812333E0,1.3521417E0,0E0,0E0,0E0,0E0,0E0,0E0,0E0,0E0],"parents":[2147483647,0,0,1,1,2,2,3,3,4,4,5,5,6,6],"right_children":[2,4,6,8,10,12,14,-1,-1,-1,-1,-1,-1,-1,-1],"split_conditions":[4E-1,2E-1,5.3333336E-1,6E-2,1.14285715E-1,8E-1,1.2E-1,-1.9366046E-2,3.992664E-2,-1.0141891E-2,-3.189927E-2,3.51145E-2,-2.615954E-2,2.5296802E-2,-1.8084588E-2],"split_indices":[5,0,0,2,1,4,1,0,0,0,0,0,0,0,0],"split_type":[0,0,0,0,0,0,0,0,0,0,0,0,0,0,0],"sum_hessian":[6.892732E1,2.6921614E1,4.200571E1,3.340368E0,2.3581245E1,3.0472616E1,1.1533096E1,1.2301004E0,2.1102676E0,6.664769E0,1.6916475E1,2.7592297E1,2.8803196E0,1.2332181E0,1.0299878E1],"tree_param":{"num_deleted":"0","num_feature":"10","num_nodes":"15","size_leaf_vector":"1"}},{"base_weights":[3.9487416E-3,-4.2076382E-1,4.2858493E-1,3.519878E-2,-6.2515646E-1,-3.238752E-2,5.3206646E-1,-3.3739876E-2,1.7451566E-2,-2.318726E-2,-3.8865477E-2,1.501517E-2,3.824752E-2],"categories":[],"categories_nodes":[],"categories_segments":[],"categories_sizes":[],"default_left":[0,0,0,0,0,0,0,0,0,0,0,0,0],"id":12,"left_children":[1,3,5,7,9,-1,11,-1,-1,-1,-1,-1,-1],"loss_changes":[1.6123173E1,4.1879096E0,5.3233128E0,3.529348E0,3.9885616E-1,0E0,2.0009117E0,0E0,0E0,0E0,0E0,0E0,0E0],"parents":[2147483647,0,0,1,1,2,2,3,3,4,4,6,6],"right_children":[2,4,6,8,10,-1,12,-1,-1,-1,-1,-1,-1],"split_conditions":[1.3333334E-1,3.3333334E-1,5E-1,2E-1,1.6666667E-1,-3.238752E-2,6E-1,-3.3739876E-2,1.7451566E-2,-2.318726E-2,-3.8865477E-2,1.501517E-2,3.824752E-2],"split_indices":[1,5,4,0,6,0,0,0,0,0,0,0,0],"split_type":[0,0,0,0,0,0,0,0,0,0,0,0,0],"sum_hessian":[8.740026E1,4.370076E1,4.36995E1,1.3782442E1,2.991832E1,3.3715591E0,4.032794E1,3.872145E0,9.910297E0,1.648166E1,1.3436657E1,2.1360119E1,1.8967823E1],"tree_param":{"num_deleted":"0","num_feature":"10","num_nodes":"13","size_leaf_vector":"1"}},{"base_weights":[5.6482885E-2,2.5353822E-1,-2.3718873E-1,4.4175825E-1,-2.1439302E-1,-5.3677344E-1,1.8086936E-2,1.4278315E-2,5.1979076E-2,9.301656E-3,-2.328842E-2,5.458968E-3,-3.0606661E-2,-1.8239928E-2,2.301585E-2],"categories":[],"categories_nodes":[],"categories_segments":[],"categories_sizes":[],"default_left":[0,0,0,0,0,0,0,0,0,0,0,0,0,0,0],"id":13,"left_children":[1,3,5,7,9,11,13,-1,-1,-1,-1,-1,-1,-1,-1],"loss_changes":[3.8496382E0,3.5887318E0,2.0602078E0,2.3753638E0,1.2998893E0,6.688969E-1,2.782955E0,0E0,0E0,0E0,0E0,0E0,0E0,0E0,0E0],"parents":[2147483647,0,0,1,1,2,2,3,3,4,4,5,5,6,6],"right_children":[2,4,6,8,10,12,14,-1,-1,-1,-1,-1,-1,-1,-1],"split_conditions":[1.5E-1,1.75E-1,1.8333334E-1,1.25E-1,1E-1,3.3333334E-1,1.2E-1,1.4278315E-2,5.1979076E-2,9.301656E-3,-2.328842E-2,5.458968E-3,-3.0606661E-2,-1.8239928E-2,2.301585E-2],"split_indices":[1,2,1,1,1,0,6,0,0,0,0,0,0,0,0],"split_type":[0,0,0,0,0,0,0,0,0,0,0,0,0,0,0],"sum_hessian":[6.4483505E1,3.867142E1,2.5812086E1,2.7618233E1,1.1053187E1,1.1368084E1,1.4444002E1,2.306878E1,4.549453E0,4.3630486E0,6.6901393E0,1.140804E0,1.022728E1,7.83527E0,6.608732E0],"tree_param":{"num_deleted":"0","num_feature":"10","num_nodes":"15","size_leaf_vector":"1"}},{"base_weights":[-3.5566505E-2,-2.4896921E-1,6.157368E-1,-3.1012356E-1,5.058387E-2,8.1222963E-1,-2.3744097E-2,-2.7467934E-2,-6.7949765E-3,5.475381E-2,6.288328E-3],"categories":[],"categories_nodes":[],"categories_segments":[],"categories_sizes":[],"default_left":[0,0,0,0,0,0,0,0,0,0,0],"id":14,"left_children":[1,3,5,7,-1,9,-1,-1,-1,-1,-1],"loss_changes":[9.928301E0,4.452486E0,4.1669164E0,2.091309E0,0E0,2.836833E0,0E0,0E0,0E0,0E0,0E0],"parents":[2147483647,0,0,1,1,2,2,3,3,5,5],"right_children":[2,4,6,8,-1,10,-1,-1,-1,-1,-1],"split_conditions":[1.75E-1,2.857143E-1,4.6666667E-1,3.3333334E-1,5.058387E-2,1.375E-1,-2.3744097E-2,-2.7467934E-2,-6.7949765E-3,5.475381E-2,6.288328E-3],"split_indices":[2,6,0,5,0,7,0,0,0,0,0],"split_type":[0,0,0,0,0,0,0,0,0,0,0],"sum_hessian":[6.9328865E1,5.2684326E1,1.664454E1,5.096595E1,1.7183776E0,1.4319844E1,2.3246968E0,2.0568802E1,3.0397148E1,9.719733E0,4.600111E0],"tree_param":{"num_deleted":"0","num_feature":"10","num_nodes":"11","size_leaf_vector":"1"}},{"base_weights":[-3.8498804E-2,-3.189809E-1,5.309402E-1,-3.75375E-2,-2.0110941E-1,-7.020271E-2,7.862055E-1,-3.3151243E-2,-2.40927E-3,3.7643507E-2,-2.8853675E-2,4.368412E-2,-8.756417E-3],"categories":[],"categories_nodes":[],"categories_segments":[],"categories_sizes":[],"default_left":[0,0,0,0,0,0,0,0,0,0,0,0,0],"id":15,"left_children":[1,3,5,-1,7,9,11,-1,-1,-1,-1,-1,-1],"loss_changes":[1.368439E1,2.7661276E0,4.3978815E0,0E0,3.2450945E0,4.3365865E0,1.8304272E0,0E0,0E0,0E0,0E0,0E0,0E0],"parents":[2147483647,0,0,1,1,2,2,4,4,5,5,6,6],"right_children":[2,4,6,-1,8,10,12,-1,-1,-1,-1,-1,-1],"split_conditions":[1.6666667E-1,5E-1,1.4E-1,-3.75375E-2,8.75E-2,2.6666668E-1,1.8571429E-1,-3.3151243E-2,-2.40927E-3,3.7643507E-2,-2.8853675E-2,4.368412E-2,-8.756417E-3],"split_indices":[7,4,1,0,1,5,2,0,0,0,0,0,0],"split_type":[0,0,0,0,0,0,0,0,0,0,0,0,0],"sum_hessian":[8.361838E1,5.6318195E1,2.730018E1,1.09261055E1,4.539209E1,8.353318E0,1.8946861E1,1.0460356E1,3.4931736E1,2.998664E0,5.3546543E0,1.7450155E1,1.4967062E0],"tree_param":{"num_deleted":"0","num_feature":"10","num_nodes":"13","size_leaf_vector":"1"}},{"base_weights":[-5.192795E-3,6.886375E-1,-1.3046317E-1,-1.8726973E-2,8.6681986E-1,-2.0957582E-1,2.6791555E-1,5.131225E-2,1.622591E-2,-2.672084E-2,-8.273645E-3,3.7989587E-2,-2.604127E-2],"categories":[],"categories_nodes":[],"categories_segments":[],"categories_sizes":[],"default_left":[0,0,0,0,0,0,0,0,0,0,0,0,0],"id":16,"left_children":[1,3,5,-1,7,9,11,-1,-1,-1,-1,-1,-1],"loss_changes":[5.9094586E0,2.2947078E0,1.8701649E0,0E0,4.630885E-1,6.0757446E-1,4.265727E0,0E0,0E0,0E0,0E0,0E0,0E0],"parents":[2147483647,0,0,1,1,2,2,4,4,5,5,6,6],"right_children":[2,4,6,-1,8,10,12,-1,-1,-1,-1,-1,-1],"split_conditions":[5E-1,8.3333336E-2,8E-1,-1.8726973E-2,1.5E-1,1.3333334E-1,1.3333334E-1,5.131225E-2,1.622591E-2,-2.672084E-2,-8.273645E-3,3.7989587E-2,-2.604127E-2],"split_indices":[4,1,4,0,1,5,1,0,0,0,0,0,0],"split_type":[0,0,0,0,0,0,0,0,0,0,0,0,0],"sum_hessian":[6.59565E1,9.399367E0,5.6557133E1,1.1909881E0,8.208379E0,4.7581932E1,8.975203E0,5.653873E0,2.554506E0,4.3588953E0,4.3223034E1,5.550495E0,3.4247074E0],"tree_param":{"num_deleted":"0","num_feature":"10","num_nodes":"13","size_leaf_vector":"1"}},{"base_weights":[-2.6735205E-2,-4.0222856E-1,3.399308E-1,3.3726028E-1,-4.6916264E-1,8.680247E-2,8.080484E-1,4.270604E-2,-1.8548457E-2,-9.673731E-3,-2.9564619E-2,9.663286E-3,-2.524942E-2,1.4927692E-2,4.8638187E-2],"categories":[],"categories_nodes":[],"categories_segments":[],"categories_sizes":[],"default_left":[0,0,0,0,0,0,0,0,0,0,0,0,0,0,0],"id":17,"left_children":[1,3,5,7,9,11,13,-1,-1,-1,-1,-1,-1,-1,-1],"loss_changes":[9.865588E0,1.9088907E0,4.2304096E0,1.6044374E0,9.9170256E-1,1.6522992E0,7.6843166E-1,0E0,0E0,0E0,0E0,0E0,0E0,0E0,0E0],"parents":[2147483647,0,0,1,1,2,2,3,3,4,4,5,5,6,6],"right_children":[2,4,6,8,10,12,14,-1,-1,-1,-1,-1,-1,-1,-1],"split_conditions":[4.6666667E-1,4E-2,1.75E-1,8E-1,1.14285715E-1,7.3333335E-1,1.4E-1,4.270604E-2,-1.8548457E-2,-9.673731E-3,-2.9564619E-2,9.663286E-3,-2.524942E-2,1.4927692E-2,4.8638187E-2],"split_indices":[5,7,2,4,1,0,6,0,0,0,0,0,0,0,0],"split_type":[0,0,0,0,0,0,0,0,0,0,0,0,0,0,0],"sum_hessian":[6.966249E1,3.4369038E1,3.529345E1,2.517455E0,3.1851583E1,2.3676258E1,1.1617191E1,1.3362645E0,1.1811905E0,1.057175E1,2.1279835E1,2.063707E1,3.0391889E0,3.5253088E0,8.091883E0],"tree_param":{"num_deleted":"0","num_feature":"10","num_nodes":"15","size_leaf_vector":"1"}},{"base_weights":[-2.9610565E-2,-3.865732E-1,4.3042034E-1,6.3982256E-2,-5.859031E-1,6.415288E-1,2.2256417E-2,-3.3271026E-2,2.0533046E-2,-3.1180114E-2,-1.0101479E-2,-5.858715E-3,3.480338E-2,-2.7054856E-2,1.5847119E-2],"categories":[],"categories_nodes":[],"categories_segments":[],"categories_sizes":[],"default_left":[0,0,0,0,0,0,0,0,0,0,0,0,0,0,0],"id":18,"left_children":[1,3,5,7,9,11,13,-1,-1,-1,-1,-1,-1,-1,-1],"loss_changes":[1.3613614E1,4.2258673E0,3.1094494E0,4.118294E0,3.4334278E-1,1.0687704E0,2.3950968E0,0E0,0E0,0E0,0E0,0E0,0E0,0E0,0E0],"parents":[2147483647,0,0,1,1,2,2,3,3,4,4,5,5,6,6],"right_children":[2,4,6,8,10,12,14,-1,-1,-1,-1,-1,-1,-1,-1],"split_conditions":[1.5E-1,3.3333334E-1,1.5714286E-1,2E-1,1.4E-1,8.571429E-2,1.8E-1,-3.3271026E-2,2.0533046E-2,-3.1180114E-2,-1.0101479E-2,-5.858715E-3,3.480338E-2,-2.7054856E-2,1.5847119E-2],"split_indices":[1,5,6,0,1,7,6,0,0,0,0,0,0,0,0],"split_type":[0,0,0,0,0,0,0,0,0,0,0,0,0,0,0],"sum_hessian":[8.08885E1,4.5636425E1,3.525207E1,1.4205664E1,3.1430763E1,2.2857887E1,1.2394183E1,4.2803993E0,9.925264E0,2.8051414E1,3.3793483E0,1.4559093E0,2.140198E1,3.9694915E0,8.424692E0],"tree_param":{"num_deleted":"0","num_feature":"10","num_nodes":"15","size_leaf_vector":"1"}},{"base_weights":[-1.4703378E-2,1.4694682E-1,-2.9453883E-1,4.6109788E-2,7.087444E-2,-4.807437E-1,2.1224052E-2,-2.3791208E-3,2.1268709E-2,-3.0040054E-2,1.3873487E-3,1.4747361E-2,-2.4615858E-2],"categories":[],"categories_nodes":[],"categories_segments":[],"categories_sizes":[],"default_left":[0,0,0,0,0,0,0,0,0,0,0,0,0],"id":19,"left_children":[1,3,5,-1,7,9,11,-1,-1,-1,-1,-1,-1],"loss_changes":[2.8541422E0,2.296801E0,1.3675148E0,0E0,1.5973989E0,9.0576386E-1,1.4835631E0,0E0,0E0,0E0,0E0,0E0,0E0],"parents":[2147483647,0,0,1,1,2,2,4,4,5,5,6,6],"right_children":[2,4,6,-1,8,10,12,-1,-1,-1,-1,-1,-1],"split_conditions":[1.6666667E-1,6E-2,1.4285715E-1,4.6109788E-2,1.8571429E-1,1.5714286E-1,4E-1,-2.3791208E-3,2.1268709E-2,-3.0040054E-2,1.3873487E-3,1.4747361E-2,-2.4615858E-2],"split_indices":[7,6,2,0,6,6,5,0,0,0,0,0,0],"split_type":[0,0,0,0,0,0,0,0,0,0,0,0,0],"sum_hessian":[6.1138443E1,3.9053574E1,2.208487E1,2.4958556E0,3.6557716E1,1.3563822E1,8.521047E0,2.8050394E1,8.507323E0,1.0826167E1,2.7376544E0,5.8360353E0,2.6850114E0],"tree_param":{"num_deleted":"0","num_feature":"10","num_nodes":"13","size_leaf_vector":"1"}},{"base_weights":[2.3204211E-2,6.5607995E-1,-1.9290218E-1,-2.1661272E-2,8.121782E-1,-3.7467867E-1,3.1451425E-1,4.6540912E-2,1.5462426E-2,-8.417795E-3,-2.8807644E-2,-7.500497E-3,3.1313404E-2],"categories":[],"categories_nodes":[],"categories_segments":[],"categories_sizes":[],"default_left":[0,0,0,0,0,0,0,0,0,0,0,0,0],"id":20,"left_children":[1,3,5,-1,7,9,11,-1,-1,-1,-1,-1,-1],"loss_changes":[9.459364E0,3.3440342E0,4.8810167E0,0E0,6.5127087E-1,1.5024347E0,2.1451504E0,0E0,0E0,0E0,0E0,0E0,0E0],"parents":[2147483647,0,0,1,1,2,2,4,4,5,5,6,6],"right_children":[2,4,6,-1,8,10,12,-1,-1,-1,-1,-1,-1],"split_conditions":[2.6666668E-1,1.3333334E-1,6E-1,-2.1661272E-2,1.4285715E-1,1.5714286E-1,1.14285715E-1,4.6540912E-2,1.5462426E-2,-8.417795E-3,-2.8807644E-2,-7.500497E-3,3.1313404E-2],"split_indices":[0,5,5,0,7,7,7,0,0,0,0,0,0],"split_type":[0,0,0,0,0,0,0,0,0,0,0,0,0],"sum_hessian":[6.723798E1,1.6597034E1,5.064095E1,1.857744E0,1.4739289E1,3.747686E1,1.3164089E1,1.1237577E1,3.5017118E0,1.9422533E1,1.8054329E1,5.4950666E0,7.6690226E0],"tree_param":{"num_deleted":"0","num_feature":"10","num_nodes":"13","size_leaf_vector":"1"}},{"base_weights":[3.917371E-2,-3.36764E-1,4.576845E-1,2.4914043E-1,-5.204783E-1,1.8119435E-1,7.7673817E-1,-1.2865014E-2,3.9401244E-2,-3.1863656E-2,3.4512857E-3,-4.2636544E-3,2.6819302E-2,4.2997614E-2,1.7336998E-2],"categories":[],"categories_nodes":[],"categories_segments":[],"categories_sizes":[],"default_left":[0,0,0,0,0,0,0,0,0,0,0,0,0,0,0],"id":21,"left_children":[1,3,5,7,9,11,13,-1,-1,-1,-1,-1,-1,-1,-1],"loss_changes":[1.2673557E1,4.7037187E0,3.218316E0,3.155684E0,2.293645E0,2.0999537E0,3.2349586E-1,0E0,0E0,0E0,0E0,0E0,0E0,0E0,0E0],"parents":[2147483647,0,0,1,1,2,2,3,3,4,4,5,5,6,6],"right_children":[2,4,6,8,10,12,14,-1,-1,-1,-1,-1,-1,-1,-1],"split_conditions":[1.4E-1,2.6666668E-1,6E-1,1.6E-1,4.6666667E-1,1.625E-1,1.8333334E-1,-1.2865014E-2,3.9401244E-2,-3.1863656E-2,3.4512857E-3,-4.2636544E-3,2.6819302E-2,4.2997614E-2,1.7336998E-2],"split_indices":[1,5,0,7,0,7,6,0,0,0,0,0,0,0,0],"split_type":[0,0,0,0,0,0,0,0,0,0,0,0,0,0,0],"sum_hessian":[7.857229E1,4.1494316E1,3.7077976E1,9.820023E0,3.1674295E1,2.0703957E1,1.637402E1,5.331778E0,4.488244E0,2.6368946E1,5.3053484E0,1.2263619E1,8.440336E0,1.2881308E1,3.4927115E0],"tree_param":{"num_deleted":"0","num_feature":"10","num_nodes":"15","size_leaf_vector":"1"}},{"base_weights":[-2.3219857E-2,1.1399264E-1,-3.8700178E-1,8.308073E-1,2.5872758E-2,-2.949264E-2,-1.8763116E-4,5.4673564E-2,1.9908447E-3,-5.0184187E-3,1.6314026E-2,-2.6153544E-2,2.9493067E-2],"categories":[],"categories_nodes":[],"categories_segments":[],"categories_sizes":[],"default_left":[0,0,0,0,0,0,0,0,0,0,0,0,0],"id":22,"left_children":[1,3,5,7,9,-1,11,-1,-1,-1,-1,-1,-1],"loss_changes":[3.103749E0,2.8387048E0,1.3350132E0,9.796958E-1,1.6011248E0,0E0,2.4231174E0,0E0,0E0,0E0,0E0,0E0,0E0],"parents":[2147483647,0,0,1,1,2,2,3,3,4,4,6,6],"right_children":[2,4,6,8,10,-1,12,-1,-1,-1,-1,-1,-1],"split_conditions":[1.7142858E-1,6E-2,1.4285715E-1,1.375E-1,1.375E-1,-2.949264E-2,4E-1,5.4673564E-2,1.9908447E-3,-5.0184187E-3,1.6314026E-2,-2.6153544E-2,2.9493067E-2],"split_indices":[7,6,2,7,7,0,0,0,0,0,0,0,0],"split_type":[0,0,0,0,0,0,0,0,0,0,0,0,0],"sum_hessian":[6.0296352E1,4.4280956E1,1.6015394E1,3.9249713E0,4.0355984E1,1.0161602E1,5.8537927E0,2.6594431E0,1.2655282E0,2.8883915E1,1.147207E1,3.163717E0,2.6900756E0],"tree_param":{"num_deleted":"0","num_feature":"10","num_nodes":"13","size_leaf_vector":"1"}},{"base_weights":[-2.8904792E-2,5.90532E-1,-2.4266952E-1,-3.2057184E-1,8.5705465E-1,-5.1845646E-1,7.193964E-2,-2.3829749E-2,2.8536716E-3,4.9646568E-2,5.7206606E-3,-3.0850315E-2,-1.3612456E-2,1.07391905E-2,-2.6637688E-2],"categories":[],"categories_nodes":[],"categories_segments":[],"categories_sizes":[],"default_left":[0,0,0,0,0,0,0,0,0,0,0,0,0,0,0],"id":23,"left_children":[1,3,5,7,9,11,13,-1,-1,-1,-1,-1,-1,-1,-1],"loss_changes":[8.693943E0,4.368504E0,4.2642E0,2.948948E-1,1.230011E0,4.6486282E-1,2.1559238E0,0E0,0E0,0E0,0E0,0E0,0E0,0E0,0E0],"parents":[2147483647,0,0,1,1,2,2,3,3,4,4,5,5,6,6],"right_children":[2,4,6,8,10,12,14,-1,-1,-1,-1,-1,-1,-1,-1],"split_conditions":[2.6666668E-1,2.6666668E-1,4.6666667E-1,1.3333334E-1,1.14285715E-1,1.5E-1,6.666667E-1,-2.3829749E-2,2.8536716E-3,4.9646568E-2,5.7206606E-3,-3.0850315E-2,-1.3612456E-2,1.07391905E-2,-2.6637688E-2],"split_indices":[0,5,5,6,1,2,0,0,0,0,0,0,0,0,0],"split_type":[0,0,0,0,0,0,0,0,0,0,0,0,0,0,0],"sum_hessian":[6.357516E1,1.585854E1,4.771662E1,3.543238E0,1.2315302E1,2.5081871E1,2.263475E1,2.321924E0,1.2213141E0,1.0125647E1,2.189655E0,1.683661E1,8.245259E0,1.8831152E1,3.8035977E0],"tree_param":{"num_deleted":"0","num_feature":"10","num_nodes":"15","size_leaf_vector":"1"}},{"base_weights":[-3.535629E-2,-3.4258E-1,2.7827957E-1,-7.323681E-2,-6.950196E-1,-3.2755375E-2,3.8723227E-1,-3.082107E-2,1.15157915E-2,-3.6931053E-2,-1.3960778E-2,7.822852E-3,3.056778E-2],"categories":[],"categories_nodes":[],"categories_segments":[],"categories_sizes":[],"default_left":[0,0,0,0,0,0,0,0,0,0,0,0,0],"id":24,"left_children":[1,3,5,7,9,-1,11,-1,-1,-1,-1,-1,-1],"loss_changes":[8.243712E0,4.0468607E0,4.565305E0,4.36072E0,1.3064098E-1,0E0,1.9005346E0,0E0,0E0,0E0,0E0,0E0,0E0],"parents":[2147483647,0,0,1,1,2,2,3,3,4,4,6,6],"right_children":[2,4,6,8,10,-1,12,-1,-1,-1,-1,-1,-1],"split_conditions":[1.4E-1,1.4285715E-1,5E-1,1.14285715E-1,4.6666667E-1,-3.2755375E-2,1.625E-1,-3.082107E-2,1.15157915E-2,-3.6931053E-2,-1.3960778E-2,7.822852E-3,3.056778E-2],"split_indices":[1,6,4,7,0,0,7,0,0,0,0,0,0],"split_type":[0,0,0,0,0,0,0,0,0,0,0,0,0],"sum_hessian":[8.3565025E1,4.216742E1,4.139761E1,2.4585989E1,1.758143E1,3.8032005E0,3.759441E1,8.444501E0,1.6141489E1,1.5210118E1,2.3713121E0,1.9358963E1,1.8235445E1],"tree_param":{"num_deleted":"0","num_feature":"10","num_nodes":"13","size_leaf_vector":"1"}},{"base_weights":[7.278842E-3,5.4631746E-1,-1.0798774E-1,7.479561E-1,-2.1341247E-2,9.430013E-2,-3.4685373E-1,1.0847968E-2,4.7247067E-2,4.9766775E-2,-8.1087573E-4,-2.908642E-2,-1.0089121E-2],"categories":[],"categories_nodes":[],"categories_segments":[],"categories_sizes":[],"default_left":[0,0,0,0,0,0,0,0,0,0,0,0,0],"id":25,"left_children":[1,3,5,7,-1,9,11,-1,-1,-1,-1,-1,-1],"loss_changes":[4.0326676E0,2.5623927E0,2.618901E0,8.234849E-1,0E0,2.9802902E0,7.261472E-1,0E0,0E0,0E0,0E0,0E0,0E0],"parents":[2147483647,0,0,1,1,2,2,3,3,5,5,6,6],"right_children":[2,4,6,8,-1,10,12,-1,-1,-1,-1,-1,-1],"split_conditions":[5E-1,1.8E-1,1.4E-1,2.6666668E-1,-2.1341247E-2,4E-2,1.6666667E-1,1.0847968E-2,4.7247067E-2,4.9766775E-2,-8.1087573E-4,-2.908642E-2,-1.0089121E-2],"split_indices":[4,2,1,0,0,6,1,0,0,0,0,0,0],"split_type":[0,0,0,0,0,0,0,0,0,0,0,0,0],"sum_hessian":[6.295415E1,1.0431613E1,5.2522537E1,8.832822E0,1.5987916E0,2.8766413E1,2.3756124E1,2.9587E0,5.8741217E0,2.2681742E0,2.649824E1,7.921324E0,1.5834801E1],"tree_param":{"num_deleted":"0","num_feature":"10","num_nodes":"13","size_leaf_vector":"1"}},{"base_weights":[-2.9394932E-2,-2.3354113E-1,5.3235763E-1,-2.9029396E-1,3.5882637E-2,-2.2626013E-2,8.5888404E-1,-7.407877E-3,-2.578297E-2,3.41497E-2,-2.7334867E-2,4.7086746E-2,3.3079635E-3],"categories":[],"categories_nodes":[],"categories_segments":[],"categories_sizes":[],"default_left":[0,0,0,0,0,0,0,0,0,0,0,0,0],"id":26,"left_children":[1,3,5,7,-1,9,11,-1,-1,-1,-1,-1,-1],"loss_changes":[8.179713E0,3.0270383E0,3.4675703E0,1.5248113E0,0E0,3.3400774E0,7.2617054E-1,0E0,0E0,0E0,0E0,0E0,0E0],"parents":[2147483647,0,0,1,1,2,2,3,3,5,5,6,6],"right_children":[2,4,6,8,-1,10,12,-1,-1,-1,-1,-1,-1],"split_conditions":[1.75E-1,2.5E-1,1.4E-1,5.3333336E-1,3.5882637E-2,2E-1,1.7142858E-1,-7.407877E-3,-2.578297E-2,3.41497E-2,-2.7334867E-2,4.7086746E-2,3.3079635E-3],"split_indices":[2,6,6,0,0,0,7,0,0,0,0,0,0],"split_type":[0,0,0,0,0,0,0,0,0,0,0,0,0],"sum_hessian":[6.92425E1,5.1214813E1,1.8027685E1,4.8986835E1,2.22798E0,7.0225124E0,1.1005173E1,3.1056883E1,1.792995E1,2.863625E0,4.1588874E0,9.793629E0,1.2115442E0],"tree_param":{"num_deleted":"0","num_feature":"10","num_nodes":"13","size_leaf_vector":"1"}},{"base_weights":[-1.08025065E-2,3.9498237E-1,-2.4618451E-1,-3.1030351E-2,5.540078E-1,-5.505971E-1,7.598634E-2,4.218623E-2,2.1779774E-2,-3.5580643E-2,-1.846736E-2,-3.215834E-2,1.1003359E-2],"categories":[],"categories_nodes":[],"categories_segments":[],"categories_sizes":[],"default_left":[0,0,0,0,0,0,0,0,0,0,0,0,0],"id":27,"left_children":[1,3,5,-1,7,9,11,-1,-1,-1,-1,-1,-1],"loss_changes":[8.131084E0,5.3928556E0,5.3229446E0,0E0,5.778971E-1,5.4874134E-1,2.9433281E0,0E0,0E0,0E0,0E0,0E0,0E0],"parents":[2147483647,0,0,1,1,2,2,4,4,5,5,6,6],"right_children":[2,4,6,-1,8,10,12,-1,-1,-1,-1,-1,-1],"split_conditions":[3.3333334E-1,2E-1,1.3333334E-1,-3.1030351E-2,3.3333334E-1,3.3333334E-1,5E-1,4.218623E-2,2.1779774E-2,-3.5580643E-2,-1.846736E-2,-3.215834E-2,1.1003359E-2],"split_indices":[5,0,1,0,0,0,4,0,0,0,0,0,0],"split_type":[0,0,0,0,0,0,0,0,0,0,0,0,0],"sum_hessian":[8.3111305E1,3.026249E1,5.2848816E1,3.7041292E0,2.6558361E1,2.6808756E1,2.604006E1,5.928334E0,2.0630026E1,1.2647255E1,1.4161502E1,3.7681417E0,2.2271917E1],"tree_param":{"num_deleted":"0","num_feature":"10","num_nodes":"13","size_leaf_vector":"1"}},{"base_weights":[1.012197E-2,6.3210505E-1,-1.0365494E-1,7.944604E-1,-1.8429523E-2,-2.184352E-1,3.769394E-1,1.062253E-2,5.135501E-2,-2.7507085E-3,-2.5058469E-2,3.055426E-2,-2.233931E-2],"categories":[],"categories_nodes":[],"categories_segments":[],"categories_sizes":[],"default_left":[0,0,0,0,0,0,0,0,0,0,0,0,0],"id":28,"left_children":[1,3,5,7,-1,9,11,-1,-1,-1,-1,-1,-1],"loss_changes":[4.875759E0,2.0234542E0,3.299457E0,1.0656438E0,0E0,2.176866E0,2.5123262E0,0E0,0E0,0E0,0E0,0E0,0E0],"parents":[2147483647,0,0,1,1,2,2,3,3,5,5,6,6],"right_children":[2,4,6,8,-1,10,12,-1,-1,-1,-1,-1,-1],"split_conditions":[5E-1,1.8E-1,8E-1,2.6666668E-1,-1.8429523E-2,1.625E-1,6E-1,1.062253E-2,5.135501E-2,-2.7507085E-3,-2.5058469E-2,3.055426E-2,-2.233931E-2],"split_indices":[4,2,4,0,0,7,0,0,0,0,0,0,0],"split_type":[0,0,0,0,0,0,0,0,0,0,0,0,0],"sum_hessian":[6.69726E1,9.652071E0,5.732053E1,8.482018E0,1.170052E0,4.6710224E1,1.0610305E1,2.9685714E0,5.5134473E0,3.035788E1,1.6352346E1,8.462862E0,2.1474423E0],"tree_param":{"num_deleted":"0","num_feature":"10","num_nodes":"13","size_leaf_vector":"1"}},{"base_weights":[-9.454485E-3,5.137249E-1,-1.8760642E-1,-2.372865E-2,7.134571E-1,-4.75125E-1,1.11113E-1,4.1685555E-2,1.6188709E-2,7.37489E-4,-2.5217993E-2,1.0912861E-2,-2.4845691E-2],"categories":[],"categories_nodes":[],"categories_segments":[],"categories_sizes":[],"default_left":[0,0,0,0,0,0,0,0,0,0,0,0,0],"id":29,"left_children":[1,3,5,-1,7,9,11,-1,-1,-1,-1,-1,-1],"loss_changes":[6.4378963E0,3.8029695E0,4.474926E0,0E0,4.329505E-1,3.858838E-1,1.8063293E0,0E0,0E0,0E0,0E0,0E0,0E0],"parents":[2147483647,0,0,1,1,2,2,4,4,5,5,6,6],"right_children":[2,4,6,-1,8,10,12,-1,-1,-1,-1,-1,-1],"split_conditions":[2.6666668E-1,2E-1,4.6666667E-1,-2.372865E-2,1.875E-1,4E-2,7.3333335E-1,4.1685555E-2,1.6188709E-2,7.37489E-4,-2.5217993E-2,1.0912861E-2,-2.4845691E-2],"split_indices":[0,5,5,0,6,2,0,0,0,0,0,0,0],"split_type":[0,0,0,0,0,0,0,0,0,0,0,0,0],"sum_hessian":[6.703808E1,1.655051E1,5.048757E1,2.5511382E0,1.3999372E1,2.5425188E1,2.5062382E1,9.8272705E0,4.172101E0,1.4597789E0,2.396541E1,2.1852633E1,3.209749E0],"tree_param":{"num_deleted":"0","num_feature":"10","num_nodes":"13","size_leaf_vector":"1"}},{"base_weights":[6.8799956E-3,4.456794E-1,-2.3454347E-1,-2.8912006E-2,5.7746387E-1,-5.2224314E-1,1.2048377E-1,2.5957543E-3,3.4948517E-2,-1.543162E-2,-3.4113485E-2,-2.9944597E-2,1.2177511E-2],"categories":[],"categories_nodes":[],"categories_segments":[],"categories_sizes":[],"default_left":[0,0,0,0,0,0,0,0,0,0,0,0,0],"id":30,"left_children":[1,3,5,-1,7,9,11,-1,-1,-1,-1,-1,-1],"loss_changes":[8.576651E0,4.2104926E0,5.39926E0,0E0,1.6210251E0,7.823272E-1,2.288178E0,0E0,0E0,0E0,0E0,0E0,0E0],"parents":[2147483647,0,0,1,1,2,2,4,4,5,5,6,6],"right_children":[2,4,6,-1,8,10,12,-1,-1,-1,-1,-1,-1],"split_conditions":[3.3333334E-1,2E-1,1.4285715E-1,-2.8912006E-2,1.5714286E-1,1.1666667E-1,5E-1,2.5957543E-3,3.4948517E-2,-1.543162E-2,-3.4113485E-2,-2.9944597E-2,1.2177511E-2],"split_indices":[5,0,1,0,7,7,4,0,0,0,0,0,0],"split_type":[0,0,0,0,0,0,0,0,0,0,0,0,0],"sum_hessian":[7.897358E1,2.7728882E1,5.1244698E1,2.7756069E0,2.4953274E1,2.80462E1,2.31985E1,4.953836E0,1.999944E1,1.3266327E1,1.4779873E1,2.824089E0,2.037441E1],"tree_param":{"num_deleted":"0","num_feature":"10","num_nodes":"13","size_leaf_vector":"1"}},{"base_weights":[1.8163376E-2,5.174266E-1,-7.779728E-2,7.2473866E-1,-2.105442E-2,-1.828026E-1,3.9978093E-1,2.478366E-3,4.1233998E-2,-3.4350564E-3,-1.885127E-2,3.0701712E-2,-2.0793375E-2],"categories":[],"categories_nodes":[],"categories_segments":[],"categories_sizes":[],"default_left":[0,0,0,0,0,0,0,0,0,0,0,0,0],"id":31,"left_children":[1,3,5,7,-1,9,11,-1,-1,-1,-1,-1,-1],"loss_changes":[3.194322E0,2.3956413E0,2.8858676E0,5.7774496E-1,0E0,1.0082694E0,2.0768993E0,0E0,0E0,0E0,0E0,0E0,0E0],"parents":[2147483647,0,0,1,1,2,2,3,3,5,5,6,6],"right_children":[2,4,6,8,-1,10,12,-1,-1,-1,-1,-1,-1],"split_conditions":[5E-1,1.8E-1,8E-1,1E-1,-2.105442E-2,1.625E-1,6E-1,2.478366E-3,4.1233998E-2,-3.4350564E-3,-1.885127E-2,3.0701712E-2,-2.0793375E-2],"split_indices":[4,2,4,1,0,7,0,0,0,0,0,0,0],"split_type":[0,0,0,0,0,0,0,0,0,0,0,0,0],"sum_hessian":[6.483369E1,9.744262E0,5.5089428E1,8.167823E0,1.5764389E0,4.5666046E1,9.423383E0,1.2460268E0,6.921796E0,2.9619179E1,1.6046867E1,7.658771E0,1.7646117E0],"tree_param":{"num_deleted":"0","num_feature":"10","num_nodes":"13","size_leaf_vector":"1"}},{"base_weights":[3.5633463E-2,-1.7015745E-1,5.4398656E-1,-2.4580471E-1,4.8566297E-2,-2.201685E-1,6.7053E-1,-1.17141324E-4,-2.3383811E-2,1.595328E-3,-1.8379563E-2,3.7799086E-2,-1.6772404E-2],"categories":[],"categories_nodes":[],"categories_segments":[],"categories_sizes":[],"default_left":[0,0,0,0,0,0,0,0,0,0,0,0,0],"id":32,"left_children":[1,3,5,7,-1,9,11,-1,-1,-1,-1,-1,-1],"loss_changes":[7.2988534E0,4.538646E0,2.0901418E0,2.5646768E0,0E0,1.4576297E-1,1.7563429E0,0E0,0E0,0E0,0E0,0E0,0E0],"parents":[2147483647,0,0,1,1,2,2,3,3,5,5,6,6],"right_children":[2,4,6,8,-1,10,12,-1,-1,-1,-1,-1,-1],"split_conditions":[1.75E-1,2.5E-1,2.6666668E-1,1.375E-1,4.8566297E-2,2.1428572E-1,5.3333336E-1,-1.17141324E-4,-2.3383811E-2,1.595328E-3,-1.8379563E-2,3.7799086E-2,-1.6772404E-2],"split_indices":[2,6,5,7,0,7,0,0,0,0,0,0,0],"split_type":[0,0,0,0,0,0,0,0,0,0,0,0,0],"sum_hessian":[6.788428E1,4.879601E1,1.9088268E1,4.6499126E1,2.296882E0,2.606798E0,1.648147E1,2.2652674E1,2.3846453E1,1.2511146E0,1.3556833E0,1.5420135E1,1.0613351E0],"tree_param":{"num_deleted":"0","num_feature":"10","num_nodes":"13","size_leaf_vector":"1"}},{"base_weights":[-3.1357408E-2,-2.6090053E-1,4.130553E-1,-3.3682388E-1,3.4606706E-2,6.9348437E-1,1.7386843E-2,-3.344253E-2,-1.2521051E-2,2.7362774E-3,3.9158203E-2,-2.3431228E-2,1.163081E-2],"categories":[],"categories_nodes":[],"categories_segments":[],"categories_sizes":[],"default_left":[0,0,0,0,0,0,0,0,0,0,0,0,0],"id":33,"left_children":[1,3,5,7,-1,9,11,-1,-1,-1,-1,-1,-1],"loss_changes":[7.6605372E0,3.8100758E0,2.8288646E0,1.1653352E0,0E0,8.140044E-1,1.3271819E0,0E0,0E0,0E0,0E0,0E0,0E0],"parents":[2147483647,0,0,1,1,2,2,3,3,5,5,6,6],"right_children":[2,4,6,8,-1,10,12,-1,-1,-1,-1,-1,-1],"split_conditions":[1.6666667E-1,8E-1,1.4E-1,5E-1,3.4606706E-2,1.2E-1,1.6E-1,-3.344253E-2,-1.2521051E-2,2.7362774E-3,3.9158203E-2,-2.3431228E-2,1.163081E-2],"split_indices":[7,0,2,4,0,1,2,0,0,0,0,0,0],"split_type":[0,0,0,0,0,0,0,0,0,0,0,0,0],"sum_hessian":[7.303815E1,4.8434322E1,2.4603827E1,4.5459385E1,2.9749374E0,1.3958256E1,1.0645571E1,7.9950686E0,3.7464317E1,1.9166715E0,1.2041585E1,2.9060547E0,7.739516E0],"tree_param":{"num_deleted":"0","num_feature":"10","num_nodes":"13","size_leaf_vector":"1"}},{"base_weights":[6.880358E-2,2.3559497E-1,-1.7769122E-1,4.7264868E-1,-7.586562E-2,-4.7143435E-1,-2.8062994E-2,4.610097E-2,1.3901624E-2,1.5891777E-2,-1.4413535E-2,-2.815314E-2,-6.326169E-3,-1.7865133E-2,1.33461775E-2],"categories":[],"categories_nodes":[],"categories_segments":[],"categories_sizes":[],"default_left":[0,0,0,0,0,0,0,0,0,0,0,0,0,0,0],"id":34,"left_children":[1,3,5,7,9,11,13,-1,-1,-1,-1,-1,-1,-1,-1],"loss_changes":[2.66117E0,2.873111E0,1.1419046E0,1.6640472E0,1.5524769E0,2.0706654E-1,1.8897269E0,0E0,0E0,0E0,0E0,0E0,0E0,0E0,0E0],"parents":[2147483647,0,0,1,1,2,2,3,3,4,4,5,5,6,6],"right_children":[2,4,6,8,10,12,14,-1,-1,-1,-1,-1,-1,-1,-1],"split_conditions":[1.5E-1,1.5E-1,1.6666667E-1,5E-1,1E-1,1.6666667E-1,1.2E-1,4.610097E-2,1.3901624E-2,1.5891777E-2,-1.4413535E-2,-2.815314E-2,-6.326169E-3,-1.7865133E-2,1.33461775E-2],"split_indices":[1,2,1,4,1,6,6,0,0,0,0,0,0,0,0],"split_type":[0,0,0,0,0,0,0,0,0,0,0,0,0,0,0],"sum_hessian":[6.270961E1,3.742804E1,2.5281569E1,2.0958746E1,1.6469294E1,7.8061657E0,1.7475403E1,5.204312E0,1.5754434E1,5.5975847E0,1.087171E1,5.6679425E0,2.1382234E0,8.158409E0,9.316994E0],"tree_param":{"num_deleted":"0","num_feature":"10","num_nodes":"15","size_leaf_vector":"1"}},{"base_weights":[4.022303E-2,-3.1783515E-1,3.3870202E-1,4.2376226E-1,-4.134588E-1,4.5339704E-1,-2.5617957E-2,4.189787E-2,-1.7390877E-2,-6.370224E-3,-2.5508268E-2,2.679646E-2,-2.4961034E-2],"categories":[],"categories_nodes":[],"categories_segments":[],"categories_sizes":[],"default_left":[0,0,0,0,0,0,0,0,0,0,0,0,0],"id":35,"left_children":[1,3,5,7,9,11,-1,-1,-1,-1,-1,-1,-1],"loss_changes":[7.2226334E0,2.3581119E0,3.823658E0,1.5728827E0,7.032857E-1,2.858366E0,0E0,0E0,0E0,0E0,0E0,0E0,0E0],"parents":[2147483647,0,0,1,1,2,2,3,3,4,4,5,5],"right_children":[2,4,6,8,10,12,-1,-1,-1,-1,-1,-1,-1],"split_conditions":[4.6666667E-1,6E-2,7.3333335E-1,8E-1,1.14285715E-1,8E-1,-2.5617957E-2,4.189787E-2,-1.7390877E-2,-6.370224E-3,-2.5508268E-2,2.679646E-2,-2.4961034E-2],"split_indices":[5,7,0,4,1,4,0,0,0,0,0,0,0],"split_type":[0,0,0,0,0,0,0,0,0,0,0,0,0],"sum_hessian":[6.557427E1,2.9782299E1,3.5791973E1,3.0096633E0,2.6772636E1,3.1953016E1,3.8389575E0,1.9023997E0,1.1072636E0,7.349759E0,1.9422878E1,2.9807951E1,2.1450644E0],"tree_param":{"num_deleted":"0","num_feature":"10","num_nodes":"13","size_leaf_vector":"1"}},{"base_weights":[-7.1718834E-2,3.4094137E-1,-3.0906212E-1,-3.0928401E-2,5.318204E-1,-3.9600393E-1,3.5395365E-2,1.6043893E-3,2.979189E-2,-2.8030103E-2,-8.369349E-3],"categories":[],"categories_nodes":[],"categories_segments":[],"categories_sizes":[],"default_left":[0,0,0,0,0,0,0,0,0,0,0],"id":36,"left_children":[1,3,5,-1,7,9,-1,-1,-1,-1,-1],"loss_changes":[8.066606E0,5.8520517E0,4.8894343E0,0E0,8.0274725E-1,1.7374134E0,0E0,0E0,0E0,0E0,0E0],"parents":[2147483647,0,0,1,1,2,2,4,4,5,5],"right_children":[2,4,6,-1,8,10,-1,-1,-1,-1,-1],"split_conditions":[3.3333334E-1,2E-1,8E-1,-3.0928401E-2,1.2857144E-1,1.3333334E-1,3.5395365E-2,1.6043893E-3,2.979189E-2,-2.8030103E-2,-8.369349E-3],"split_indices":[5,0,0,0,7,1,0,0,0,0,0],"split_type":[0,0,0,0,0,0,0,0,0,0,0],"sum_hessian":[8.028507E1,2.9156038E1,5.1129036E1,4.4659595E0,2.4690079E1,4.7664734E1,3.4643044E0,2.974187E0,2.171589E1,2.6868195E1,2.0796537E1],"tree_param":{"num_deleted":"0","num_feature":"10","num_nodes":"11","size_leaf_vector":"1"}},{"base_weights":[2.1241356E-3,6.656282E-1,-6.627369E-2,9.720095E-1,-1.672915E-2,3.1046012E-1,-1.4552754E-1,1.6777076E-2,5.6570984E-2,-2.5831431E-2,3.3445004E-2,-1.7645016E-2,-1.2660058E-3],"categories":[],"categories_nodes":[],"categories_segments":[],"categories_sizes":[],"default_left":[0,0,0,0,0,0,0,0,0,0,0,0,0],"id":37,"left_children":[1,3,5,7,-1,9,11,-1,-1,-1,-1,-1,-1],"loss_changes":[3.0192502E0,2.2303996E0,1.8467969E0,1.2920856E-1,0E0,3.5493479E0,1.2507524E0,0E0,0E0,0E0,0E0,0E0,0E0],"parents":[2147483647,0,0,1,1,2,2,3,3,5,5,6,6],"right_children":[2,4,6,8,-1,10,12,-1,-1,-1,-1,-1,-1],"split_conditions":[6E-2,2E-1,5E-1,6E-2,-1.672915E-2,2.6666668E-1,1.25E-1,1.6777076E-2,5.6570984E-2,-2.5831431E-2,3.3445004E-2,-1.7645016E-2,-1.2660058E-3],"split_indices":[6,7,4,2,0,0,6,0,0,0,0,0,0],"split_type":[0,0,0,0,0,0,0,0,0,0,0,0,0],"sum_hessian":[6.45573E1,5.217022E0,5.9340275E1,4.015273E0,1.201749E0,9.80671E0,4.953356E1,1.4261318E0,2.5891414E0,2.8315876E0,6.975123E0,1.7466284E1,3.206728E1],"tree_param":{"num_deleted":"0","num_feature":"10","num_nodes":"13","size_leaf_vector":"1"}},{"base_weights":[3.0576054E-2,2.6508516E-1,-5.079328E-1,-2.878676E-1,4.5208487E-1,-2.9767422E-2,-7.3009774E-2,3.6616642E-2,-2.4877867E-2,2.6280928E-2,-2.3698177E-2,1.5307452E-2,-2.0629236E-2],"categories":[],"categories_nodes":[],"categories_segments":[],"categories_sizes":[],"default_left":[0,0,0,0,0,0,0,0,0,0,0,0,0],"id":38,"left_children":[1,3,5,7,9,-1,11,-1,-1,-1,-1,-1,-1],"loss_changes":[8.145435E0,4.767438E0,7.0120573E-1,2.9196546E0,2.5577455E0,0E0,6.9510543E-1,0E0,0E0,0E0,0E0,0E0,0E0],"parents":[2147483647,0,0,1,1,2,2,3,3,4,4,6,6],"right_children":[2,4,6,8,10,-1,12,-1,-1,-1,-1,-1,-1],"split_conditions":[5.3333336E-1,3.3333334E-1,6E-1,6.666667E-2,8E-1,-2.9767422E-2,7.3333335E-1,3.6616642E-2,-2.4877867E-2,2.6280928E-2,-2.3698177E-2,1.5307452E-2,-2.0629236E-2],"split_indices":[0,5,5,0,4,0,0,0,0,0,0,0,0],"split_type":[0,0,0,0,0,0,0,0,0,0,0,0,0],"sum_hessian":[6.2434093E1,4.3847282E1,1.8586813E1,1.0944703E1,3.290258E1,1.5169101E1,3.4177127E0,1.4410627E0,9.503641E0,3.0882715E1,2.0198627E0,1.6612487E0,1.756464E0],"tree_param":{"num_deleted":"0","num_feature":"10","num_nodes":"13","size_leaf_vector":"1"}},{"base_weights":[-2.2466976E-2,-3.321891E-1,2.9529062E-1,1.16820335E-1,-4.8631242E-1,-2.9239092E-2,3.8853517E-1,-2.7490182E-2,1.9804938E-2,-1.2444269E-2,-3.2459512E-2,8.700143E-3,2.9407073E-2],"categories":[],"categories_nodes":[],"categories_segments":[],"categories_sizes":[],"default_left":[0,0,0,0,0,0,0,0,0,0,0,0,0],"id":39,"left_children":[1,3,5,7,9,-1,11,-1,-1,-1,-1,-1,-1],"loss_changes":[7.789459E0,2.828147E0,3.436206E0,2.2730837E0,9.988384E-1,0E0,1.4375043E0,0E0,0E0,0E0,0E0,0E0,0E0],"parents":[2147483647,0,0,1,1,2,2,3,3,4,4,6,6],"right_children":[2,4,6,8,10,-1,12,-1,-1,-1,-1,-1,-1],"split_conditions":[1.4E-1,2.6666668E-1,5E-1,2E-1,1.4285715E-1,-2.9239092E-2,1.625E-1,-2.7490182E-2,1.9804938E-2,-1.2444269E-2,-3.2459512E-2,8.700143E-3,2.9407073E-2],"split_indices":[1,5,4,0,6,0,7,0,0,0,0,0,0],"split_type":[0,0,0,0,0,0,0,0,0,0,0,0,0],"sum_hessian":[7.715114E1,3.9046566E1,3.8104572E1,1.0039729E1,2.9006838E1,3.1454358E0,3.4959137E1,2.678241E0,7.361488E0,1.2831056E1,1.6175783E1,1.775172E1,1.7207417E1],"tree_param":{"num_deleted":"0","num_feature":"10","num_nodes":"13","size_leaf_vector":"1"}},{"base_weights":[7.881491E-3,4.975872E-1,-9.019487E-2,6.8354195E-1,-2.0786246E-2,-1.7032672E-1,2.8093395E-1,3.4591657E-4,3.928894E-2,-1.9812083E-2,-1.5591764E-3,2.5441486E-2,-2.182918E-2],"categories":[],"categories_nodes":[],"categories_segments":[],"categories_sizes":[],"default_left":[0,0,0,0,0,0,0,0,0,0,0,0,0],"id":40,"left_children":[1,3,5,7,-1,9,11,-1,-1,-1,-1,-1,-1],"loss_changes":[3.2883613E0,2.2239823E0,1.7462757E0,6.7717934E-1,0E0,1.4836695E0,1.9421659E0,0E0,0E0,0E0,0E0,0E0,0E0],"parents":[2147483647,0,0,1,1,2,2,3,3,5,5,6,6],"right_children":[2,4,6,8,-1,10,12,-1,-1,-1,-1,-1,-1],"split_conditions":[5E-1,1.8E-1,8E-1,8.75E-2,-2.0786246E-2,1.25E-1,6E-1,3.4591657E-4,3.928894E-2,-1.9812083E-2,-1.5591764E-3,2.5441486E-2,-2.182918E-2],"split_indices":[4,2,4,1,0,6,0,0,0,0,0,0,0],"split_type":[0,0,0,0,0,0,0,0,0,0,0,0,0],"sum_hessian":[6.653236E1,1.0421789E1,5.611057E1,8.867834E0,1.5539547E0,4.659181E1,9.51876E0,1.3041803E0,7.563654E0,1.7054367E1,2.9537443E1,7.4449606E0,2.0737987E0],"tree_param":{"num_deleted":"0","num_feature":"10","num_nodes":"13","size_leaf_vector":"1"}},{"base_weights":[-3.274173E-3,7.7485275E-1,-1.0023741E-1,7.2576473E-3,4.973463E-2,-3.8924512E-1,1.7217493E-1,-2.9145518E-2,-1.0522823E-2,2.4231657E-2,-1.7189992E-3],"categories":[],"categories_nodes":[],"categories_segments":[],"categories_sizes":[],"default_left":[0,0,0,0,0,0,0,0,0,0,0],"id":41,"left_children":[1,3,5,-1,-1,7,9,-1,-1,-1,-1],"loss_changes":[5.051957E0,8.8274527E-1,4.752107E0,0E0,0E0,8.877392E-1,2.038518E0,0E0,0E0,0E0,0E0],"parents":[2147483647,0,0,1,1,2,2,5,5,6,6],"right_children":[2,4,6,-1,-1,8,10,-1,-1,-1,-1],"split_conditions":[6E-2,1.25E-1,4.6666667E-1,7.2576473E-3,4.973463E-2,2.6666668E-1,3.3333334E-1,-2.9145518E-2,-1.0522823E-2,2.4231657E-2,-1.7189992E-3],"split_indices":[7,2,5,0,0,5,0,0,0,0,0],"split_type":[0,0,0,0,0,0,0,0,0,0,0],"sum_hessian":[6.4928535E1,6.419671E0,5.850886E1,2.0908878E0,4.3287835E0,2.8181578E1,3.0327284E1,1.2442948E1,1.5738629E1,1.1533756E1,1.8793526E1],"tree_param":{"num_deleted":"0","num_feature":"10","num_nodes":"11","size_leaf_vector":"1"}},{"base_weights":[-5.923318E-2,-2.836422E-1,3.5058364E-1,-4.3840614E-1,-7.3737115E-2,6.698671E-1,-1.590334E-1,-3.3381335E-2,-1.428207E-2,1.7785637E-2,-1.14659285E-2,3.7180364E-2,7.5332783E-3,1.8182905E-2,-1.87269E-2],"categories":[],"categories_nodes":[],"categories_segments":[],"categories_sizes":[],"default_left":[0,0,0,0,0,0,0,0,0,0,0,0,0,0,0],"id":42,"left_children":[1,3,5,7,9,11,13,-1,-1,-1,-1,-1,-1,-1,-1],"loss_changes":[7.2371E0,1.6147923E0,4.647602E0,8.241763E-1,1.5996137E0,5.5224085E-1,1.4381504E0,0E0,0E0,0E0,0E0,0E0,0E0,0E0,0E0],"parents":[2147483647,0,0,1,1,2,2,3,3,4,4,5,5,6,6],"right_children":[2,4,6,8,10,12,14,-1,-1,-1,-1,-1,-1,-1,-1],"split_conditions":[1.6666667E-1,4.6666667E-1,1.4285715E-1,8.75E-2,8.571429E-2,5.3333336E-1,8.3333336E-2,-3.3381335E-2,-1.428207E-2,1.7785637E-2,-1.14659285E-2,3.7180364E-2,7.5332783E-3,1.8182905E-2,-1.87269E-2],"split_indices":[7,0,2,1,2,5,6,0,0,0,0,0,0,0,0],"split_type":[0,0,0,0,0,0,0,0,0,0,0,0,0,0,0],"sum_hessian":[7.661144E1,4.9702854E1,2.690859E1,2.798258E1,2.1720274E1,1.6350367E1,1.0558225E1,9.843021E0,1.8139557E1,5.434138E0,1.6286137E1,1.39385195E1,2.4118466E0,2.881609E0,7.676616E0],"tree_param":{"num_deleted":"0","num_feature":"10","num_nodes":"15","size_leaf_vector":"1"}},{"base_weights":[2.0783633E-2,4.5344913E-1,-6.800363E-2,7.9425174E-1,-1.562689E-1,4.3237108E-1,-1.4660655E-1,-3.8417606E-4,4.873503E-2,2.0353049E-2,-2.4893116E-2,-2.04434E-2,3.5774004E-2,-2.7289381E-2,-4.4910335E-3],"categories":[],"categories_nodes":[],"categories_segments":[],"categories_sizes":[],"default_left":[0,0,0,0,0,0,0,0,0,0,0,0,0,0,0],"id":43,"left_children":[1,3,5,7,9,11,13,-1,-1,-1,-1,-1,-1,-1,-1],"loss_changes":[2.4725933E0,2.4001002E0,2.1718874E0,1.0479918E0,1.1191564E0,2.086205E0,1.0181321E0,0E0,0E0,0E0,0E0,0E0,0E0,0E0,0E0],"parents":[2147483647,0,0,1,1,2,2,3,3,4,4,5,5,6,6],"right_children":[2,4,6,8,10,12,14,-1,-1,-1,-1,-1,-1,-1,-1],"split_conditions":[5E-1,1.4285715E-1,2E-1,2.6666668E-1,4.6666667E-1,6.666667E-2,2.6666668E-1,-3.8417606E-4,4.873503E-2,2.0353049E-2,-2.4893116E-2,-2.04434E-2,3.5774004E-2,-2.7289381E-2,-4.4910335E-3],"split_indices":[4,2,0,0,5,0,0,0,0,0,0,0,0,0,0],"split_type":[0,0,0,0,0,0,0,0,0,0,0,0,0,0,0],"sum_hessian":[6.2562294E1,9.953103E0,5.260919E1,6.190347E0,3.7627556E0,6.5312853E0,4.6077908E1,1.3129346E0,4.8774123E0,1.3480314E0,2.4147243E0,1.5327158E0,4.9985695E0,4.666068E0,4.141184E1],"tree_param":{"num_deleted":"0","num_feature":"10","num_nodes":"15","size_leaf_vector":"1"}},{"base_weights":[9.648755E-3,-1.9165066E-1,4.3082976E-1,5.909766E-1,-3.0646005E-1,5.079128E-1,-2.1307772E-2,-1.8746275E-2,4.4862837E-2,1.1240098E-2,-1.9430615E-2,2.9775579E-2,-1.918151E-2],"categories":[],"categories_nodes":[],"categories_segments":[],"categories_sizes":[],"default_left":[0,0,0,0,0,0,0,0,0,0,0,0,0],"id":44,"left_children":[1,3,5,7,9,11,-1,-1,-1,-1,-1,-1,-1],"loss_changes":[5.658624E0,4.2417464E0,1.6417522E0,2.1477864E0,1.8361511E0,1.8100858E0,0E0,0E0,0E0,0E0,0E0,0E0,0E0],"parents":[2147483647,0,0,1,1,2,2,3,3,4,4,5,5],"right_children":[2,4,6,8,10,12,-1,-1,-1,-1,-1,-1,-1],"split_conditions":[6E-1,6.25E-2,8E-1,6E-2,5E-1,6.666667E-1,-2.1307772E-2,-1.8746275E-2,4.4862837E-2,1.1240098E-2,-1.9430615E-2,2.9775579E-2,-1.918151E-2],"split_indices":[5,1,4,2,4,0,0,0,0,0,0,0,0],"split_type":[0,0,0,0,0,0,0,0,0,0,0,0,0],"sum_hessian":[6.476818E1,4.4192005E1,2.0576176E1,5.1229134E0,3.906909E1,1.9251858E1,1.3243172E0,1.1793915E0,3.9435217E0,4.9998255E0,3.4069263E1,1.7831833E1,1.4200255E0],"tree_param":{"num_deleted":"0","num_feature":"10","num_nodes":"13","size_leaf_vector":"1"}},{"base_weights":[-1.6566757E-2,3.6310166E-1,-2.4707977E-1,-2.8160129E-2,5.0308186E-1,-3.3752847E-1,5.541722E-1,3.0390743E-2,9.941288E-3,-2.038358E-2,1.7431846E-2,3.2836694E-2,8.130834E-3],"categories":[],"categories_nodes":[],"categories_segments":[],"categories_sizes":[],"default_left":[0,0,0,0,0,0,0,0,0,0,0,0,0],"id":45,"left_children":[1,3,5,-1,7,9,11,-1,-1,-1,-1,-1,-1],"loss_changes":[6.951157E0,4.1762037E0,3.7655244E0,0E0,7.2708035E-1,2.3074965E0,1.0954034E-1,0E0,0E0,0E0,0E0,0E0,0E0],"parents":[2147483647,0,0,1,1,2,2,4,4,5,5,6,6],"right_children":[2,4,6,-1,8,10,12,-1,-1,-1,-1,-1,-1],"split_conditions":[3.3333334E-1,2E-1,8E-1,-2.8160129E-2,1.4285715E-1,8E-1,2.25E-1,3.0390743E-2,9.941288E-3,-2.038358E-2,1.7431846E-2,3.2836694E-2,8.130834E-3],"split_indices":[5,0,0,0,2,4,1,0,0,0,0,0,0],"split_type":[0,0,0,0,0,0,0,0,0,0,0,0,0],"sum_hessian":[7.739989E1,2.9022667E1,4.837722E1,3.413139E0,2.5609528E1,4.3990173E1,4.387048E0,1.8309282E1,7.3002462E0,4.0278572E1,3.7115998E0,2.9397771E0,1.4472706E0],"tree_param":{"num_deleted":"0","num_feature":"10","num_nodes":"13","size_leaf_vector":"1"}},{"base_weights":[5.874963E-2,5.1634103E-1,-3.4195334E-2,7.085072E-1,-2.0577436E-2,-1.3723736E-1,4.7535238E-1,4.5629527E-2,2.4138347E-3,-1.1970412E-2,4.534048E-3,4.201183E-3,5.3928096E-2],"categories":[],"categories_nodes":[],"categories_segments":[],"categories_sizes":[],"default_left":[0,0,0,0,0,0,0,0,0,0,0,0,0],"id":46,"left_children":[1,3,5,7,-1,9,11,-1,-1,-1,-1,-1,-1],"loss_changes":[2.794244E0,2.2679243E0,2.9635212E0,1.2426748E0,0E0,1.1089907E0,2.154035E0,0E0,0E0,0E0,0E0,0E0,0E0],"parents":[2147483647,0,0,1,1,2,2,3,3,5,5,6,6],"right_children":[2,4,6,8,-1,10,12,-1,-1,-1,-1,-1,-1],"split_conditions":[5E-1,1.8E-1,8E-1,1.5E-1,-2.0577436E-2,1.6666667E-1,1.4E-1,4.5629527E-2,2.4138347E-3,-1.1970412E-2,4.534048E-3,4.201183E-3,5.3928096E-2],"split_indices":[4,2,4,1,0,6,2,0,0,0,0,0,0],"split_type":[0,0,0,0,0,0,0,0,0,0,0,0,0],"sum_hessian":[6.428414E1,1.0083786E1,5.420035E1,8.549595E0,1.5341907E0,4.5691227E1,8.509127E0,6.2388716E0,2.3107233E0,3.1513838E1,1.4177389E1,5.8519816E0,2.657145E0],"tree_param":{"num_deleted":"0","num_feature":"10","num_nodes":"13","size_leaf_vector":"1"}},{"base_weights":[-3.166158E-2,-3.177277E-1,2.0577164E-1,-5.054676E-1,1.5904443E-2,-8.601416E-3,5.512695E-1,-4.580229E-4,-2.9589374E-2,2.9043108E-2,-1.22493785E-2,-4.4734296E-3,3.8189735E-2,8.056216E-3,3.3626977E-2],"categories":[],"categories_nodes":[],"categories_segments":[],"categories_sizes":[],"default_left":[0,0,0,0,0,0,0,0,0,0,0,0,0,0,0],"id":47,"left_children":[1,3,5,7,9,11,13,-1,-1,-1,-1,-1,-1,-1,-1],"loss_changes":[4.6995144E0,1.9709125E0,2.811077E0,8.5499716E-1,1.948435E0,1.5903114E0,5.7877874E-1,0E0,0E0,0E0,0E0,0E0,0E0,0E0,0E0],"parents":[2147483647,0,0,1,1,2,2,3,3,4,4,5,5,6,6],"right_children":[2,4,6,8,10,12,14,-1,-1,-1,-1,-1,-1,-1,-1],"split_conditions":[4.6666667E-1,1.3333334E-1,1.75E-1,8.75E-2,2.6666668E-1,2.857143E-1,1.4E-1,-4.580229E-4,-2.9589374E-2,2.9043108E-2,-1.22493785E-2,-4.4734296E-3,3.8189735E-2,8.056216E-3,3.3626977E-2],"split_indices":[5,6,2,1,0,6,6,0,0,0,0,0,0,0,0],"split_type":[0,0,0,0,0,0,0,0,0,0,0,0,0,0,0],"sum_hessian":[6.722771E1,3.0337757E1,3.688995E1,1.9083908E1,1.1253849E1,2.3366627E1,1.3523322E1,2.9912813E0,1.6092627E1,3.1677299E0,8.086119E0,2.195245E1,1.4141774E0,3.7589183E0,9.764403E0],"tree_param":{"num_deleted":"0","num_feature":"10","num_nodes":"15","size_leaf_vector":"1"}},{"base_weights":[2.5358468E-2,-3.237908E-2,1.2764601E-1,-4.5415193E-1,2.4289523E-1,-2.8436232E-2,1.0219215E-2,1.6910043E-2,-1.8540768E-2],"categories":[],"categories_nodes":[],"categories_segments":[],"categories_sizes":[],"default_left":[0,0,0,0,0,0,0,0,0],"id":48,"left_children":[1,-1,3,5,7,-1,-1,-1,-1],"loss_changes":[5.4694552E0,0E0,4.721324E0,1.0004029E0,3.520727E0,0E0,0E0,0E0,0E0],"parents":[2147483647,0,0,2,2,3,3,4,4],"right_children":[2,-1,4,6,8,-1,-1,-1,-1],"split_conditions":[5E-1,-3.237908E-2,8.75E-2,4E-1,7.3333335E-1,-2.8436232E-2,1.0219215E-2,1.6910043E-2,-1.8540768E-2],"split_indices":[4,0,1,0,5,0,0,0,0],"split_type":[0,0,0,0,0,0,0,0,0],"sum_hessian":[7.7258446E1,9.490482E0,6.776797E1,1.0718504E1,5.7049465E1,9.246219E0,1.4722848E0,4.976948E1,7.27998E0],"tree_param":{"num_deleted":"0","num_feature":"10","num_nodes":"9","size_leaf_vector":"1"}},{"base_weights":[-4.6299774E-2,3.27242E-1,-1.154818E-1,-1.3041703E-1,5.7885695E-1,-6.428905E-2,-2.6304645E-2,-1.9620216E-2,4.690702E-3,3.660233E-2,-1.1170589E-3,-5.7726162E-3,1.8081158E-2],"categories":[],"categories_nodes":[],"categories_segments":[],"categories_sizes":[],"default_left":[0,0,0,0,0,0,0,0,0,0,0,0,0],"id":49,"left_children":[1,3,5,7,9,11,-1,-1,-1,-1,-1,-1,-1],"loss_changes":[1.6844792E0,1.2521461E0,1.1118352E0,2.9770237E-1,6.405077E-1,1.1225826E0,0E0,0E0,0E0,0E0,0E0,0E0,0E0],"parents":[2147483647,0,0,1,1,2,2,3,3,4,4,5,5],"right_children":[2,4,6,8,10,12,-1,-1,-1,-1,-1,-1,-1],"split_conditions":[5E-1,2.6666668E-1,8E-1,8.3333336E-2,1.4285715E-1,6.666667E-1,-2.6304645E-2,-1.9620216E-2,4.690702E-3,3.660233E-2,-1.1170589E-3,-5.7726162E-3,1.8081158E-2],"split_indices":[4,0,0,1,2,0,0,0,0,0,0,0,0],"split_type":[0,0,0,0,0,0,0,0,0,0,0,0,0],"sum_hessian":[6.2720486E1,9.218097E0,5.3502388E1,3.4409962E0,5.7771E0,4.85998E1,4.902589E0,1.2410166E0,2.1999795E0,4.4305243E0,1.3465759E0,4.403854E1,4.5612597E0],"tree_param":{"num_deleted":"0","num_feature":"10","num_nodes":"13","size_leaf_vector":"1"}},{"base_weights":[8.814673E-3,-3.4725296E-1,2.894523E-1,1.8642148E-2,-4.2130715E-1,5.112674E-1,-6.282146E-2,-2.8505389E-2,-1.3004988E-2,3.8422003E-2,1.3230908E-2,-2.4886124E-2,4.8407586E-3],"categories":[],"categories_nodes":[],"categories_segments":[],"categories_sizes":[],"default_left":[0,0,0,0,0,0,0,0,0,0,0,0,0],"id":50,"left_children":[1,3,5,-1,7,9,11,-1,-1,-1,-1,-1,-1],"loss_changes":[6.4944983E0,1.6852992E0,2.870874E0,0E0,4.8631382E-1,1.2176394E0,1.0845376E0,0E0,0E0,0E0,0E0,0E0,0E0],"parents":[2147483647,0,0,1,1,2,2,4,4,5,5,6,6],"right_children":[2,4,6,-1,8,10,12,-1,-1,-1,-1,-1,-1],"split_conditions":[4.6666667E-1,6E-2,1.3333334E-1,1.8642148E-2,2.6666668E-1,2.6666668E-1,1.1666667E-1,-2.8505389E-2,-1.3004988E-2,3.8422003E-2,1.3230908E-2,-2.4886124E-2,4.8407586E-3],"split_indices":[5,7,1,0,5,0,2,0,0,0,0,0,0],"split_type":[0,0,0,0,0,0,0,0,0,0,0,0,0],"sum_hessian":[6.2987213E1,2.7657959E1,3.5329254E1,2.2028568E0,2.5455103E1,2.140187E1,1.3927383E1,1.1917918E1,1.3537185E1,9.441759E0,1.1960112E1,3.1709259E0,1.0756457E1],"tree_param":{"num_deleted":"0","num_feature":"10","num_nodes":"13","size_leaf_vector":"1"}},{"base_weights":[6.4906343E-3,-2.62635E-1,3.658911E-1,2.7386263E-1,-4.3296337E-1,4.4469082E-1,-3.773561E-1,-2.4715682E-2,2.5234152E-2,-2.5068799E-2,5.545798E-4,1.12775E-2,3.2280788E-2,-3.1297717E-3,-2.5814304E-2],"categories":[],"categories_nodes":[],"categories_segments":[],"categories_sizes":[],"default_left":[0,0,0,0,0,0,0,0,0,0,0,0,0,0,0],"id":51,"left_children":[1,3,5,7,9,11,13,-1,-1,-1,-1,-1,-1,-1,-1],"loss_changes":[7.552151E0,4.1997337E0,2.1254282E0,2.266347E0,1.0471406E0,1.205245E0,1.3145053E-1,0E0,0E0,0E0,0E0,0E0,0E0,0E0,0E0],"parents":[2147483647,0,0,1,1,2,2,3,3,4,4,5,5,6,6],"right_children":[2,4,6,8,10,12,14,-1,-1,-1,-1,-1,-1,-1,-1],"split_conditions":[1.5E-1,2.6666668E-1,2.1666667E-1,2E-1,1.4E-1,6E-1,1.25E-1,-2.4715682E-2,2.5234152E-2,-2.5068799E-2,5.545798E-4,1.12775E-2,3.2280788E-2,-3.1297717E-3,-2.5814304E-2],"split_indices":[1,5,6,0,1,0,2,0,0,0,0,0,0,0,0],"split_type":[0,0,0,0,0,0,0,0,0,0,0,0,0,0,0],"sum_hessian":[7.608599E1,4.3661045E1,3.2424946E1,1.0374804E1,3.328624E1,2.9679943E1,2.745002E0,2.1333635E0,8.24144E0,2.8730795E1,4.5554476E0,1.5211703E1,1.4468241E1,1.2847707E0,1.4602314E0],"tree_param":{"num_deleted":"0","num_feature":"10","num_nodes":"15","size_leaf_vector":"1"}},{"base_weights":[8.104687E-2,4.686041E-1,-8.936604E-3,-1.7711386E-2,5.8518994E-1,-1.08365566E-1,3.611496E-1,3.8428016E-2,5.3611547E-3,1.1091619E-4,-2.0209363E-2,4.380391E-3,3.879332E-2],"categories":[],"categories_nodes":[],"categories_segments":[],"categories_sizes":[],"default_left":[0,0,0,0,0,0,0,0,0,0,0,0,0],"id":52,"left_children":[1,3,5,-1,7,9,11,-1,-1,-1,-1,-1,-1],"loss_changes":[2.2301996E0,1.3629057E0,1.9814523E0,0E0,8.754151E-1,1.3871256E0,1.2262795E0,0E0,0E0,0E0,0E0,0E0,0E0],"parents":[2147483647,0,0,1,1,2,2,4,4,5,5,6,6],"right_children":[2,4,6,-1,8,10,12,-1,-1,-1,-1,-1,-1],"split_conditions":[5E-1,6E-2,8E-1,-1.7711386E-2,1.5E-1,1.75E-1,1.4E-1,3.8428016E-2,5.3611547E-3,1.1091619E-4,-2.0209363E-2,4.380391E-3,3.879332E-2],"split_indices":[4,1,4,0,1,7,2,0,0,0,0,0,0],"split_type":[0,0,0,0,0,0,0,0,0,0,0,0,0],"sum_hessian":[6.2830597E1,1.1046377E1,5.1784218E1,1.1179366E0,9.928441E0,4.137533E1,1.0408887E1,6.7361584E0,3.1922824E0,3.0839449E1,1.0535884E1,7.001823E0,3.407064E0],"tree_param":{"num_deleted":"0","num_feature":"10","num_nodes":"13","size_leaf_vector":"1"}},{"base_weights":[1.0029298E-1,-9.4812766E-2,5.502941E-1,1.5190473E-1,-3.6493072E-1,2.705075E-2,7.971554E-1,1.3697919E-2,-2.4807809E-2,-2.15197E-2,1.897301E-2,2.9082412E-2,-1.6958598E-2,4.203949E-2,1.2951083E-2],"categories":[],"categories_nodes":[],"categories_segments":[],"categories_sizes":[],"default_left":[0,0,0,0,0,0,0,0,0,0,0,0,0,0,0],"id":53,"left_children":[1,3,5,7,9,11,13,-1,-1,-1,-1,-1,-1,-1,-1],"loss_changes":[5.9042583E0,3.2108593E0,2.6013074E0,2.1491427E0,1.2790542E0,1.7295653E0,1.0535526E-1,0E0,0E0,0E0,0E0,0E0,0E0,0E0,0E0],"parents":[2147483647,0,0,1,1,2,2,3,3,4,4,5,5,6,6],"right_children":[2,4,6,8,10,12,14,-1,-1,-1,-1,-1,-1,-1,-1],"split_conditions":[1.75E-1,1.375E-1,4.6666667E-1,6.666667E-1,2.2857143E-1,2E-1,2.125E-1,1.3697919E-2,-2.4807809E-2,-2.15197E-2,1.897301E-2,2.9082412E-2,-1.6958598E-2,4.203949E-2,1.2951083E-2],"split_indices":[2,7,5,0,6,0,6,0,0,0,0,0,0,0,0],"split_type":[0,0,0,0,0,0,0,0,0,0,0,0,0,0,0],"sum_hessian":[6.5654106E1,4.63483E1,1.9305801E1,2.4452118E1,2.1896183E1,6.5442634E0,1.27615385E1,2.1062534E1,3.3895836E0,2.051396E1,1.3822223E0,2.3687928E0,4.1754704E0,1.1284148E1,1.4773897E0],"tree_param":{"num_deleted":"0","num_feature":"10","num_nodes":"15","size_leaf_vector":"1"}},{"base_weights":[-4.528916E-4,3.2518578E-1,-1.9699658E-1,-2.6958292E-2,4.4959915E-1,-2.657908E-1,4.9959227E-1,-5.360124E-4,2.5349615E-2,-1.606599E-2,1.2174084E-2,2.9790923E-2,8.034768E-3],"categories":[],"categories_nodes":[],"categories_segments":[],"categories_sizes":[],"default_left":[0,0,0,0,0,0,0,0,0,0,0,0,0],"id":54,"left_children":[1,3,5,-1,7,9,11,-1,-1,-1,-1,-1,-1],"loss_changes":[5.14205E0,3.4943538E0,2.5336695E0,0E0,7.182379E-1,1.3861623E0,6.2430143E-2,0E0,0E0,0E0,0E0,0E0,0E0],"parents":[2147483647,0,0,1,1,2,2,4,4,5,5,6,6],"right_children":[2,4,6,-1,8,10,12,-1,-1,-1,-1,-1,-1],"split_conditions":[3.3333334E-1,2E-1,8E-1,-2.6958292E-2,1.2857144E-1,8E-1,1.2E-1,-5.360124E-4,2.5349615E-2,-1.606599E-2,1.2174084E-2,2.9790923E-2,8.034768E-3],"split_indices":[5,0,0,0,7,4,2,0,0,0,0,0,0],"split_type":[0,0,0,0,0,0,0,0,0,0,0,0,0],"sum_hessian":[7.834083E1,2.924027E1,4.9100555E1,3.2597516E0,2.5980518E1,4.5250153E1,3.8504057E0,2.970328E0,2.3010191E1,4.1134113E1,4.1160383E0,2.4084427E0,1.4419632E0],"tree_param":{"num_deleted":"0","num_feature":"10","num_nodes":"13","size_leaf_vector":"1"}},{"base_weights":[4.8856676E-2,1.9478267E-1,-2.0170511E-1,3.7237453E-1,-1.2000409E-1,-2.8049005E-2,4.2478044E-2,3.572118E-2,9.17806E-3,1.4192677E-2,-1.4019198E-2,-2.7593909E-2,1.7164832E-2],"categories":[],"categories_nodes":[],"categories_segments":[],"categories_sizes":[],"default_left":[0,0,0,0,0,0,0,0,0,0,0,0,0],"id":55,"left_children":[1,3,5,7,9,-1,11,-1,-1,-1,-1,-1,-1],"loss_changes":[2.3323E0,2.2886848E0,2.0918307E0,1.5419767E0,1.0663178E0,0E0,2.8648896E0,0E0,0E0,0E0,0E0,0E0,0E0],"parents":[2147483647,0,0,1,1,2,2,3,3,4,4,6,6],"right_children":[2,4,6,8,10,-1,12,-1,-1,-1,-1,-1,-1],"split_conditions":[1.4285715E-1,1.5714286E-1,1.2E-1,1.14285715E-1,8E-2,-2.8049005E-2,1.25E-1,3.572118E-2,9.17806E-3,1.4192677E-2,-1.4019198E-2,-2.7593909E-2,1.7164832E-2],"split_indices":[1,2,6,7,7,0,7,0,0,0,0,0,0],"split_type":[0,0,0,0,0,0,0,0,0,0,0,0,0],"sum_hessian":[6.1713154E1,3.914052E1,2.2572636E1,2.49063E1,1.423422E1,8.608817E0,1.3963819E1,7.8683887E0,1.703791E1,3.8271267E0,1.0407093E1,4.412006E0,9.551813E0],"tree_param":{"num_deleted":"0","num_feature":"10","num_nodes":"13","size_leaf_vector":"1"}},{"base_weights":[3.9427206E-2,4.4770646E-1,-1.1458553E-1,-2.086076E-2,5.7288903E-1,-4.2615607E-1,1.6308062E-1,3.224772E-2,-5.2627344E-3,-1.1458155E-3,-2.4617543E-2,1.1716247E-2,-2.152727E-2],"categories":[],"categories_nodes":[],"categories_segments":[],"categories_sizes":[],"default_left":[0,0,0,0,0,0,0,0,0,0,0,0,0],"id":56,"left_children":[1,3,5,-1,7,9,11,-1,-1,-1,-1,-1,-1],"loss_changes":[4.246208E0,2.2395277E0,4.329049E0,0E0,8.772721E-1,6.1540985E-1,1.2325433E0,0E0,0E0,0E0,0E0,0E0,0E0],"parents":[2147483647,0,0,1,1,2,2,4,4,5,5,6,6],"right_children":[2,4,6,-1,8,10,12,-1,-1,-1,-1,-1,-1],"split_conditions":[2.6666668E-1,2E-1,4.6666667E-1,-2.086076E-2,1.4E-1,6.666667E-2,7.3333335E-1,3.224772E-2,-5.2627344E-3,-1.1458155E-3,-2.4617543E-2,1.1716247E-2,-2.152727E-2],"split_indices":[0,5,5,0,1,2,0,0,0,0,0,0,0],"split_type":[0,0,0,0,0,0,0,0,0,0,0,0,0],"sum_hessian":[6.571271E1,1.7476507E1,4.82362E1,1.9146688E0,1.5561837E1,2.2478352E1,2.5757847E1,1.4111203E1,1.4506342E0,3.3594906E0,1.911886E1,2.3538166E1,2.2196798E0],"tree_param":{"num_deleted":"0","num_feature":"10","num_nodes":"13","size_leaf_vector":"1"}},{"base_weights":[-2.7874477E-2,-3.0078688E-1,2.8019837E-1,2.7854276E-1,-4.4388738E-1,3.5105112E-1,-4.0838957E-1,-2.4852036E-2,3.015743E-2,3.1568955E-3,-2.6192976E-2,-2.2998104E-2,2.0080062E-2,-3.8663314E-3,-2.7498916E-2],"categories":[],"categories_nodes":[],"categories_segments":[],"categories_sizes":[],"default_left":[0,0,0,0,0,0,0,0,0,0,0,0,0,0,0],"id":57,"left_children":[1,3,5,7,9,11,13,-1,-1,-1,-1,-1,-1,-1,-1],"loss_changes":[6.344694E0,3.4368918E0,1.875102E0,2.4475255E0,1.3482356E0,1.5261817E0,1.3436717E-1,0E0,0E0,0E0,0E0,0E0,0E0,0E0,0E0],"parents":[2147483647,0,0,1,1,2,2,3,3,4,4,5,5,6,6],"right_children":[2,4,6,8,10,12,14,-1,-1,-1,-1,-1,-1,-1,-1],"split_conditions":[4.6666667E-1,2.6666668E-1,7.3333335E-1,8E-2,1.14285715E-1,5E-1,1.25E-1,-2.4852036E-2,3.015743E-2,3.1568955E-3,-2.6192976E-2,-2.2998104E-2,2.0080062E-2,-3.8663314E-3,-2.7498916E-2],"split_indices":[0,5,5,1,2,4,2,0,0,0,0,0,0,0,0],"split_type":[0,0,0,0,0,0,0,0,0,0,0,0,0,0,0],"sum_hessian":[7.346056E1,3.896569E1,3.4494877E1,7.5309243E0,3.1434767E1,3.1721098E1,2.7737775E0,2.0652328E0,5.4656916E0,4.311329E0,2.7123438E1,1.3859609E0,3.0335138E1,1.2940842E0,1.4796932E0],"tree_param":{"num_deleted":"0","num_feature":"10","num_nodes":"15","size_leaf_vector":"1"}},{"base_weights":[2.757212E-3,1.5421924E-1,-2.2735736E-1,2.4607418E-1,-2.587528E-2,-4.5628205E-1,-7.99683E-2,2.6827574E-2,3.5641969E-3,-1.0249884E-3,-2.7467957E-2,-2.1224808E-2,7.2027906E-3],"categories":[],"categories_nodes":[],"categories_segments":[],"categories_sizes":[],"default_left":[0,0,0,0,0,0,0,0,0,0,0,0,0],"id":58,"left_children":[1,3,5,7,-1,9,11,-1,-1,-1,-1,-1,-1],"loss_changes":[2.194305E0,2.4693148E0,8.06872E-1,1.6914916E0,0E0,3.7720335E-1,1.3283268E0,0E0,0E0,0E0,0E0,0E0,0E0],"parents":[2147483647,0,0,1,1,2,2,3,3,5,5,6,6],"right_children":[2,4,6,8,-1,10,12,-1,-1,-1,-1,-1,-1],"split_conditions":[1.5E-1,2.2E-1,1.2E-1,1.14285715E-1,-2.587528E-2,6E-2,1.6666667E-1,2.6827574E-2,3.5641969E-3,-1.0249884E-3,-2.7467957E-2,-2.1224808E-2,7.2027906E-3],"split_indices":[1,2,6,7,0,6,1,0,0,0,0,0,0],"split_type":[0,0,0,0,0,0,0,0,0,0,0,0,0],"sum_hessian":[6.095173E1,3.6956608E1,2.3995121E1,3.3068348E1,3.8882594E0,8.577219E0,1.5417902E1,1.1645477E1,2.1422869E1,1.7243142E0,6.852905E0,5.7224493E0,9.695453E0],"tree_param":{"num_deleted":"0","num_feature":"10","num_nodes":"13","size_leaf_vector":"1"}},{"base_weights":[-3.601178E-2,-3.0647126E-1,2.097102E-1,1.2295155E-1,-4.0703005E-1,-2.1280678E-2,5.523307E-1,-1.6560595E-2,4.2620074E-2,2.2890547E-3,-2.3427956E-2,-5.5423887E-3,3.5900302E-2,9.660939E-3,3.2630086E-2],"categories":[],"categories_nodes":[],"categories_segments":[],"categories_sizes":[],"default_left":[0,0,0,0,0,0,0,0,0,0,0,0,0,0,0],"id":59,"left_children":[1,3,5,7,9,11,13,-1,-1,-1,-1,-1,-1,-1,-1],"loss_changes":[4.3337975E0,1.3882167E0,2.7227879E0,2.4846895E0,7.274804E-1,1.4981753E0,3.7195826E-1,0E0,0E0,0E0,0E0,0E0,0E0,0E0,0E0],"parents":[2147483647,0,0,1,1,2,2,3,3,4,4,5,5,6,6],"right_children":[2,4,6,8,10,12,14,-1,-1,-1,-1,-1,-1,-1,-1],"split_conditions":[4.6666667E-1,8.75E-2,1.75E-1,1.14285715E-1,6.666667E-2,2.857143E-1,8E-2,-1.6560595E-2,4.2620074E-2,2.2890547E-3,-2.3427956E-2,-5.5423887E-3,3.5900302E-2,9.660939E-3,3.2630086E-2],"split_indices":[5,1,2,2,2,6,7,0,0,0,0,0,0,0,0],"split_type":[0,0,0,0,0,0,0,0,0,0,0,0,0,0,0],"sum_hessian":[6.3244156E1,2.9988932E1,3.3255226E1,5.6478534E0,2.4341078E1,2.0423689E1,1.2831535E1,3.8171792E0,1.8306742E0,2.9424725E0,2.1398605E1,1.897488E1,1.4488099E0,3.439661E0,9.391874E0],"tree_param":{"num_deleted":"0","num_feature":"10","num_nodes":"15","size_leaf_vector":"1"}},{"base_weights":[1.7275287E-2,-3.0573297E-2,1.1316999E-1,4.5314953E-1,-1.03817455E-1,-9.044011E-4,2.821135E-2,2.6558315E-2,-9.589183E-3],"categories":[],"categories_nodes":[],"categories_segments":[],"categories_sizes":[],"default_left":[0,0,0,0,0,0,0,0,0],"id":60,"left_children":[1,-1,3,5,7,-1,-1,-1,-1],"loss_changes":[4.618997E0,0E0,4.939494E0,1.3723764E0,2.4085236E0,0E0,0E0,0E0,0E0],"parents":[2147483647,0,0,2,2,3,3,4,4],"right_children":[2,-1,4,6,8,-1,-1,-1,-1],"split_conditions":[2E-1,-3.0573297E-2,3.3333334E-1,1.5E-1,8.571429E-2,-9.044011E-4,2.821135E-2,2.6558315E-2,-9.589183E-3],"split_indices":[0,0,5,7,2,0,0,0,0],"split_type":[0,0,0,0,0,0,0,0,0],"sum_hessian":[7.4461525E1,9.142377E0,6.5319145E1,2.5023516E1,4.029563E1,4.9329615E0,2.0090555E1,4.2899976E0,3.600563E1],"tree_param":{"num_deleted":"0","num_feature":"10","num_nodes":"9","size_leaf_vector":"1"}},{"base_weights":[3.700628E-2,1.2126815E-1,-2.354205E-1,2.4533059E-1,-1.7055401E-1,-3.998832E-1,8.352642E-2,1.4339621E-2,-1.9423755E-2,-1.9145241E-2,1.1777625E-2,-1.5016034E-3,-2.8024528E-2,-1.7761037E-2,1.36692105E-2],"categories":[],"categories_nodes":[],"categories_segments":[],"categories_sizes":[],"default_left":[0,0,0,0,0,0,0,0,0,0,0,0,0,0,0],"id":61,"left_children":[1,3,5,7,9,11,13,-1,-1,-1,-1,-1,-1,-1,-1],"loss_changes":[1.5198984E0,1.8621974E0,8.5629076E-1,1.0493336E0,1.434543E0,6.082556E-1,6.105993E-1,0E0,0E0,0E0,0E0,0E0,0E0,0E0,0E0],"parents":[2147483647,0,0,1,1,2,2,3,3,4,4,5,5,6,6],"right_children":[2,4,6,8,10,12,14,-1,-1,-1,-1,-1,-1,-1,-1],"split_conditions":[1.75E-1,1.6666667E-1,1.4285715E-1,8E-1,1.4285715E-1,7.1428575E-2,1.2E-1,1.4339621E-2,-1.9423755E-2,-1.9145241E-2,1.1777625E-2,-1.5016034E-3,-2.8024528E-2,-1.7761037E-2,1.36692105E-2],"split_indices":[2,7,7,0,6,7,6,0,0,0,0,0,0,0,0],"split_type":[0,0,0,0,0,0,0,0,0,0,0,0,0,0,0],"sum_hessian":[6.396785E1,4.928027E1,1.4687577E1,3.4691277E1,1.4588996E1,9.52323E0,5.164347E0,3.30751E1,1.6161757E0,9.617298E0,4.971698E0,3.2427416E0,6.280488E0,1.2967265E0,3.8676207E0],"tree_param":{"num_deleted":"0","num_feature":"10","num_nodes":"15","size_leaf_vector":"1"}},{"base_weights":[-3.0740036E-2,-3.1547856E-1,1.9449879E-1,-4.1812265E-1,3.520555E-2,7.208518E-2,6.984238E-1,-6.7485883E-3,-2.6201753E-2,3.107289E-2,-1.1030133E-3,1.5166138E-2,3.9807167E-2],"categories":[],"categories_nodes":[],"categories_segments":[],"categories_sizes":[],"default_left":[0,0,0,0,0,0,0,0,0,0,0,0,0],"id":62,"left_children":[1,3,5,7,-1,9,11,-1,-1,-1,-1,-1,-1],"loss_changes":[4.140739E0,3.274379E0,2.178578E0,7.2390366E-1,0E0,1.5749497E0,2.6720524E-2,0E0,0E0,0E0,0E0,0E0,0E0],"parents":[2147483647,0,0,1,1,2,2,3,3,5,5,6,6],"right_children":[2,4,6,8,-1,10,12,-1,-1,-1,-1,-1,-1],"split_conditions":[4.6666667E-1,2.125E-1,1.8571429E-1,1.14285715E-1,3.520555E-2,8.571429E-2,6E-1,-6.7485883E-3,-2.6201753E-2,3.107289E-2,-1.1030133E-3,1.5166138E-2,3.9807167E-2],"split_indices":[5,6,2,1,0,1,5,0,0,0,0,0,0],"split_type":[0,0,0,0,0,0,0,0,0,0,0,0,0],"sum_hessian":[6.260694E1,2.7474308E1,3.5132633E1,2.549735E1,1.9769579E0,2.9185848E1,5.9467874E0,7.56013E0,1.793722E1,3.4504118E0,2.5735435E1,1.9929351E0,3.9538522E0],"tree_param":{"num_deleted":"0","num_feature":"10","num_nodes":"13","size_leaf_vector":"1"}},{"base_weights":[-3.0563151E-2,-2.7022192E-1,2.0780505E-1,2.2357267E-1,-4.309485E-1,-2.7952923E-2,2.9829252E-1,-1.3452276E-2,3.2775555E-2,-2.5904736E-2,-4.693817E-3,1.8687593E-2,-2.0339016E-2],"categories":[],"categories_nodes":[],"categories_segments":[],"categories_sizes":[],"default_left":[0,0,0,0,0,0,0,0,0,0,0,0,0],"id":63,"left_children":[1,3,5,7,9,-1,11,-1,-1,-1,-1,-1,-1],"loss_changes":[4.2967396E0,3.0685945E0,2.788437E0,2.2732637E0,7.913332E-1,0E0,1.9846816E0,0E0,0E0,0E0,0E0,0E0,0E0],"parents":[2147483647,0,0,1,1,2,2,3,3,4,4,6,6],"right_children":[2,4,6,8,10,-1,12,-1,-1,-1,-1,-1,-1],"split_conditions":[4.6666667E-1,2.6666668E-1,5E-1,1.375E-1,1.4E-1,-2.7952923E-2,7.3333335E-1,-1.3452276E-2,3.2775555E-2,-2.5904736E-2,-4.693817E-3,1.8687593E-2,-2.0339016E-2],"split_indices":[0,5,4,7,1,0,5,0,0,0,0,0,0],"split_type":[0,0,0,0,0,0,0,0,0,0,0,0,0],"sum_hessian":[7.3230804E1,3.6449913E1,3.678089E1,8.854753E0,2.7595161E1,3.3354356E0,3.3445457E1,4.312987E0,4.541765E0,2.149963E1,6.095531E0,3.063654E1,2.8089175E0],"tree_param":{"num_deleted":"0","num_feature":"10","num_nodes":"13","size_leaf_vector":"1"}},{"base_weights":[2.859738E-2,7.145767E-2,-2.4685917E-2,5.0116414E-1,1.7167747E-2,4.7083374E-2,-9.674068E-3,1.6944146E-2,-2.6911628E-3],"categories":[],"categories_nodes":[],"categories_segments":[],"categories_sizes":[],"default_left":[0,0,0,0,0,0,0,0,0],"id":64,"left_children":[1,3,-1,5,7,-1,-1,-1,-1],"loss_changes":[1.4848872E0,1.407831E0,0E0,2.255328E0,1.273036E0,0E0,0E0,0E0,0E0],"parents":[2147483647,0,0,1,1,3,3,4,4],"right_children":[2,4,-1,6,8,-1,-1,-1,-1],"split_conditions":[2.25E-1,6E-2,-2.4685917E-2,1.5E-1,5E-1,4.7083374E-2,-9.674068E-3,1.6944146E-2,-2.6911628E-3],"split_indices":[7,6,0,7,4,0,0,0,0],"split_type":[0,0,0,0,0,0,0,0,0],"sum_hessian":[6.3753338E1,5.9716316E1,4.037023E0,5.775084E0,5.394123E1,3.3164058E0,2.4586785E0,9.0689945E0,4.487224E1],"tree_param":{"num_deleted":"0","num_feature":"10","num_nodes":"9","size_leaf_vector":"1"}},{"base_weights":[5.5535484E-2,-3.9738345E-1,2.0609672E-1,1.0426205E-2,-4.8661578E-1,2.859287E-1,-2.6819041E-2,-2.740843E-2,-7.176317E-3,1.7921941E-2,-2.3263536E-2],"categories":[],"categories_nodes":[],"categories_segments":[],"categories_sizes":[],"default_left":[0,0,0,0,0,0,0,0,0,0,0],"id":65,"left_children":[1,3,5,-1,7,9,-1,-1,-1,-1,-1],"loss_changes":[4.2844534E0,9.5123625E-1,2.9339533E0,0E0,2.1696591E-1,2.5094647E0,0E0,0E0,0E0,0E0,0E0],"parents":[2147483647,0,0,1,1,2,2,4,4,5,5],"right_children":[2,4,6,-1,8,10,-1,-1,-1,-1,-1],"split_conditions":[3.3333334E-1,1.3333334E-1,8E-1,1.0426205E-2,1.5E-1,7.3333335E-1,-2.6819041E-2,-2.740843E-2,-7.176317E-3,1.7921941E-2,-2.3263536E-2],"split_indices":[5,0,4,0,2,0,0,0,0,0,0],"split_type":[0,0,0,0,0,0,0,0,0,0,0],"sum_hessian":[6.062821E1,1.4717031E1,4.591118E1,1.7175577E0,1.2999473E1,4.2009205E1,3.9019742E0,1.0515222E1,2.4842515E0,3.8788006E1,3.2211993E0],"tree_param":{"num_deleted":"0","num_feature":"10","num_nodes":"11","size_leaf_vector":"1"}},{"base_weights":[4.3060746E-2,-1.169414E-1,5.5505663E-1,2.1221058E-1,-3.053058E-1,-8.57955E-3,6.2546915E-1,-2.6359914E-2,1.8531539E-2,-2.649918E-2,-7.0703984E-3,3.3483602E-2,5.0734947E-3],"categories":[],"categories_nodes":[],"categories_segments":[],"categories_sizes":[],"default_left":[0,0,0,0,0,0,0,0,0,0,0,0,0],"id":66,"left_children":[1,3,5,7,9,-1,11,-1,-1,-1,-1,-1,-1],"loss_changes":[6.0844665E0,3.587092E0,1.0113959E0,2.6866512E0,1.2707243E0,0E0,3.101492E-1,0E0,0E0,0E0,0E0,0E0,0E0],"parents":[2147483647,0,0,1,1,2,2,3,3,4,4,6,6],"right_children":[2,4,6,8,10,-1,12,-1,-1,-1,-1,-1,-1],"split_conditions":[6E-1,3.3333334E-1,1.4285715E-1,2E-1,3.3333334E-1,-8.57955E-3,2.4285714E-1,-2.6359914E-2,1.8531539E-2,-2.649918E-2,-7.0703984E-3,3.3483602E-2,5.0734947E-3],"split_indices":[0,5,1,0,0,0,1,0,0,0,0,0,0],"split_type":[0,0,0,0,0,0,0,0,0,0,0,0,0],"sum_hessian":[7.248053E1,5.581086E1,1.6669672E1,2.0267828E1,3.554303E1,1.345665E0,1.5324007E1,3.1654747E0,1.7102354E1,1.4049621E1,2.149341E1,1.3875512E1,1.4484942E0],"tree_param":{"num_deleted":"0","num_feature":"10","num_nodes":"13","size_leaf_vector":"1"}},{"base_weights":[1.6298947E-3,3.9310077E-1,-8.005682E-2,-2.1182543E-2,5.6089765E-1,3.278733E-1,-1.4627977E-1,3.7032694E-2,6.2876153E-3,4.8249807E-2,-1.54572725E-2,1.9350074E-3,-1.39933545E-2],"categories":[],"categories_nodes":[],"categories_segments":[],"categories_sizes":[],"default_left":[0,0,0,0,0,0,0,0,0,0,0,0,0],"id":67,"left_children":[1,3,5,-1,7,9,11,-1,-1,-1,-1,-1,-1],"loss_changes":[2.1587346E0,1.83476E0,1.5572252E0,0E0,6.9672275E-1,3.5904484E0,1.2156764E0,0E0,0E0,0E0,0E0,0E0,0E0],"parents":[2147483647,0,0,1,1,2,2,4,4,5,5,6,6],"right_children":[2,4,6,-1,8,10,12,-1,-1,-1,-1,-1,-1],"split_conditions":[5E-1,8.3333336E-2,6E-2,-2.1182543E-2,1.4285715E-1,1.5E-1,4E-1,3.7032694E-2,6.2876153E-3,4.8249807E-2,-1.54572725E-2,1.9350074E-3,-1.39933545E-2],"split_indices":[4,1,6,0,2,7,0,0,0,0,0,0,0],"split_type":[0,0,0,0,0,0,0,0,0,0,0,0,0],"sum_hessian":[6.552281E1,1.0653805E1,5.4869003E1,1.5558618E0,9.097943E0,7.111494E0,4.7757507E1,5.94147E0,3.1564727E0,3.2980464E0,3.813448E0,2.0324392E1,2.7433117E1],"tree_param":{"num_deleted":"0","num_feature":"10","num_nodes":"13","size_leaf_vector":"1"}},{"base_weights":[6.88902E-3,-1.8130483E-1,3.447124E-1,1.5757066E-1,-4.331806E-1,4.4036353E-1,-2.1589711E-2,-1.8145058E-2,1.7004665E-2,-1.2086888E-2,-2.7901223E-2,2.5647748E-2,-1.9626161E-2],"categories":[],"categories_nodes":[],"categories_segments":[],"categories_sizes":[],"default_left":[0,0,0,0,0,0,0,0,0,0,0,0,0],"id":68,"left_children":[1,3,5,7,9,11,-1,-1,-1,-1,-1,-1,-1],"loss_changes":[4.068695E0,3.5784392E0,1.8902187E0,1.8587873E0,4.3530512E-1,1.4634018E0,0E0,0E0,0E0,0E0,0E0,0E0,0E0],"parents":[2147483647,0,0,1,1,2,2,3,3,4,4,5,5],"right_children":[2,4,6,8,10,12,-1,-1,-1,-1,-1,-1,-1],"split_conditions":[6E-1,4E-1,6.666667E-1,2.6666668E-1,5.3333336E-1,8E-1,-2.1589711E-2,-1.8145058E-2,1.7004665E-2,-1.2086888E-2,-2.7901223E-2,2.5647748E-2,-1.9626161E-2],"split_indices":[5,0,0,5,0,4,0,0,0,0,0,0,0],"split_type":[0,0,0,0,0,0,0,0,0,0,0,0,0],"sum_hessian":[6.201402E1,4.012474E1,2.188928E1,1.7267427E1,2.2857311E1,1.9874058E1,2.0152214E0,4.2266593E0,1.3040768E1,1.0181197E1,1.2676115E1,1.86341E1,1.2399576E0],"tree_param":{"num_deleted":"0","num_feature":"10","num_nodes":"13","size_leaf_vector":"1"}},{"base_weights":[-4.7555633E-2,-2.3137043E-1,2.750965E-1,-2.7114195E-1,2.5512664E-2,5.301777E-1,-1.5355676E-1,-1.6974425E-2,7.189513E-3,3.0058026E-2,-8.349135E-3,8.709571E-3,-2.5273934E-2],"categories":[],"categories_nodes":[],"categories_segments":[],"categories_sizes":[],"default_left":[0,0,0,0,0,0,0,0,0,0,0,0,0],"id":69,"left_children":[1,3,5,7,-1,9,11,-1,-1,-1,-1,-1,-1],"loss_changes":[4.581967E0,1.5859039E0,3.1546247E0,1.3882794E0,0E0,9.8348904E-1,1.386931E0,0E0,0E0,0E0,0E0,0E0,0E0],"parents":[2147483647,0,0,1,1,2,2,3,3,5,5,6,6],"right_children":[2,4,6,8,-1,10,12,-1,-1,-1,-1,-1,-1],"split_conditions":[1.6E-1,8E-1,1.4285715E-1,8E-1,2.5512664E-2,5.3333336E-1,1.4285715E-1,-1.6974425E-2,7.189513E-3,3.0058026E-2,-8.349135E-3,8.709571E-3,-2.5273934E-2],"split_indices":[7,0,2,4,0,5,6,0,0,0,0,0,0],"split_type":[0,0,0,0,0,0,0,0,0,0,0,0,0],"sum_hessian":[7.518365E1,4.807707E1,2.7106577E1,4.6232143E1,1.844926E0,1.6845427E1,1.026115E1,3.9849983E1,6.38216E0,1.5413746E1,1.4316812E0,5.5745487E0,4.6866016E0],"tree_param":{"num_deleted":"0","num_feature":"10","num_nodes":"13","size_leaf_vector":"1"}},{"base_weights":[-3.5904755E-3,3.8611194E-1,-1.07158E-1,-2.0949533E-2,5.372459E-1,-1.8544576E-1,3.845791E-1,3.5466224E-2,4.606855E-3,3.162542E-2,-1.1125422E-2,-4.8271483E-3,4.2556487E-2],"categories":[],"categories_nodes":[],"categories_segments":[],"categories_sizes":[],"default_left":[0,0,0,0,0,0,0,0,0,0,0,0,0],"id":70,"left_children":[1,3,5,-1,7,9,11,-1,-1,-1,-1,-1,-1],"loss_changes":[2.4025972E0,1.7461598E0,1.8807781E0,0E0,7.7434826E-1,1.390404E0,1.6042228E0,0E0,0E0,0E0,0E0,0E0,0E0],"parents":[2147483647,0,0,1,1,2,2,4,4,5,5,6,6],"right_children":[2,4,6,-1,8,10,12,-1,-1,-1,-1,-1,-1],"split_conditions":[5E-1,8.3333336E-2,8E-1,-2.0949533E-2,1.5E-1,5E-2,1.4E-1,3.5466224E-2,4.606855E-3,3.162542E-2,-1.1125422E-2,-4.8271483E-3,4.2556487E-2],"split_indices":[4,1,4,0,1,2,2,0,0,0,0,0,0],"split_type":[0,0,0,0,0,0,0,0,0,0,0,0,0],"sum_hessian":[5.7503273E1,1.1500654E1,4.600262E1,1.5375724E0,9.963082E0,4.0221905E1,5.780714E0,6.7571697E0,3.2059126E0,1.0470976E0,3.917481E1,3.2363532E0,2.5443609E0],"tree_param":{"num_deleted":"0","num_feature":"10","num_nodes":"13","size_leaf_vector":"1"}},{"base_weights":[-1.6659092E-2,-1.9388919E-1,3.6329767E-1,-2.7696872E-1,5.633426E-1,-1.7876579E-1,4.86069E-1,-2.417524E-2,-8.501957E-3,-2.0601505E-3,4.082833E-2,1.6253691E-2,-2.3274815E-2,1.2605374E-2,3.222991E-2],"categories":[],"categories_nodes":[],"categories_segments":[],"categories_sizes":[],"default_left":[0,0,0,0,0,0,0,0,0,0,0,0,0,0,0],"id":71,"left_children":[1,3,5,7,9,11,13,-1,-1,-1,-1,-1,-1,-1,-1],"loss_changes":[4.49718E0,3.0171742E0,1.5015919E0,8.376975E-1,7.724452E-1,8.240506E-1,4.9031162E-1,0E0,0E0,0E0,0E0,0E0,0E0,0E0,0E0],"parents":[2147483647,0,0,1,1,2,2,3,3,4,4,5,5,6,6],"right_children":[2,4,6,8,10,12,14,-1,-1,-1,-1,-1,-1,-1,-1],"split_conditions":[1.75E-1,2.2857143E-1,4E-1,3.3333334E-1,5E-1,1.1666667E-1,1.8571429E-1,-2.417524E-2,-8.501957E-3,-2.0601505E-3,4.082833E-2,1.6253691E-2,-2.3274815E-2,1.2605374E-2,3.222991E-2],"split_indices":[2,6,5,5,4,7,2,0,0,0,0,0,0,0,0],"split_type":[0,0,0,0,0,0,0,0,0,0,0,0,0,0,0],"sum_hessian":[6.473739E1,4.4479652E1,2.025774E1,4.0653587E1,3.8260655E0,3.6566608E0,1.660108E1,1.2666448E1,2.7987137E1,1.376678E0,2.4493876E0,1.277727E0,2.3789337E0,7.7515025E0,8.849577E0],"tree_param":{"num_deleted":"0","num_feature":"10","num_nodes":"15","size_leaf_vector":"1"}},{"base_weights":[-2.2919167E-2,-2.0537165E-1,3.065819E-1,-2.6581138E-1,2.7856587E-2,5.596722E-1,-1.3194433E-1,-1.6421583E-2,5.8406233E-3,3.1077906E-2,6.5203607E-3,-1.357714E-2,2.2195552E-2],"categories":[],"categories_nodes":[],"categories_segments":[],"categories_sizes":[],"default_left":[0,0,0,0,0,0,0,0,0,0,0,0,0],"id":72,"left_children":[1,3,5,7,-1,9,11,-1,-1,-1,-1,-1,-1],"loss_changes":[4.297853E0,2.2651114E0,2.9046545E0,1.0743964E0,0E0,3.536353E-1,9.359081E-1,0E0,0E0,0E0,0E0,0E0,0E0],"parents":[2147483647,0,0,1,1,2,2,3,3,5,5,6,6],"right_children":[2,4,6,8,-1,10,12,-1,-1,-1,-1,-1,-1],"split_conditions":[1.6666667E-1,8E-1,1.4285715E-1,8E-1,2.7856587E-2,5.3333336E-1,2.25E-1,-1.6421583E-2,5.8406233E-3,3.1077906E-2,6.5203607E-3,-1.357714E-2,2.2195552E-2],"split_indices":[7,0,2,4,0,5,7,0,0,0,0,0,0],"split_type":[0,0,0,0,0,0,0,0,0,0,0,0,0],"sum_hessian":[6.944262E1,4.4936787E1,2.4505835E1,4.2240032E1,2.6967542E0,1.5363001E1,9.142833E0,3.6420998E1,5.8190336E0,1.3035718E1,2.3272824E0,7.784237E0,1.3585961E0],"tree_param":{"num_deleted":"0","num_feature":"10","num_nodes":"13","size_leaf_vector":"1"}},{"base_weights":[5.83119E-2,1.5419099E-1,-3.067642E-1,2.7983484E-1,-1.8229431E-1,-2.4183994E-2,-2.8036851E-2,1.6415795E-2,-2.0327432E-2,-2.2410778E-2,1.1513582E-2,-2.3155918E-2,1.6004538E-2],"categories":[],"categories_nodes":[],"categories_segments":[],"categories_sizes":[],"default_left":[0,0,0,0,0,0,0,0,0,0,0,0,0],"id":73,"left_children":[1,3,5,7,9,11,-1,-1,-1,-1,-1,-1,-1],"loss_changes":[2.2320647E0,2.1690657E0,9.4217896E-1,1.3604717E0,1.6640002E0,1.25872E0,0E0,0E0,0E0,0E0,0E0,0E0,0E0],"parents":[2147483647,0,0,1,1,2,2,3,3,4,4,5,5],"right_children":[2,4,6,8,10,12,-1,-1,-1,-1,-1,-1,-1],"split_conditions":[1.8E-1,1.75E-1,1.4E-1,8E-1,1.4285715E-1,1.2E-1,-2.8036851E-2,1.6415795E-2,-2.0327432E-2,-2.2410778E-2,1.1513582E-2,-2.3155918E-2,1.6004538E-2],"split_indices":[2,7,6,0,2,6,0,0,0,0,0,0,0],"split_type":[0,0,0,0,0,0,0,0,0,0,0,0,0],"sum_hessian":[6.14162E1,4.909907E1,1.231713E1,3.5872585E1,1.3226486E1,6.348624E0,5.968506E0,3.3993225E1,1.8793595E0,7.990052E0,5.236434E0,2.6389215E0,3.7097025E0],"tree_param":{"num_deleted":"0","num_feature":"10","num_nodes":"13","size_leaf_vector":"1"}},{"base_weights":[1.3070728E-2,1.57543E-1,-3.8609546E-1,2.665085E-1,-2.76204E-2,-2.7142173E-2,9.131264E-2,4.33951E-2,6.9397837E-3,2.8925983E-2,-2.0500552E-2],"categories":[],"categories_nodes":[],"categories_segments":[],"categories_sizes":[],"default_left":[0,0,0,0,0,0,0,0,0,0,0],"id":74,"left_children":[1,3,5,7,-1,-1,9,-1,-1,-1,-1],"loss_changes":[3.351516E0,3.4433913E0,1.206042E0,2.7684445E0,0E0,0E0,1.3792781E0,0E0,0E0,0E0,0E0],"parents":[2147483647,0,0,1,1,2,2,3,3,6,6],"right_children":[2,4,6,8,-1,-1,10,-1,-1,-1,-1],"split_conditions":[5.3333336E-1,8E-1,6E-1,6E-2,-2.76204E-2,-2.7142173E-2,6.666667E-1,4.33951E-2,6.9397837E-3,2.8925983E-2,-2.0500552E-2],"split_indices":[0,4,5,7,0,0,0,0,0,0,0],"split_type":[0,0,0,0,0,0,0,0,0,0,0],"sum_hessian":[5.606221E1,4.1608097E1,1.4454112E1,3.6613197E1,4.994898E0,1.0778222E1,3.67589E0,5.3980966E0,3.1215101E1,1.7861001E0,1.8897899E0],"tree_param":{"num_deleted":"0","num_feature":"10","num_nodes":"11","size_leaf_vector":"1"}},{"base_weights":[-1.3959036E-2,3.3835727E-1,-1.4583622E-1,-9.0155296E-2,5.243441E-1,-3.1970707E-1,2.1833809E-1,-3.1123606E-2,1.5844557E-2,2.8775055E-2,1.1570692E-3,-8.234673E-3,-2.6661456E-2,-2.3453554E-2,1.5950875E-2],"categories":[],"categories_nodes":[],"categories_segments":[],"categories_sizes":[],"default_left":[0,0,0,0,0,0,0,0,0,0,0,0,0,0,0],"id":75,"left_children":[1,3,5,7,9,11,13,-1,-1,-1,-1,-1,-1,-1,-1],"loss_changes":[3.4160478E0,1.6441684E0,3.4525595E0,1.6961756E0,3.4869838E-1,1.1224563E0,1.3855745E0,0E0,0E0,0E0,0E0,0E0,0E0,0E0,0E0],"parents":[2147483647,0,0,1,1,2,2,3,3,4,4,5,5,6,6],"right_children":[2,4,6,8,10,12,14,-1,-1,-1,-1,-1,-1,-1,-1],"split_conditions":[2.6666668E-1,1.6E-1,5.3333336E-1,6E-2,1.4285715E-1,1.7142858E-1,1.2E-1,-3.1123606E-2,1.5844557E-2,2.8775055E-2,1.1570692E-3,-8.234673E-3,-2.6661456E-2,-2.3453554E-2,1.5950875E-2],"split_indices":[5,7,0,6,6,6,1,0,0,0,0,0,0,0,0],"split_type":[0,0,0,0,0,0,0,0,0,0,0,0,0,0,0],"sum_hessian":[7.146068E1,1.903692E1,5.242376E1,5.91774E0,1.3119181E1,3.5565517E1,1.6858246E1,2.3349533E0,3.5827866E0,1.1769631E1,1.3495497E0,2.16322E1,1.3933315E1,1.6862144E0,1.5172031E1],"tree_param":{"num_deleted":"0","num_feature":"10","num_nodes":"15","size_leaf_vector":"1"}},{"base_weights":[2.2112427E-2,4.1710213E-1,-5.6401204E-2,5.857209E-1,-2.0429576E-2,-1.3458109E-1,2.7511954E-1,-2.3319542E-3,3.4640446E-2,-1.4528167E-2,-1.4336685E-3,3.0302227E-2,-8.840751E-3],"categories":[],"categories_nodes":[],"categories_segments":[],"categories_sizes":[],"default_left":[0,0,0,0,0,0,0,0,0,0,0,0,0],"id":76,"left_children":[1,3,5,7,-1,9,11,-1,-1,-1,-1,-1,-1],"loss_changes":[2.097784E0,1.8000175E0,1.5059645E0,6.9050884E-1,0E0,7.603702E-1,1.773737E0,0E0,0E0,0E0,0E0,0E0,0E0],"parents":[2147483647,0,0,1,1,2,2,3,3,5,5,6,6],"right_children":[2,4,6,8,-1,10,12,-1,-1,-1,-1,-1,-1],"split_conditions":[5E-1,1.8E-1,8E-1,8.75E-2,-2.0429576E-2,1.25E-1,1.2857144E-1,-2.3319542E-3,3.4640446E-2,-1.4528167E-2,-1.4336685E-3,3.0302227E-2,-8.840751E-3],"split_indices":[4,2,4,1,0,6,1,0,0,0,0,0,0],"split_type":[0,0,0,0,0,0,0,0,0,0,0,0,0],"sum_hessian":[6.588553E1,1.0209693E1,5.5675835E1,8.719645E0,1.4900477E0,4.5532352E1,1.0143481E1,1.3445418E0,7.375103E0,1.7708094E1,2.7824259E1,5.6588435E0,4.4846373E0],"tree_param":{"num_deleted":"0","num_feature":"10","num_nodes":"13","size_leaf_vector":"1"}},{"base_weights":[-1.7054114E-2,-2.6325396E-1,2.262104E-1,-3.6987817E-1,3.5947472E-1,4.6150777E-2,5.419485E-1,-1.5368305E-4,-2.3449926E-2,1.5379778E-3,3.0349094E-2,-2.7696283E-3,3.602441E-2,3.445645E-2,1.0364425E-2],"categories":[],"categories_nodes":[],"categories_segments":[],"categories_sizes":[],"default_left":[0,0,0,0,0,0,0,0,0,0,0,0,0,0,0],"id":77,"left_children":[1,3,5,7,9,11,13,-1,-1,-1,-1,-1,-1,-1,-1],"loss_changes":[3.9491978E0,2.3068154E0,1.8627441E0,1.0328074E0,4.1199416E-1,1.5627083E0,4.4654226E-1,0E0,0E0,0E0,0E0,0E0,0E0,0E0,0E0],"parents":[2147483647,0,0,1,1,2,2,3,3,4,4,5,5,6,6],"right_children":[2,4,6,8,10,12,14,-1,-1,-1,-1,-1,-1,-1,-1],"split_conditions":[1.4285715E-1,6E-1,1.75E-1,8.75E-2,1.8333334E-1,2.857143E-1,1.375E-1,-1.5368305E-4,-2.3449926E-2,1.5379778E-3,3.0349094E-2,-2.7696283E-3,3.602441E-2,3.445645E-2,1.0364425E-2],"split_indices":[6,5,2,1,2,6,7,0,0,0,0,0,0,0,0],"split_type":[0,0,0,0,0,0,0,0,0,0,0,0,0,0,0],"sum_hessian":[6.3944687E1,3.1739765E1,3.220492E1,2.7446402E1,4.2933636E0,2.1238924E1,1.0966E1,6.058253E0,2.1388147E1,2.3270617E0,1.9663019E0,1.9257011E1,1.981911E0,6.880725E0,4.085274E0],"tree_param":{"num_deleted":"0","num_feature":"10","num_nodes":"15","size_leaf_vector":"1"}},{"base_weights":[9.194954E-3,-1.5246555E-1,3.3161157E-1,-2.0418921E-1,2.6958153E-2,5.808199E-1,-8.491006E-2,-3.0648699E-2,-5.1523503E-3,3.0916765E-2,8.832433E-3,2.5195265E-2,-1.570322E-2],"categories":[],"categories_nodes":[],"categories_segments":[],"categories_sizes":[],"default_left":[0,0,0,0,0,0,0,0,0,0,0,0,0],"id":78,"left_children":[1,3,5,7,-1,9,11,-1,-1,-1,-1,-1,-1],"loss_changes":[3.767006E0,1.8335121E0,2.5537126E0,1.8200758E0,0E0,1.21590614E-1,1.4946157E0,0E0,0E0,0E0,0E0,0E0,0E0],"parents":[2147483647,0,0,1,1,2,2,3,3,5,5,6,6],"right_children":[2,4,6,8,-1,10,12,-1,-1,-1,-1,-1,-1],"split_conditions":[1.6666667E-1,8E-1,1.4285715E-1,8E-2,2.6958153E-2,2.3333333E-1,2E-1,-3.0648699E-2,-5.1523503E-3,3.0916765E-2,8.832433E-3,2.5195265E-2,-1.570322E-2],"split_indices":[7,0,2,7,0,1,5,0,0,0,0,0,0],"split_type":[0,0,0,0,0,0,0,0,0,0,0,0,0],"sum_hessian":[7.030279E1,4.7175827E1,2.3126963E1,4.454899E1,2.6268392E0,1.42228565E1,8.904106E0,7.8323975E0,3.671659E1,1.2529938E1,1.6929188E0,2.158593E0,6.7455134E0],"tree_param":{"num_deleted":"0","num_feature":"10","num_nodes":"13","size_leaf_vector":"1"}},{"base_weights":[1.0484746E-2,3.4869584E-1,-7.3502116E-2,4.844827E-1,-2.0123197E-2,-1.3552502E-1,2.3775427E-1,-2.1207347E-3,3.2919932E-2,-1.0941189E-2,5.384612E-3,2.1375587E-2,-1.9311758E-2],"categories":[],"categories_nodes":[],"categories_segments":[],"categories_sizes":[],"default_left":[0,0,0,0,0,0,0,0,0,0,0,0,0],"id":79,"left_children":[1,3,5,7,-1,9,11,-1,-1,-1,-1,-1,-1],"loss_changes":[1.7900825E0,1.4731083E0,1.0087886E0,1.0419903E0,0E0,8.910424E-1,1.203345E0,0E0,0E0,0E0,0E0,0E0,0E0],"parents":[2147483647,0,0,1,1,2,2,3,3,5,5,6,6],"right_children":[2,4,6,8,-1,10,12,-1,-1,-1,-1,-1,-1],"split_conditions":[5E-1,1.8E-1,8E-1,2.6666668E-1,-2.0123197E-2,1.6666667E-1,6E-1,-2.1207347E-3,3.2919932E-2,-1.0941189E-2,5.384612E-3,2.1375587E-2,-1.9311758E-2],"split_indices":[4,2,4,0,0,1,0,0,0,0,0,0,0],"split_type":[0,0,0,0,0,0,0,0,0,0,0,0,0],"sum_hessian":[6.111705E1,1.1530893E1,4.9586155E1,1.0066243E1,1.4646503E0,4.1817856E1,7.768301E0,2.6857095E0,7.3805337E0,3.1224249E1,1.0593606E1,6.198261E0,1.57004E0],"tree_param":{"num_deleted":"0","num_feature":"10","num_nodes":"13","size_leaf_vector":"1"}},{"base_weights":[-3.090974E-2,-4.8928866E-1,8.690115E-2,-2.7118335E-2,2.7763902E-3,3.4955728E-1,-8.680353E-2,2.230662E-2,-2.270155E-2,-1.3001618E-2,8.377322E-3],"categories":[],"categories_nodes":[],"categories_segments":[],"categories_sizes":[],"default_left":[0,0,0,0,0,0,0,0,0,0,0],"id":80,"left_children":[1,3,5,-1,-1,7,9,-1,-1,-1,-1],"loss_changes":[3.3939924E0,4.0143108E-1,2.3216846E0,0E0,0E0,1.7695081E0,1.4108027E0,0E0,0E0,0E0,0E0],"parents":[2147483647,0,0,1,1,2,2,5,5,6,6],"right_children":[2,4,6,-1,-1,8,10,-1,-1,-1,-1],"split_conditions":[2.6666668E-1,1.5714286E-1,3.3333334E-1,-2.7118335E-2,2.7763902E-3,8E-1,6E-1,2.230662E-2,-2.270155E-2,-1.3001618E-2,8.377322E-3],"split_indices":[5,6,0,0,0,4,5,0,0,0,0],"split_type":[0,0,0,0,0,0,0,0,0,0,0],"sum_hessian":[6.106198E1,1.1840348E1,4.922163E1,1.079332E1,1.0470288E0,1.9190943E1,3.003069E1,1.7529121E1,1.6618214E0,1.7850798E1,1.2179892E1],"tree_param":{"num_deleted":"0","num_feature":"10","num_nodes":"11","size_leaf_vector":"1"}},{"base_weights":[-3.952172E-2,-2.8799063E-2,3.8827784E-2,2.0733759E-1,-2.3633817E-1,-2.3594396E-2,1.32263005E-2,-1.56146055E-2,1.5616581E-2],"categories":[],"categories_nodes":[],"categories_segments":[],"categories_sizes":[],"default_left":[0,0,0,0,0,0,0,0,0],"id":81,"left_children":[1,-1,3,5,7,-1,-1,-1,-1],"loss_changes":[2.8501725E0,0E0,2.8144743E0,1.5823323E0,1.0610099E0,0E0,0E0,0E0,0E0],"parents":[2147483647,0,0,2,2,3,3,4,4],"right_children":[2,-1,4,6,8,-1,-1,-1,-1],"split_conditions":[2E-1,-2.8799063E-2,1.5714286E-1,5E-1,8E-1,-2.3594396E-2,1.32263005E-2,-1.56146055E-2,1.5616581E-2],"split_indices":[0,0,6,4,0,0,0,0,0],"split_type":[0,0,0,0,0,0,0,0,0],"sum_hessian":[6.627857E1,7.6369424E0,5.864163E1,3.6522186E1,2.2119444E1,2.273106E0,3.424908E1,1.9808163E1,2.3112812E0],"tree_param":{"num_deleted":"0","num_feature":"10","num_nodes":"9","size_leaf_vector":"1"}},{"base_weights":[6.337872E-2,1.3602945E-1,-2.4237543E-1,2.8200012E-1,-9.666217E-2,1.6701473E-1,-4.394297E-1,6.5109865E-3,3.4861397E-2,-1.8666819E-2,8.67987E-3,-1.926149E-2,3.0473003E-2,-2.7595652E-2,8.507154E-3],"categories":[],"categories_nodes":[],"categories_segments":[],"categories_sizes":[],"default_left":[0,0,0,0,0,0,0,0,0,0,0,0,0,0,0],"id":82,"left_children":[1,3,5,7,9,11,13,-1,-1,-1,-1,-1,-1,-1,-1],"loss_changes":[1.3182046E0,1.6369473E0,9.9853265E-1,1.7606764E0,1.4865216E0,1.3223103E0,6.436044E-1,0E0,0E0,0E0,0E0,0E0,0E0,0E0,0E0],"parents":[2147483647,0,0,1,1,2,2,3,3,4,4,5,5,6,6],"right_children":[2,4,6,8,10,12,14,-1,-1,-1,-1,-1,-1,-1,-1],"split_conditions":[1.8E-1,1.5E-1,8.75E-2,1.25E-1,1.8571429E-1,6.666667E-2,2.2E-1,6.5109865E-3,3.4861397E-2,-1.8666819E-2,8.67987E-3,-1.926149E-2,3.0473003E-2,-2.7595652E-2,8.507154E-3],"split_indices":[2,1,1,1,1,0,7,0,0,0,0,0,0,0,0],"split_type":[0,0,0,0,0,0,0,0,0,0,0,0,0,0,0],"sum_hessian":[5.685888E1,4.6390953E1,1.0467926E1,2.8377468E1,1.8013485E1,3.4509163E0,7.0170097E0,2.174318E1,6.634289E0,8.712645E0,9.300839E0,1.5925139E0,1.8584025E0,6.0037413E0,1.0132685E0],"tree_param":{"num_deleted":"0","num_feature":"10","num_nodes":"15","size_leaf_vector":"1"}},{"base_weights":[-5.37332E-2,1.7844135E-1,-4.2656907E-1,-2.477416E-2,2.8163865E-1,-1.7100158E-1,-2.7967153E-2,3.8922407E-2,8.0555715E-3,-1.8964259E-2,1.0866563E-2],"categories":[],"categories_nodes":[],"categories_segments":[],"categories_sizes":[],"default_left":[0,0,0,0,0,0,0,0,0,0,0],"id":83,"left_children":[1,3,5,-1,7,9,-1,-1,-1,-1,-1],"loss_changes":[4.9849844E0,2.6190133E0,6.528063E-1,0E0,1.7640574E0,8.0889547E-1,0E0,0E0,0E0,0E0,0E0],"parents":[2147483647,0,0,1,1,2,2,4,4,5,5],"right_children":[2,4,6,-1,8,10,-1,-1,-1,-1,-1],"split_conditions":[4.6666667E-1,8E-2,5.3333336E-1,-2.477416E-2,6E-2,6E-1,-2.7967153E-2,3.8922407E-2,8.0555715E-3,-1.8964259E-2,1.0866563E-2],"split_indices":[0,6,0,0,7,5,0,0,0,0,0],"split_type":[0,0,0,0,0,0,0,0,0,0,0],"sum_hessian":[5.5708603E1,3.465157E1,2.1057034E1,4.0967355E0,3.0554834E1,7.98164E0,1.3075395E1,4.899706E0,2.5655127E1,5.2103505E0,2.7712896E0],"tree_param":{"num_deleted":"0","num_feature":"10","num_nodes":"11","size_leaf_vector":"1"}},{"base_weights":[-1.6094642E-2,-2.515192E-1,2.0961839E-1,1.9351512E-1,-3.937432E-1,-2.5089944E-2,2.7254203E-1,-1.9840349E-2,2.8845925E-2,1.8461492E-3,-2.6835997E-2,1.5775595E-2,-2.2832116E-2],"categories":[],"categories_nodes":[],"categories_segments":[],"categories_sizes":[],"default_left":[0,0,0,0,0,0,0,0,0,0,0,0,0],"id":84,"left_children":[1,3,5,7,9,-1,11,-1,-1,-1,-1,-1,-1],"loss_changes":[3.8601453E0,2.3247733E0,1.7986808E0,2.3279634E0,1.6978312E0,0E0,1.2331033E0,0E0,0E0,0E0,0E0,0E0,0E0],"parents":[2147483647,0,0,1,1,2,2,3,3,4,4,6,6],"right_children":[2,4,6,8,10,-1,12,-1,-1,-1,-1,-1,-1],"split_conditions":[4.6666667E-1,2.6666668E-1,5E-1,8.75E-2,1.1666667E-1,-2.5089944E-2,2.125E-1,-1.9840349E-2,2.8845925E-2,1.8461492E-3,-2.6835997E-2,1.5775595E-2,-2.2832116E-2],"split_indices":[0,5,4,1,2,0,6,0,0,0,0,0,0],"split_type":[0,0,0,0,0,0,0,0,0,0,0,0,0],"sum_hessian":[7.065106E1,3.4525616E1,3.6125446E1,8.274178E0,2.625144E1,2.368814E0,3.3756634E1,3.2441835E0,5.0299945E0,6.727877E0,1.9523563E1,3.2413837E1,1.3427945E0],"tree_param":{"num_deleted":"0","num_feature":"10","num_nodes":"13","size_leaf_vector":"1"}},{"base_weights":[1.1788043E-2,1.0036119E-1,-2.4324512E-1,2.2531472E-1,-2.3136038E-1,-4.076752E-1,4.6564937E-2,1.3980192E-2,-2.0835796E-2,-1.867929E-2,7.0806346E-3,-2.6731223E-2,-6.584021E-3,-1.5156991E-2,3.384031E-2],"categories":[],"categories_nodes":[],"categories_segments":[],"categories_sizes":[],"default_left":[0,0,0,0,0,0,0,0,0,0,0,0,0,0,0],"id":85,"left_children":[1,3,5,7,9,11,13,-1,-1,-1,-1,-1,-1,-1,-1],"loss_changes":[1.4327773E0,1.9995853E0,7.9876685E-1,1.3237176E0,7.61009E-1,2.9898763E-1,1.7084914E0,0E0,0E0,0E0,0E0,0E0,0E0,0E0,0E0],"parents":[2147483647,0,0,1,1,2,2,3,3,4,4,5,5,6,6],"right_children":[2,4,6,8,10,12,14,-1,-1,-1,-1,-1,-1,-1,-1],"split_conditions":[1.75E-1,1.75E-1,1.8333334E-1,8E-1,1.4285715E-1,2.1428572E-1,1.4285715E-1,1.3980192E-2,-2.0835796E-2,-1.867929E-2,7.0806346E-3,-2.6731223E-2,-6.584021E-3,-1.5156991E-2,3.384031E-2],"split_indices":[7,2,1,0,7,7,2,0,0,0,0,0,0,0,0],"split_type":[0,0,0,0,0,0,0,0,0,0,0,0,0,0,0],"sum_hessian":[6.134713E1,4.598351E1,1.5363618E1,3.3634697E1,1.2348813E1,9.542675E0,5.820943E0,3.1532831E1,2.1018665E0,8.938617E0,3.410196E0,5.894364E0,3.6483114E0,4.07747E0,1.7434734E0],"tree_param":{"num_deleted":"0","num_feature":"10","num_nodes":"15","size_leaf_vector":"1"}},{"base_weights":[4.593864E-2,-2.1929851E-1,2.802119E-1,2.940418E-1,-3.636272E-1,2.8288009E-2,4.8447824E-1,-1.7719725E-2,2.5905548E-2,1.137168E-2,-2.1638041E-2,1.0708334E-2,-1.9050634E-2,1.09126875E-2,3.0716468E-2],"categories":[],"categories_nodes":[],"categories_segments":[],"categories_sizes":[],"default_left":[0,0,0,0,0,0,0,0,0,0,0,0,0,0,0],"id":86,"left_children":[1,3,5,7,9,11,13,-1,-1,-1,-1,-1,-1,-1,-1],"loss_changes":[3.6514304E0,2.1560562E0,1.5875554E0,1.1458247E0,9.9882245E-1,1.2224294E0,4.5781326E-1,0E0,0E0,0E0,0E0,0E0,0E0,0E0,0E0],"parents":[2147483647,0,0,1,1,2,2,3,3,4,4,5,5,6,6],"right_children":[2,4,6,8,10,12,14,-1,-1,-1,-1,-1,-1,-1,-1],"split_conditions":[4.6666667E-1,2E-1,1.4285715E-1,1.3333334E-1,8.75E-2,1.375E-1,1.4E-1,-1.7719725E-2,2.5905548E-2,1.137168E-2,-2.1638041E-2,1.0708334E-2,-1.9050634E-2,1.09126875E-2,3.0716468E-2],"split_indices":[5,0,2,5,1,7,6,0,0,0,0,0,0,0,0],"split_type":[0,0,0,0,0,0,0,0,0,0,0,0,0,0,0],"sum_hessian":[5.677434E1,2.665747E1,3.0116869E1,5.622471E0,2.1035E1,1.3995077E1,1.6121794E1,1.2945441E0,4.3279266E0,1.9629457E0,1.9072054E1,9.952174E0,4.042903E0,6.1643214E0,9.957471E0],"tree_param":{"num_deleted":"0","num_feature":"10","num_nodes":"15","size_leaf_vector":"1"}},{"base_weights":[-5.1386897E-2,-2.5357276E-1,1.8990411E-1,-2.9916847E-1,2.3202721E-2,4.3914607E-1,-1.4062695E-1,-2.7220745E-2,-5.639587E-3,2.9757122E-2,5.221173E-3,-1.3053465E-2,2.4127083E-2],"categories":[],"categories_nodes":[],"categories_segments":[],"categories_sizes":[],"default_left":[0,0,0,0,0,0,0,0,0,0,0,0,0],"id":87,"left_children":[1,3,5,7,-1,9,11,-1,-1,-1,-1,-1,-1],"loss_changes":[3.5083542E0,1.4155478E0,2.7727885E0,1.6433117E0,0E0,9.301326E-1,1.2446434E0,0E0,0E0,0E0,0E0,0E0,0E0],"parents":[2147483647,0,0,1,1,2,2,3,3,5,5,6,6],"right_children":[2,4,6,8,-1,10,12,-1,-1,-1,-1,-1,-1],"split_conditions":[1.5E-1,8E-1,1.4285715E-1,1.2E-1,2.3202721E-2,3.3333334E-1,2.25E-1,-2.7220745E-2,-5.639587E-3,2.9757122E-2,5.221173E-3,-1.3053465E-2,2.4127083E-2],"split_indices":[7,0,2,2,0,5,1,0,0,0,0,0,0],"split_type":[0,0,0,0,0,0,0,0,0,0,0,0,0],"sum_hessian":[6.992661E1,3.8018627E1,3.1907988E1,3.6295635E1,1.7229931E0,1.800354E1,1.39044485E1,1.4843096E1,2.145254E1,1.1749641E1,6.2538977E0,1.2139298E1,1.7651504E0],"tree_param":{"num_deleted":"0","num_feature":"10","num_nodes":"13","size_leaf_vector":"1"}},{"base_weights":[6.58302E-2,1.3850893E-1,-1.8790318E-1,-5.3470307E-3,3.4113744E-1,